100,1,20,16,0.010000,0.010000,8192,Rectangle
0.0751340558
-0.0925827733
0.0472359002
-0.0084456004
-0.0910262087
0.0194611403
-0.0066381513
0.0034833268
0.0573822874
-0.0467995005
0.1140010290
0.1093335918
-0.1168979801
0.0308410542
-0.0109183630
-0.1186848195
0.0639682743
0.0753657615
-0.0364375880
0.0014166974
0.0008728257
0.0001535851
0.0010422044
-0.0003067165
-0.0004716552
0.0008601112
0.0004362612
-0.0004630785
0.0003391959
-0.0001438093
0.0011238026
0.0016420385
-0.0008031418
0.0005416644
0.0002549464
-0.0007976662
0.0010274815
0.0005760806
0.0005156428
0.0001905454
0.0007335729
-0.0002713195
0.0005447930
-0.0000800006
-0.0004820040
0.0006379167
0.0004227224
0.0005269937
0.0018297632
-0.0000019800
0.0011687624
0.0011596317
-0.0011050407
0.0007834469
-0.0001057331
-0.0010126791
0.0009360163
0.0005518410
-0.0003858498
0.0001340349
0.0010057116
-0.0005336034
0.0005761512
-0.0005017948
-0.0005509894
0.0014232755
0.0004850532
-0.0003962829
0.0002329203
-0.0001724011
0.0015450818
0.0010965011
-0.0010999994
0.0010544337
0.0004780845
-0.0010298673
0.0009430137
0.0007418969
-0.0003185375
-0.0000031312
0.0008116125
-0.0003628285
0.0003973391
-0.0005792638
-0.0004665281
0.0010211552
0.0005872749
-0.0004590743
0.0004593068
0.0000614227
0.0013327198
0.0014539891
-0.0011412920
0.0004256853
-0.0000442157
-0.0009603286
0.0013836531
0.0006557974
-0.0003766227
0.0000418345
0.0011262775
-0.0003214489
0.0005072387
-0.0007100842
-0.0004107804
0.0006478847
0.0004344034
-0.0003270567
0.0004500408
0.0001609000
0.0011648209
0.0014865891
-0.0005113164
0.0008109083
-0.0000408810
-0.0012677782
0.0009857089
0.0005629171
-0.0002301308
0.0001046667
0.0009434262
-0.0003935620
0.0004150454
-0.0007008689
-0.0004142487
0.0005913174
0.0006151832
-0.0002337380
0.0001863956
-0.0001683013
0.0011302373
0.0012234105
-0.0010516774
0.0003728625
-0.0000479464
-0.0012119920
0.0013397534
0.0007293925
-0.0003114608
0.0000681583
0.0006753792
-0.0002813102
0.0006709924
-0.0004131125
-0.0005477887
0.0005121550
0.0004698068
0.0000146786
0.0004376201
-0.0000553231
0.0012830064
0.0011612632
-0.0006554930
0.0004932614
-0.0000694882
-0.0010027957
0.0013293892
0.0006869408
-0.0004157315
0.0005975793
0.0007454234
-0.0001786745
0.0004512123
-0.0006200549
-0.0000566921
0.0007260451
0.0005547356
-0.0004249999
0.0002799216
-0.0001599642
0.0014791635
0.0014372962
-0.0011025548
0.0006092509
0.0000701036
-0.0010344857
0.0015160768
0.0006744446
-0.0001573424
-0.0000180654
0.0006215651
-0.0005677808
0.0004551629
-0.0006645018
-0.0006468869
0.0006088060
0.0012577529
-0.0002350419
0.0002549153
-0.0001846116
0.0011714268
0.0013739815
-0.0003150529
0.0003623938
-0.0000599234
-0.0007319908
0.0011616586
0.0007499149
-0.0002736740
0.0001377443
0.0008490736
-0.0004117476
0.0007008407
-0.0005533155
-0.0005089650
0.0005601441
0.0007895614
-0.0003414429
0.0002136770
0.0003262805
0.0012195113
0.0013673703
-0.0011280855
0.0004025507
0.0004245449
-0.0011669654
0.0011363066
0.0007463155
-0.0004203041
0.0000232054
0.0007293160
-0.0004370283
0.0010505690
-0.0005518063
-0.0001675406
0.0005266121
0.0003950786
0.0001672534
0.0001964009
0.0002252087
0.0011441523
0.0011229371
-0.0004206780
0.0003380370
0.0000861931
-0.0010193802
0.0018606404
0.0007019776
0.0001709635
0.0002896479
0.0006123011
-0.0005585697
0.0009331984
-0.0003544299
-0.0006120307
0.0005598105
0.0010209608
-0.0002566205
0.0005901845
-0.0001271298
0.0013201362
0.0011580824
-0.0010800280
0.0005089435
0.0007156105
-0.0012558268
0.0009825737
0.0006677824
-0.0003688749
0.0001699074
0.0010890262
-0.0002866904
0.0004469254
-0.0004547448
-0.0002233568
0.0013177463
0.0010737037
0.0001821739
0.0002990376
-0.0001238244
0.0011737759
0.0011818867
-0.0009825599
0.0006330556
-0.0000682955
-0.0013136796
0.0010090576
0.0008391362
-0.0004525481
0.0001450171
0.0011703574
0.0001714110
0.0006226843
-0.0006065003
-0.0005810229
0.0008142027
0.0005763469
-0.0001448229
0.0004444858
0.0002580577
0.0019724917
0.0011227609
-0.0006883482
0.0003484182
0.0001370197
-0.0013188892
0.0009844643
0.0007861358
-0.0002928972
0.0000156524
0.0006924897
-0.0004699928
0.0005379127
-0.0004947666
-0.0005221866
0.0007028539
0.0006310659
-0.0003693622
0.0002968053
0.0000028861
0.0011130434
0.0018273275
-0.0011365408
0.0003024288
0.0008495492
-0.0013407632
0.0009084803
0.0009477761
-0.0001165367
0.0007266714
0.0009869989
-0.0002488993
0.0006658616
-0.0006932911
-0.0005458899
0.0008450664
0.0004040668
0.0000383943
0.0002894434
-0.0001394548
0.0011770676
0.0012630018
-0.0010084835
0.0003519558
-0.0001099298
-0.0012495227
0.0010468147
0.0010842488
-0.0003997620
0.0001127324
0.0007175916
-0.0005708523
0.0004622397
0.0000837855
-0.0003231255
0.0006696732
0.0005604700
-0.0004240516
0.0007045818
0.0002646460
0.0010489523
0.0010894703
-0.0011559264
0.0004428083
-0.0000077657
-0.0013834792
0.0012215889
0.0009997467
-0.0000334692
0.0000533037
0.0007851673
-0.0005314224
0.0004306402
-0.0006386805
0.0001416187
0.0010393876
0.0008140030
-0.0002794344
0.0003976926
0.0000111171
0.0011318451
0.0013779415
-0.0004981600
0.0004495409
0.0001106240
-0.0010536218
0.0010382005
0.0007332445
-0.0003240368
0.0000045876
0.0008571184
-0.0005499405
0.0009007894
-0.0007086926
-0.0005099722
0.0008692244
0.0008914119
-0.0002649275
0.0003335778
0.0002403353
0.0011018047
0.0011656352
-0.0006230500
0.0003295439
0.0006893124
-0.0013350930
0.0013015480
0.0006236920
-0.0004265530
0.0000901707
0.0007127964
-0.0004180649
0.0005589616
-0.0006671367
-0.0004510153
0.0005751353
0.0009240342
-0.0002799480
0.0002027316
-0.0001797692
0.0023165750
0.0011388002
-0.0006470828
0.0005702089
-0.0001103944
-0.0011394059
0.0009360474
0.0005536496
-0.0003359084
0.0003746247
0.0008481474
-0.0004175274
0.0006939330
-0.0000305467
0.0003393644
0.0005511446
0.0004955911
0.0001117931
0.0001986651
-0.0001660468
0.0011456936
0.0013064769
-0.0011399116
0.0003886680
-0.0000881974
-0.0008516943
0.0009694470
0.0008045356
0.0006359314
0.0001829000
0.0006038328
0.0000756926
0.0004558037
-0.0001170016
-0.0005150485
0.0005364773
0.0003711882
-0.0003349539
0.0002258831
0.0005417131
0.0010645767
0.0012112229
-0.0009787794
0.0007155746
-0.0000317288
-0.0011914887
0.0011942210
0.0005710085
-0.0003239033
0.0006552419
0.0007070851
-0.0005055583
0.0009931351
0.0002290992
-0.0005569194
0.0006186371
0.0003956493
-0.0003722291
0.0009418091
-0.0001438281
0.0010682514
0.0014571702
-0.0007494720
0.0005970050
-0.0001167249
-0.0010497947
0.0009337598
0.0006663155
-0.0001656818
0.0003183153
0.0011147047
-0.0002431220
0.0005079706
-0.0005628694
-0.0006146948
0.0006509141
0.0004922766
-0.0004268785
0.0009080075
-0.0000263309
0.0010403333
0.0017437203
-0.0010459531
0.0009521155
0.0000929963
-0.0013084303
0.0009174092
0.0008370938
-0.0000529782
0.0000344412
0.0006089098
-0.0001259048
0.0006302110
0.0000862924
-0.0004280407
0.0006519210
0.0010468488
-0.0002637168
0.0003043185
-0.0001400136
0.0013184516
0.0021545053
-0.0009164007
0.0009451256
0.0000176441
-0.0009684255
0.0010604445
0.0005498478
-0.0004867534
0.0000730442
0.0006677895
-0.0004152473
0.0003881384
-0.0002184139
-0.0005210256
0.0013460494
0.0005495777
0.0005199744
0.0002102276
-0.0000165295
0.0010933951
0.0019863591
-0.0007410523
0.0004266700
-0.0000352403
-0.0013017374
0.0009664534
0.0006014999
-0.0001822679
0.0001746478
0.0009677690
0.0001906153
0.0004402440
-0.0006733942
-0.0006059804
0.0006530167
0.0004271100
0.0002515829
0.0003404892
-0.0000909885
0.0012347621
0.0013462852
-0.0002139234
0.0004424539
0.0001677540
-0.0012861222
0.0013121585
0.0008107255
-0.0000707430
0.0002175196
0.0007058154
-0.0003454350
0.0005592148
-0.0006786642
-0.0006426225
0.0005497677
0.0005489576
-0.0002968811
0.0001897074
0.0001200055
0.0010359337
0.0011651602
-0.0009837500
0.0003151327
0.0000167111
-0.0013693542
0.0011653304
0.0007076730
-0.0003310711
-0.0000013535
0.0012921201
-0.0000664059
0.0004118512
0.0004313927
-0.0006152842
0.0005835574
0.0005081811
-0.0000969893
0.0003894096
0.0002411832
0.0014937484
0.0013102302
-0.0009986587
0.0007077435
-0.0000602241
-0.0009718669
0.0009641665
0.0011044278
0.0000401386
0.0003115680
0.0006650296
-0.0003098611
0.0004122082
-0.0007115626
-0.0006258207
0.0008846808
0.0004884221
0.0000124978
0.0004867285
-0.0000301966
0.0010969106
0.0012592276
-0.0007153683
0.0008360070
-0.0000001657
-0.0012482653
0.0010396578
0.0006151501
-0.0001230905
0.0001057623
0.0008334051
0.0009126671
0.0003871594
-0.0006749894
-0.0002211055
0.0009085635
0.0003954642
-0.0004134510
0.0009368186
-0.0000502830
0.0011965294
0.0010973699
-0.0010200223
0.0005619990
-0.0000239277
-0.0009241185
0.0013964799
0.0010749010
-0.0003512318
0.0001507230
0.0006211731
-0.0004825334
0.0004730561
-0.0006910778
-0.0001977324
0.0005663780
0.0011651919
-0.0004368383
0.0006442207
-0.0000907568
0.0014948793
0.0013569043
-0.0010915381
0.0004374769
0.0004890305
-0.0012993721
0.0011912463
0.0013608752
-0.0004804736
0.0002461816
0.0006422921
-0.0004440955
0.0010423624
0.0001343414
-0.0006303564
0.0011548880
0.0003896113
-0.0004153116
0.0004171252
0.0000272986
0.0013307397
0.0011823070
-0.0010606839
0.0005241389
-0.0001116357
-0.0012692215
0.0009828726
0.0008089969
-0.0004631095
0.0000705866
0.0008017544
0.0000382541
0.0003909452
-0.0002885377
-0.0003408119
0.0008059080
0.0008072993
-0.0004450710
0.0002261003
-0.0000058739
0.0012020295
0.0012365284
-0.0011550867
0.0003437606
0.0004783846
-0.0013457696
0.0010415557
0.0005548568
-0.0003683351
0.0001387860
0.0006778460
-0.0002339557
0.0007517860
-0.0006881260
-0.0005346979
0.0009354640
0.0007168898
-0.0003706498
0.0002678242
-0.0001134657
0.0013874356
0.0011147642
-0.0003132157
0.0004306698
0.0001388921
-0.0011303576
0.0009990025
0.0005682339
0.0000042572
0.0002124689
0.0017457597
-0.0005666309
0.0004356544
-0.0005770470
-0.0005087928
0.0011485031
0.0004754000
-0.0000437150
0.0003473160
0.0001117643
0.0015068668
0.0011666551
-0.0009295895
0.0004040479
0.0000921359
-0.0012511023
0.0010140336
0.0007329960
-0.0004692917
0.0000456359
0.0011044548
-0.0005435840
0.0011637295
-0.0006639060
-0.0005947139
0.0008367839
0.0005006440
-0.0003617636
0.0003528997
0.0001467857
0.0013849741
0.0014160826
-0.0007622819
0.0004600721
-0.0000863178
-0.0009917555
0.0013206976
0.0006651349
-0.0002630817
0.0000006456
0.0006783556
-0.0005745223
0.0004095744
-0.0004448893
-0.0006340096
0.0008948062
0.0004465708
-0.0004401880
0.0002577125
0.0004470636
0.0013489593
0.0014377947
-0.0009074515
0.0007305771
0.0002845086
-0.0011740267
0.0011276324
0.0010955243
-0.0002748598
-0.0000087493
0.0009010910
-0.0003206697
0.0010761627
-0.0002268157
-0.0000707658
0.0012708560
0.0004562882
-0.0002488593
0.0006160863
-0.0000342476
0.0011306153
0.0013188066
-0.0010781694
0.0008329919
0.0000329528
-0.0008443763
0.0009792500
0.0005996248
-0.0004168351
-0.0000188152
0.0007330373
-0.0001897392
0.0006293448
-0.0001571857
-0.0004870051
0.0010325014
0.0003870302
-0.0000230647
0.0002587865
-0.0001859783
0.0010597468
0.0011278969
-0.0007316670
0.0003194720
0.0008782923
-0.0013203688
0.0014666078
0.0008100793
-0.0003467080
0.0003703480
0.0007626212
-0.0001962273
0.0003959575
-0.0005735474
-0.0004485705
0.0006471489
0.0004129332
-0.0000300720
0.0003293496
0.0001123486
0.0011660413
0.0010896336
-0.0010439122
0.0009507162
0.0000172280
-0.0012295451
0.0012555367
0.0005603312
-0.0004781299
0.0002771779
0.0006424789
-0.0004108294
0.0003954328
-0.0006705593
-0.0005311555
0.0005436172
0.0006320287
-0.0003504251
0.0002595192
-0.0001930339
0.0011491338
0.0011285238
-0.0002587686
0.0005009215
0.0003321281
-0.0013788274
0.0014762165
0.0006279579
-0.0000777225
0.0000076070
0.0015920621
-0.0004847079
0.0006560384
-0.0006132210
-0.0005942802
0.0009313881
0.0004992949
-0.0002211914
0.0003972035
-0.0000588409
0.0014853715
0.0011065371
-0.0008340556
0.0004796567
0.0002974454
-0.0011978763
0.0011100908
0.0008907839
0.0000584688
0.0000280407
0.0006094866
-0.0005686396
0.0003954646
-0.0002115847
-0.0006542542
0.0005289502
0.0005044290
-0.0002003566
0.0006098438
0.0002463681
0.0011869916
0.0011416405
-0.0008918978
0.0007125907
-0.0001096655
-0.0010291872
0.0013045396
0.0006590699
-0.0004647654
0.0002138419
0.0006204594
0.0000699038
0.0010547418
-0.0005020877
-0.0001141436
0.0005149843
0.0006754915
-0.0003044280
0.0005294788
0.0001735027
0.0016343467
0.0011261138
-0.0008794972
0.0003074951
0.0001666928
-0.0013744996
0.0027379116
0.0006537778
0.0001573809
0.0000528044
0.0013228516
-0.0005271495
0.0006991163
-0.0006401218
-0.0003300009
0.0005816664
0.0005219079
-0.0004368433
0.0004371204
-0.0000169692
0.0011070349
0.0011530691
-0.0011089547
0.0004136054
0.0004896119
-0.0013685717
0.0011561058
0.0005850055
-0.0003932761
0.0003352778
0.0007176674
0.0004549497
0.0003926802
-0.0004641205
-0.0006425370
0.0008304290
0.0003888824
-0.0003767805
0.0002977238
-0.0001852028
0.0017323640
0.0012132886
-0.0010875209
0.0004827731
-0.0000684812
-0.0007968094
0.0009777519
0.0008131798
-0.0003822924
0.0004577834
0.0006993740
-0.0003650527
0.0009489777
-0.0005029426
-0.0005672094
0.0009100031
0.0004142380
0.0001972245
0.0003944110
-0.0001388709
0.0015942666
0.0011653119
-0.0008406699
0.0004016777
0.0000552291
-0.0009310614
0.0011566977
0.0006232929
-0.0002278277
0.0001727927
0.0006362138
-0.0005537385
0.0005944609
-0.0001640872
0.0000192867
0.0005110837
0.0005276491
-0.0004407847
0.0004347067
0.0000768765
0.0010430807
0.0016558415
-0.0011516619
0.0006371642
-0.0000715723
-0.0001693835
0.0009678185
0.0005571719
-0.0004025024
-0.0000058167
0.0006378564
-0.0005765555
0.0012184877
-0.0005241701
-0.0006649361
0.0005161682
0.0006190009
-0.0003962185
0.0003403568
0.0000718747
0.0012098723
0.0023490355
-0.0009244517
0.0007028855
-0.0001145013
-0.0012087241
0.0010175670
0.0005537484
-0.0003555505
0.0001349623
0.0006681534
-0.0004927009
0.0004878056
-0.0004265666
-0.0006589413
0.0005312632
0.0010796602
-0.0004126023
0.0002653921
-0.0000723692
0.0014320745
0.0011971548
-0.0010960063
0.0003929438
0.0009155469
-0.0013141300
0.0010945945
0.0007009108
-0.0004800637
-0.0000133067
0.0007861992
-0.0005521913
0.0004024394
-0.0001616605
-0.0004743903
0.0005477711
0.0007714874
-0.0003366492
0.0003188569
-0.0000170641
0.0011991019
0.0012666157
-0.0010965055
0.0004166106
-0.0000136432
-0.0013730548
0.0009227585
0.0007163478
-0.0003593943
0.0000007076
0.0011047244
-0.0002464366
0.0003861685
-0.0006298675
0.0000591492
0.0005935539
0.0004086217
-0.0001515212
0.0007200858
0.0000631146
0.0010467903
0.0013958186
-0.0010676847
0.0004469633
0.0000421508
-0.0010199178
0.0009935215
0.0011099454
-0.0004290131
0.0001872450
0.0006865880
-0.0005272948
0.0006605783
-0.0005637130
-0.0003984217
0.0006990497
0.0004863779
-0.0003591101
0.0005083820
0.0000519920
0.0013961727
0.0012059242
-0.0010986544
0.0004498372
0.0000022511
-0.0009216760
0.0011178639
0.0006243750
-0.0003102871
0.0002910461
0.0007541634
-0.0005741549
0.0003948402
-0.0005983646
-0.0005045410
0.0006824382
0.0005612940
-0.0003777416
0.0002597743
-0.0001088097
0.0016342353
0.0013973121
-0.0010702367
0.0003434055
0.0000751333
-0.0013496202
0.0009492243
0.0005627249
-0.0004811216
0.0000547586
0.0007023959
-0.0001725215
0.0003840366
-0.0006107533
-0.0006569375
0.0005929160
0.0004043532
-0.0001977434
0.0002879808
-0.0001692583
0.0010796479
0.0014325883
-0.0002513820
0.0014377811
0.0005241681
-0.0011686814
0.0009287584
0.0006921281
-0.0004579768
0.0002463529
0.0006632971
-0.0004415448
0.0014814409
-0.0004261482
-0.0004017653
0.0005491287
0.0004114551
-0.0004403117
0.0003227685
0.0001907016
0.0011299716
0.0017232272
-0.0010186078
0.0003596665
0.0002424274
-0.0012420789
0.0010760603
0.0006150348
0.0003156564
0.0002136484
0.0006624788
-0.0002197359
0.0006464527
-0.0006924576
-0.0005817986
0.0005203567
0.0004588638
-0.0003868636
0.0008527636
-0.0000929405
0.0015375013
0.0011601496
-0.0008040740
0.0003676167
-0.0001111389
-0.0013846735
0.0010514119
0.0017198563
-0.0003439100
0.0000753856
0.0006472862
-0.0002974976
0.0004792925
-0.0005627176
-0.0006136476
0.0009706594
0.0007510622
-0.0003648425
0.0004261823
0.0004327790
0.0011137297
0.0012023430
-0.0010392136
0.0004033554
0.0001418124
-0.0012192158
0.0009696200
0.0007994880
-0.0001470600
0.0005610945
0.0006373503
-0.0004668569
0.0005980171
-0.0003637651
-0.0005248535
0.0005504020
0.0003781424
0.0000007286
0.0002848440
0.0001617321
0.0011826693
0.0016746894
-0.0009129864
0.0009786020
-0.0000058328
-0.0012391072
0.0014034230
0.0007785446
-0.0003394373
0.0003106640
0.0006983747
-0.0005425176
0.0006886617
-0.0001754199
-0.0001505280
0.0005914338
0.0005753091
-0.0000995863
0.0012823792
-0.0001014396
0.0011240449
0.0015968016
0.0000215740
0.0005168426
-0.0000817890
-0.0012564620
0.0016880952
0.0007699212
-0.0000733948
0.0003578016
0.0007712841
-0.0005405736
0.0004375018
-0.0004070934
-0.0005404751
0.0007467687
0.0012574547
-0.0004119103
0.0005060331
0.0003128495
0.0011842672
0.0011629521
-0.0010770269
0.0010264688
0.0003287701
-0.0012689509
0.0010192748
0.0005514112
-0.0004198233
0.0004640801
0.0007315594
-0.0003076043
0.0005259863
-0.0005350766
-0.0005778866
0.0005078811
0.0006190388
-0.0004143354
0.0005597942
0.0001988323
0.0018005245
0.0011349472
-0.0010950039
0.0004780881
0.0003154410
-0.0011721531
0.0009867909
0.0006658990
-0.0002765763
0.0001391858
0.0009518398
-0.0003474003
0.0004993098
0.0000502318
-0.0006173597
0.0006781982
0.0007603796
0.0005324480
0.0002663518
-0.0000437464
0.0011409604
0.0013273522
-0.0011137573
0.0006007365
-0.0001144800
-0.0012564973
0.0013944639
0.0014134119
-0.0003969530
0.0000608132
0.0012967289
-0.0004709039
0.0004952024
-0.0006161294
-0.0004587014
0.0005352846
0.0005336048
-0.0003049817
0.0005385292
-0.0000286859
0.0011057777
0.0011551030
0.0000460095
0.0004050016
0.0002256759
-0.0007781145
0.0015068188
0.0006234894
-0.0002504821
0.0001608275
0.0006537560
-0.0005212906
0.0005654711
-0.0005529577
-0.0004856184
0.0016564099
0.0007547425
0.0005601637
0.0004848406
-0.0001330256
0.0010578136
0.0011214265
-0.0011129101
0.0003361786
0.0002400041
-0.0013765821
0.0010218763
0.0007964672
-0.0004864847
0.0004394088
0.0007078349
-0.0001970990
0.0008437518
-0.0005454325
-0.0001410851
0.0009716970
0.0003735099
-0.0002786344
0.0003982390
-0.0001852166
0.0011839479
0.0011678051
-0.0011246465
0.0003642738
0.0004273759
-0.0012467823
0.0009681326
0.0006203458
-0.0003694835
0.0002485275
0.0006684547
-0.0001107527
0.0004830650
-0.0007194359
-0.0003958966
0.0005489773
0.0003861601
-0.0003076486
0.0003161663
0.0002887706
0.0011435253
0.0010935023
-0.0008889083
0.0004260167
0.0001020478
-0.0011289220
0.0009131390
0.0005597841
-0.0004164251
0.0001383498
0.0006289442
-0.0004911509
0.0004803914
-0.0005726374
-0.0001537423
0.0005883010
0.0005861821
0.0001285140
0.0006325746
0.0001119374
0.0011262084
0.0014000911
-0.0008865394
0.0007864718
-0.0000753769
-0.0013529259
0.0013380845
0.0005871059
-0.0003509250
0.0001993668
0.0007131982
-0.0001440961
0.0004475453
-0.0006606544
-0.0005743008
0.0006127265
0.0005345923
-0.0001715244
0.0002497332
-0.0000180292
0.0013550193
0.0019655902
-0.0005883365
0.0005882020
-0.0000963501
-0.0013314793
0.0009562153
0.0007695181
-0.0002986317
0.0002729001
0.0006751750
-0.0004720921
0.0007172909
-0.0005708245
-0.0002647568
0.0005132189
0.0003763246
-0.0001062098
0.0003787372
0.0000253206
0.0010744421
0.0016612694
-0.0010994711
0.0006405959
0.0008680319
-0.0006921791
0.0009371157
0.0005558186
-0.0004754410
0.0000517882
0.0010068183
-0.0004869515
0.0004501087
-0.0003327148
-0.0005569418
0.0005900658
0.0009567916
-0.0001903768
0.0006673182
0.0002153569
0.0010995663
0.0010923113
-0.0009820872
0.0004085877
-0.0000799319
-0.0012214268
0.0011615185
0.0006860714
0.0001172755
0.0000140318
0.0009782964
-0.0002754356
0.0004502185
-0.0005682514
-0.0001635629
0.0005637903
0.0005766591
-0.0003485019
0.0003665422
0.0005050715
0.0013692274
0.0012765801
-0.0007650178
0.0002980696
0.0000061802
-0.0011498318
0.0009034949
0.0006196893
-0.0002583655
0.0006799560
0.0006535455
-0.0004125305
0.0004217372
-0.0005669834
-0.0006296490
0.0005734982
0.0007544124
-0.0004419129
0.0002221912
0.0001820454
0.0010411671
0.0012316815
-0.0010777119
0.0002935421
0.0004480291
-0.0010088249
0.0012634333
0.0006485578
-0.0004518945
-0.0000041785
0.0007571858
-0.0004593720
0.0003881386
-0.0007218709
-0.0005063888
0.0006524394
0.0006044548
-0.0005051118
0.0002828282
0.0002677706
0.0013362767
0.0014371167
-0.0012265177
0.0004150408
-0.0000638904
-0.0012406933
0.0010932090
0.0006433884
-0.0004672269
0.0000765430
0.0006812118
-0.0004395118
0.0007342234
-0.0001987473
-0.0003372251
0.0005307116
0.0004980795
-0.0001343124
0.0006151906
0.0005543379
0.0014804649
0.0011095827
-0.0011956731
0.0003376038
0.0002566880
-0.0011604917
0.0008692436
0.0006252621
-0.0002862143
0.0000536632
0.0008619284
-0.0004705928
0.0004477359
-0.0006591626
-0.0006192245
0.0013292558
0.0012868659
-0.0002465041
0.0002759228
-0.0001332828
0.0011153461
0.0014665956
-0.0010331233
0.0005461664
-0.0001417593
-0.0011941852
0.0015552737
0.0006313226
-0.0002992543
0.0000437104
0.0008205677
-0.0005746920
0.0007498997
-0.0003607993
-0.0003454504
0.0005710361
0.0004364219
-0.0002605543
0.0006027276
-0.0000933865
0.0011216691
0.0012524235
-0.0012652008
0.0003458630
-0.0000963562
-0.0009462480
0.0009026099
0.0008489371
-0.0002909918
0.0001050495
0.0008727116
-0.0006558279
0.0012005582
-0.0004631125
-0.0004694834
0.0007645419
0.0005811245
-0.0004073184
0.0005255116
-0.0001869803
0.0012147203
0.0015842665
-0.0009150068
0.0010618207
0.0004443104
-0.0014255331
0.0011384466
0.0014027419
-0.0001003976
0.0002293038
0.0010137898
-0.0004629140
0.0007097006
-0.0006050228
-0.0005962422
0.0006263635
0.0005928562
-0.0004663849
0.0002829956
-0.0002169906
0.0012093069
0.0017496310
-0.0011761935
0.0006053902
-0.0000504646
-0.0007241988
0.0011796166
0.0007829337
-0.0004174194
0.0002547478
0.0007052118
-0.0001158340
0.0005709377
-0.0006398261
-0.0006884504
0.0005030921
0.0005298501
-0.0003535142
0.0005206986
0.0000761715
0.0013672940
0.0012887821
-0.0010922637
0.0008484809
0.0000382352
-0.0014034069
0.0014440514
0.0007043640
-0.0002316525
0.0002110833
0.0009945847
-0.0004582483
0.0006381549
-0.0005695559
-0.0006332277
0.0006812233
0.0004221359
-0.0004511390
0.0003751119
0.0005498091
0.0012215070
0.0012236369
-0.0011066110
0.0003805266
0.0002673241
-0.0012786140
0.0011189133
0.0006483597
-0.0004152173
0.0000240496
0.0012948432
-0.0004034187
0.0015224122
-0.0007023666
-0.0003044891
0.0010839728
0.0003898350
-0.0000351176
0.0004039672
-0.0000805956
0.0011409569
0.0011888577
-0.0009882926
0.0004293349
0.0001240896
-0.0012224165
0.0010501681
0.0007389598
-0.0002665947
0.0001134123
0.0007144427
-0.0004289408
0.0004910810
-0.0004396254
-0.0002928261
0.0004777686
0.0003649044
-0.0004028968
0.0003348647
-0.0000836332
0.0011790485
0.0011122898
-0.0010611786
0.0003175416
0.0004015599
-0.0013337730
0.0012666715
0.0008391887
-0.0003344805
0.0000522037
0.0007894388
-0.0004126082
0.0009108574
-0.0005620227
-0.0005014995
0.0018259068
0.0003970970
-0.0003936707
0.0003644507
0.0003347545
0.0013193769
0.0012583593
-0.0012026241
0.0003602353
-0.0001618427
-0.0010719910
0.0009316590
0.0009546071
0.0004119917
0.0007561239
0.0008294419
-0.0000743573
0.0003931085
-0.0006437093
-0.0000833556
0.0005211515
0.0005211896
-0.0003438499
0.0004638541
-0.0000653141
0.0013668111
0.0011354677
-0.0010860218
0.0003220815
-0.0001038685
-0.0009488520
0.0013961341
0.0007154923
-0.0003766911
0.0003036039
0.0008650476
-0.0004862952
0.0007052606
-0.0007096591
-0.0005918062
0.0005266242
0.0004630961
-0.0003769345
0.0003153508
-0.0001709693
0.0011738469
0.0016289401
-0.0011946212
0.0004878526
-0.0001274467
-0.0014019255
0.0012489050
0.0009527336
-0.0004051715
0.0001446783
0.0007153297
-0.0005279046
0.0008642269
-0.0005655830
-0.0006336478
0.0005460023
0.0005038852
0.0002413771
0.0004541800
0.0004669324
0.0015431854
0.0015096204
-0.0011109939
0.0005654113
0.0007864600
-0.0013366732
0.0016519459
0.0008805840
-0.0003609053
0.0003103263
0.0007593745
-0.0001037654
0.0005837480
-0.0001683923
-0.0004008451
0.0006806060
0.0002032628
0.0000069422
0.0005218387
-0.0000779235
0.0011154964
0.0013299370
-0.0011081055
0.0003334197
-0.0001051811
-0.0012106428
0.0009004459
0.0013229260
-0.0001422880
0.0002712705
0.0008781666
-0.0001817739
0.0003682794
-0.0004687935
-0.0003093560
0.0006028394
0.0002778637
-0.0004734283
0.0003022157
-0.0000078138
0.0009721912
0.0021268964
-0.0009217873
0.0007609917
-0.0001069466
-0.0010083171
0.0012824162
0.0007191465
-0.0001556388
0.0002425830
0.0006593592
-0.0001821272
0.0005056138
-0.0002833808
-0.0004408944
0.0005315675
0.0005709531
-0.0002962588
0.0007976619
0.0000858982
0.0015908807
0.0012274240
-0.0010808516
0.0003059831
0.0000154752
-0.0011057055
0.0013054720
0.0007011335
-0.0004806114
0.0000542809
0.0009640830
0.0000241924
0.0003939179
-0.0003614431
-0.0006755347
0.0004406164
0.0003761614
-0.0003426003
0.0004355172
-0.0002062406
0.0011616382
0.0010477148
-0.0009247631
0.0005829748
-0.0000707363
-0.0004335148
0.0010628506
0.0008055457
-0.0003317649
0.0000567826
0.0007697872
-0.0002507234
0.0007705402
-0.0006133254
-0.0007350468
0.0006072314
0.0005989011
-0.0001021366
0.0002926807
-0.0001305689
0.0014483656
0.0014419322
-0.0009887996
0.0007934815
0.0000176835
-0.0012882284
0.0009741462
0.0007400857
-0.0003753862
0.0002796749
0.0006962593
-0.0004415574
0.0005101252
-0.0004560152
-0.0002386700
0.0006883206
0.0004723658
-0.0002552466
0.0008771560
-0.0001731409
0.0014999447
0.0012218372
-0.0011871775
0.0004399802
-0.0000518269
-0.0012368542
0.0010763168
0.0007180574
0.0007208970
0.0000216615
0.0013861733
-0.0000830686
0.0004059849
-0.0004533044
-0.0004526827
0.0006000282
0.0004685817
-0.0001724902
0.0005258600
0.0000271234
0.0011703847
0.0011699437
-0.0010836330
0.0005002111
-0.0000294620
-0.0013107790
0.0013466125
0.0005678323
-0.0004781060
0.0004535637
0.0007518973
0.0001286395
0.0006926079
0.0002483730
0.0004630881
0.0005838760
0.0004028464
-0.0000094633
0.0005044667
-0.0001747736
0.0012626861
0.0012208167
-0.0007151963
0.0003135075
0.0003068962
-0.0014210686
0.0009558954
0.0015700062
0.0001253493
0.0004992133
0.0008379063
0.0004683645
0.0006166556
-0.0002258340
-0.0008581629
0.0005183702
0.0006746179
-0.0004303679
0.0003006927
-0.0000623809
0.0013257872
0.0012903139
-0.0005171366
0.0003774509
0.0003275450
-0.0013950434
0.0009423396
0.0007431797
0.0001019795
0.0001395073
0.0009426600
-0.0006133406
0.0008736533
-0.0007836755
-0.0002006569
0.0007993138
0.0002659369
-0.0006344821
0.0008396519
0.0003384482
0.0010673265
0.0016197727
-0.0007039265
0.0007168039
-0.0003034057
-0.0012028548
0.0010565739
0.0006272471
0.0002875576
0.0001724510
0.0008090219
-0.0004148662
0.0007709154
-0.0006962251
-0.0006472614
0.0009120755
0.0013500368
-0.0003658800
0.0006586751
0.0000246607
0.0011053749
0.0012430676
-0.0012231578
0.0003395020
-0.0001238295
-0.0005189788
0.0009813030
0.0006260292
-0.0005105150
0.0002852150
0.0009782970
0.0005442901
0.0009680425
-0.0006881251
-0.0007399177
0.0006617557
0.0008054705
-0.0005014050
0.0005453932
0.0001690586
0.0011904802
0.0016693798
-0.0013451053
0.0003807020
-0.0001781176
-0.0014870034
0.0013316194
0.0007409656
-0.0004140461
0.0002242352
0.0014178516
-0.0000840062
0.0006631011
-0.0005606712
-0.0009251337
0.0006370701
0.0003725635
-0.0002328224
0.0006236202
0.0010628163
0.0018581777
0.0017568979
-0.0013097573
0.0003789565
0.0003131310
-0.0015385514
0.0011058105
0.0008649213
-0.0002233109
0.0005307988
0.0012842480
-0.0003847922
0.0008500639
-0.0005983831
-0.0006940523
0.0005805506
0.0004586557
-0.0003318916
0.0004443764
0.0002232697
0.0015730693
0.0014589675
-0.0011959982
0.0005747070
0.0001033923
-0.0014027347
0.0014647086
0.0014874114
0.0006632904
0.0004542841
0.0010519382
-0.0003581734
0.0012652527
-0.0004340217
-0.0007446698
0.0005969672
0.0006471527
-0.0004872163
0.0004215319
-0.0000008082
0.0015216292
0.0016884688
-0.0011301467
0.0004587060
0.0001506457
-0.0016565637
0.0011394367
0.0010220144
-0.0005370529
0.0002545268
0.0008221893
-0.0002985791
0.0006345164
-0.0007003427
-0.0006341363
0.0006674796
0.0005685763
-0.0003258932
0.0006081898
-0.0001722676
0.0012727211
0.0013806990
-0.0011112121
0.0006032210
0.0000043933
-0.0015212937
0.0014209936
0.0011442166
-0.0002588700
0.0003315983
0.0006066370
0.0010922037
0.0005713093
-0.0003859707
-0.0005940495
0.0005851106
0.0005803920
0.0000432581
0.0003069157
0.0000170398
0.0011119081
0.0013406941
-0.0010926828
0.0005400075
0.0001722547
-0.0009783910
0.0011123843
0.0006018362
0.0003527335
0.0000939180
0.0011155108
-0.0000759112
0.0006682742
-0.0002472582
-0.0007733446
0.0007467778
0.0003311556
-0.0001664930
0.0003763836
0.0001766190
0.0013591248
0.0013026821
-0.0012195432
0.0003589454
0.0002217492
-0.0010359388
0.0013574481
0.0008008988
-0.0000195262
0.0002933337
0.0010280601
-0.0001390336
0.0009532021
-0.0008476269
-0.0001092519
0.0005432549
0.0004103123
-0.0003422727
0.0006814717
0.0001949109
0.0011089665
0.0011803565
-0.0011272752
0.0003386877
-0.0000939358
-0.0005773982
0.0012647047
0.0007690533
-0.0004788923
0.0003122509
0.0012203141
-0.0002697953
0.0006724958
-0.0007468087
-0.0010579704
0.0008057065
0.0004829664
-0.0005972477
0.0006236408
0.0000157815
0.0015208446
0.0017311396
-0.0005089870
0.0003700945
-0.0002085162
-0.0010957379
0.0020017069
0.0011050303
-0.0004742158
0.0005412186
0.0013482158
-0.0002838764
0.0007545268
-0.0007162965
-0.0010546789
0.0007248516
0.0006083477
-0.0006023659
0.0007199863
0.0001217838
0.0015269823
0.0017829988
-0.0011734373
0.0008268274
-0.0001618452
-0.0013567635
0.0016408148
0.0013027595
-0.0005955066
0.0015623806
0.0024974014
-0.0001035931
0.0015603557
-0.0010739800
-0.0013954258
0.0007616224
0.0004015941
-0.0010704215
0.0016966606
-0.0000229510
0.0020188806
0.0019980696
-0.0022829494
0.0002878830
-0.0004577312
-0.0018223003
0.0011946716
0.0016122250
-0.0007265973
0.0010902662
0.0020078774
-0.0000325283
0.0010587231
-0.0011687661
-0.0012589887
0.0014374311
0.0012905092
-0.0011149627
0.0008586470
0.0001109294
0.0014366191
0.0016919007
-0.0007708361
0.0005581477
-0.0002867543
-0.0013991859
0.0012199320
0.0010833360
-0.0004192178
0.0008814229
0.0011482939
-0.0001648637
0.0008858927
-0.0010394508
-0.0006339555
0.0009604431
0.0010744908
-0.0009458917
0.0007817634
0.0003259466
0.0012203982
0.0016141740
-0.0015900622
0.0003443350
-0.0002475800
-0.0013594678
0.0022591669
0.0011895663
-0.0005782883
0.0005650577
0.0009245099
-0.0004809723
0.0003876509
-0.0006272615
-0.0005046454
0.0008283068
0.0003696026
-0.0005041072
0.0002670565
-0.0002791634
0.0011140672
0.0014624461
-0.0014605981
0.0007695168
0.0010634502
-0.0014830810
0.0010582745
0.0009676487
0.0001054553
0.0000322449
0.0008730970
-0.0011653208
0.0008010991
0.0005754355
-0.0006385848
0.0006499111
0.0003199457
-0.0002542873
0.0003827878
-0.0002598633
0.0018207940
0.0016291855
-0.0015572089
0.0012017213
0.0001930380
-0.0015604832
0.0012936328
0.0010301043
-0.0004201415
0.0000803693
0.0016488717
-0.0008211310
0.0008177180
-0.0006327379
-0.0013234470
0.0008496452
0.0004429283
-0.0000892537
0.0009193189
-0.0005183211
0.0021527520
0.0025068550
-0.0022240667
0.0006761218
-0.0002006911
-0.0019202943
0.0019685979
0.0013427257
-0.0007609118
0.0002035171
0.0019214992
-0.0014525443
0.0009536558
-0.0007028402
-0.0014208572
0.0008811012
0.0002517837
-0.0000838451
0.0010510024
0.0000281014
0.0029077794
0.0039177467
-0.0024094830
0.0007089546
0.0000599094
-0.0027865286
0.0018716866
0.0015039557
-0.0006470484
0.0005480420
0.0011672154
-0.0007149233
0.0014532282
-0.0006583548
-0.0010538518
0.0013390529
0.0011214648
-0.0003909500
0.0013610438
0.0001601622
0.0024838072
0.0035156538
-0.0017819919
0.0011262544
0.0002245922
-0.0026045971
0.0019102007
0.0012275947
-0.0002605832
0.0004388890
0.0008643038
0.0005640067
0.0007196983
-0.0001129217
-0.0011100141
0.0005536906
0.0008127309
-0.0003562098
0.0008647690
0.0006966751
0.0011461603
0.0011227999
-0.0007094226
0.0007429226
0.0005035165
-0.0013046807
0.0018707977
0.0008448865
-0.0004230597
0.0004373838
0.0005679431
0.0007413947
0.0017055835
-0.0006820622
-0.0023808564
0.0003911414
0.0017565534
0.0007589155
0.0002907911
0.0009054195
0.0028020373
0.0017216443
-0.0002778002
0.0020391199
0.0017188389
-0.0027632953
0.0019188918
0.0016104498
-0.0003512812
0.0005930540
0.0018224040
-0.0012000423
0.0029141009
-0.0002592638
-0.0032106576
0.0001471355
0.0008342127
0.0005543117
0.0016739292
-0.0005723857
0.0044144794
0.0041483168
-0.0024782760
0.0017142838
0.0009807031
-0.0043159605
0.0026711629
0.0025035465
-0.0011367712
0.0004890120
0.0007985890
-0.0026107460
0.0025797428
-0.0002258822
-0.0024811173
0.0004553767
0.0014534545
0.0014562693
0.0009540838
-0.0005457293
0.0050683131
0.0037233759
-0.0024479394
0.0026673146
0.0012255825
-0.0053126668
0.0040249911
0.0024710231
-0.0008393626
-0.0011689685
-0.0002999992
-0.0041198237
0.0003756580
0.0004113250
0.0014148502
0.0014813812
0.0007188988
0.0004438686
-0.0002450185
-0.0004283390
0.0022239138
0.0026830700
-0.0017852515
0.0016276051
0.0005079972
-0.0029960097
0.0021256678
0.0006763879
-0.0003804057
-0.0023666355
-0.0013790816
-0.0008253794
0.0011030680
-0.0012640400
0.0000403846
0.0017572140
0.0037604522
0.0008229176
-0.0019177952
0.0012773849
0.0024746848
0.0016860335
0.0004130428
0.0016805209
0.0020081687
-0.0032906023
0.0030504363
0.0002326987
0.0013385310
-0.0014908090
0.0050975201
-0.0006937714
0.0020884269
-0.0023539472
-0.0042190273
0.0027870273
0.0005461203
-0.0018162047
0.0036141812
0.0001824440
0.0050290568
0.0055745861
-0.0058105823
0.0008278097
-0.0006533137
-0.0051177838
0.0034483883
0.0044538738
-0.0016494049
0.0027928221
0.0014313552
-0.0010424840
0.0010636098
-0.0022099068
-0.0011030916
0.0024560836
0.0030734000
-0.0014205210
-0.0004560424
0.0010788770
0.0032830678
0.0029612799
-0.0022444422
0.0009586516
0.0007934318
-0.0034926410
0.0034133629
0.0010271810
-0.0003956738
0.0001477616
-0.0003192280
-0.0025378110
-0.0002973431
-0.0017562333
0.0017184614
0.0029654129
0.0023645777
-0.0010027520
-0.0015077692
0.0005253528
0.0015044804
0.0021916909
-0.0013819379
0.0007050872
-0.0006801259
-0.0017466918
0.0027377737
-0.0005290025
0.0000669878
-0.0012078461
-0.0008350598
-0.0071207338
-0.0020417953
-0.0004689985
0.0052696616
0.0037703754
-0.0005892040
-0.0018610737
-0.0013033404
-0.0022640637
-0.0007139328
0.0017890688
-0.0031156389
0.0000323352
-0.0030699052
-0.0006593342
0.0012453994
-0.0017286471
0.0002543810
-0.0032439509
0.0099943385
-0.0062480233
0.0002667517
-0.0030154453
-0.0036961326
0.0043731264
-0.0037677777
-0.0058660708
0.0061574870
-0.0050167031
0.0046675877
0.0090103877
-0.0129869055
-0.0007043976
-0.0065120697
-0.0052640353
0.0033203365
0.0064808353
-0.0037117676
0.0038471135
0.0008952671
0.0028453203
-0.0010364038
-0.0008434522
0.0009034625
0.0010730417
0.0002416269
-0.0014161296
-0.0001677180
0.0015604388
-0.0021943988
-0.0016011868
0.0006020920
-0.0015832983
-0.0008757262
0.0031809159
0.0002181018
-0.0007727850
0.0003462614
0.0024778084
0.0005087437
-0.0030895497
-0.0021839668
-0.0010528285
0.0045136116
0.0026942233
-0.0005429183
-0.0019623403
-0.0012445503
-0.0009710581
-0.0018554998
0.0002506651
-0.0018600282
-0.0009109503
-0.0029417569
0.0014295170
-0.0000596922
-0.0014293719
0.0002554973
-0.0010525079
0.0077020296
-0.0092983485
-0.0041490071
-0.0058787605
0.0042386513
0.0094125314
-0.0027622682
-0.0105775268
0.0023606591
-0.0046828976
-0.0006910566
0.0074946147
-0.0135055364
-0.0028118091
-0.0106988442
-0.0008093148
0.0023822452
0.0014016909
-0.0024530646
0.0022613387
0.0200507290
-0.0033564702
0.0002260562
-0.0069719837
-0.0087773589
0.0067099122
-0.0077511756
-0.0126828926
0.0124808869
-0.0058952043
0.0058057446
0.0122258986
-0.0211537211
-0.0035503781
-0.0122152972
-0.0044761500
0.0022731948
0.0111721751
-0.0059073017
0.0133231299
-0.0040900967
-0.0018485967
-0.0072620756
-0.0005894511
0.0124580298
0.0036773708
-0.0020610771
-0.0044180684
-0.0044830727
-0.0004375897
-0.0103956228
-0.0060507349
0.0023868649
-0.0038477391
-0.0054617509
0.0101468830
-0.0047581352
-0.0071052539
0.0024416909
-0.0019620460
-0.0084392076
-0.0016735074
-0.0023668539
-0.0000899790
0.0087273313
0.0024997930
0.0045524690
0.0014870881
-0.0073308764
0.0025319655
-0.0043348244
-0.0041023570
0.0064691618
0.0004840678
0.0018226367
0.0028722733
0.0002193019
-0.0066519458
0.0029720789
-0.0059918489
0.0092478441
0.0005426133
0.0049868353
-0.0014329281
-0.0099753635
-0.0004079699
-0.0018536666
-0.0010233701
0.0070850056
-0.0020957266
0.0098528181
0.0073495498
-0.0082520934
0.0016275888
0.0007121012
-0.0089232538
0.0039016629
0.0080073242
-0.0031471931
0.0057392754
0.0118955276
-0.0088363583
-0.0051932301
-0.0026254200
0.0043427443
0.0066321033
-0.0124853821
-0.0112653207
0.0079627099
-0.0091868067
-0.0033560271
0.0053692526
-0.0161610909
-0.0054989579
-0.0147799677
0.0036571760
-0.0030747569
0.0028031279
-0.0035798961
0.0066204605
0.0211045173
0.0018118437
0.0052469202
-0.0083324895
-0.0158811409
0.0052095318
-0.0035370660
-0.0104685955
0.0129093214
-0.0032623865
0.0123021257
0.0151427024
-0.0204790810
-0.0011091764
-0.0071598416
-0.0110741966
0.0068533125
0.0137826153
-0.0062730941
0.0146943155
0.0209268713
0.0093414425
0.0180128575
-0.0010603561
-0.0355166391
-0.0072217026
-0.0007163203
0.0046385881
0.0194311702
-0.0004161261
0.0282411245
0.0185217786
-0.0149758413
0.0066648569
0.0078591807
-0.0248554909
0.0105976624
0.0226533837
-0.0080292601
0.0151555482
0.0064677125
0.0084539158
0.0043807352
-0.0024797922
-0.0100347930
-0.0014400475
0.0001694424
-0.0008708345
0.0041972147
0.0021168602
0.0055348273
0.0027685182
-0.0025414530
-0.0000485036
0.0024350343
-0.0038017705
0.0012864704
0.0054226745
-0.0014503440
0.0080511578
0.0223488974
0.0119894580
0.0046918884
-0.0094815318
-0.0176027141
0.0029926670
-0.0038331628
-0.0119306346
0.0137491797
0.0004825365
0.0088904064
0.0104138594
-0.0161949087
-0.0029865720
-0.0054427171
-0.0057610721
0.0030207230
0.0137066412
-0.0056754489
0.0214200895
0.0031531233
0.0092080931
-0.0018070871
-0.0071077994
0.0013000581
0.0052058842
0.0032566316
-0.0074949898
-0.0019617430
0.0052464757
-0.0033555528
-0.0012754859
0.0002024662
-0.0034295330
-0.0022899271
0.0043507614
0.0004257936
-0.0006707397
0.0009507233
0.0075109236
0.0047295275
0.0062047753
-0.0006277783
-0.0049814986
-0.0013756646
0.0031111477
0.0013907627
-0.0058077255
0.0005404432
0.0028268557
-0.0005496435
0.0005470490
-0.0015997611
-0.0022204647
-0.0019985370
0.0016607252
0.0004511743
0.0007962640
-0.0002210922
0.0060748780
-0.0010367002
0.0053058918
0.0041337715
0.0013662144
-0.0038297100
-0.0028769096
0.0025984155
0.0043172099
0.0001627259
0.0026738076
0.0029946837
-0.0011399537
0.0043451647
0.0016475721
0.0049718849
-0.0021917188
0.0009252736
0.0009772249
0.0008808613
0.0007601967
-0.0004522265
0.0015451034
0.0016962501
0.0002636990
-0.0018207885
-0.0006371640
0.0016876051
0.0019991660
-0.0006662775
0.0010252198
0.0024325721
0.0003452580
0.0014584424
0.0012610413
0.0027143276
-0.0021405274
0.0012102812
0.0010508527
0.0000798720
-0.0004394556
-0.0008460988
0.0018391787
0.0023314966
0.0007805699
-0.0027153349
-0.0019475832
0.0019719313
0.0028990765
0.0004333228
0.0018398390
0.0027831348
0.0002091263
0.0018674437
0.0015605877
0.0030793070
-0.0015799645
0.0013187281
0.0017243615
0.0000069038
-0.0003530417
0.0002344335
-0.0006352193
0.0013985879
0.0023912946
-0.0020744652
-0.0022379773
-0.0007956187
0.0022445254
0.0017895722
-0.0010919976
0.0019970342
0.0004996724
0.0009017958
0.0009796499
0.0013107507
-0.0017774392
0.0004010407
0.0014911995
-0.0004652882
-0.0004725910
-0.0007529414
0.0014144982
0.0001076963
0.0013723165
-0.0003588382
-0.0018550404
-0.0008509183
0.0015271697
0.0006657865
0.0002730645
-0.0008267418
-0.0015481459
0.0020385745
-0.0001607664
0.0008036220
0.0011864143
-0.0014442388
-0.0004022393
0.0003892719
-0.0000204720
0.0002309765
0.0024443513
0.0016951265
0.0008006362
-0.0018571106
-0.0015749826
0.0001785841
0.0014058172
0.0007580729
0.0007146232
0.0011889982
-0.0004447100
0.0016164992
0.0003921942
0.0020989135
-0.0000053813
-0.0002399966
0.0007731415
0.0002360524
0.0004909713
0.0009440685
0.0032620841
0.0006052658
0.0006134035
-0.0001808342
-0.0015965511
0.0007569034
0.0010302933
0.0005696771
0.0008169387
-0.0003228118
-0.0012171734
0.0017974954
0.0002068862
0.0011265783
0.0010157545
-0.0009159331
0.0005943959
0.0004340829
0.0016670900
-0.0046124028
-0.0015185488
-0.0025564708
0.0057915626
0.0048661484
-0.0032786943
-0.0042095156
0.0037523320
-0.0009671309
-0.0019394115
-0.0053384576
-0.0053907875
0.0050671314
-0.0007636465
-0.0001068725
0.0053691786
-0.0050533070
-0.0035705701
0.0016772226
-0.0033484880
-0.0041213011
0.0004670712
0.0015619343
0.0063758206
-0.0008814312
-0.0057123381
-0.0022134592
0.0066762813
0.0009114130
-0.0010397957
0.0002459895
-0.0034243619
0.0052489231
0.0013220114
0.0042037542
0.0005466132
-0.0020972085
-0.0007767143
0.0007936190
-0.0029791251
-0.0026208778
0.0044890777
0.0020320458
-0.0011338058
-0.0011469806
-0.0002801948
0.0057720699
0.0016880013
-0.0033474143
0.0043061557
0.0015115646
-0.0007498152
0.0046548770
0.0014971934
0.0043281029
-0.0013849259
0.0031363167
-0.0007379964
0.0012106929
-0.0004209796
-0.0052118272
0.0026980287
-0.0005587282
0.0076978685
0.0026257941
-0.0080824071
-0.0044494559
0.0068489411
0.0000621792
-0.0008827428
-0.0048956850
-0.0078051228
0.0080253141
-0.0006678307
0.0030364050
0.0062074014
-0.0068989820
-0.0024677159
0.0018513717
-0.0018734908
-0.0199453918
-0.0131024074
-0.0091636939
0.0151197543
0.0210292942
-0.0073677476
-0.0080461508
0.0113282052
-0.0085122815
-0.0059301531
-0.0163338629
-0.0154731255
0.0156309999
-0.0000612525
0.0004266855
0.0153602021
-0.0124839706
-0.0142440684
0.0054623409
-0.0173608954
-0.0019808403
0.0121902454
0.0028994288
-0.0046710579
-0.0037134217
0.0010327527
0.0099771647
0.0004880139
-0.0056194685
0.0091550190
0.0027562819
-0.0008693712
0.0064378754
0.0012992005
0.0066949279
-0.0019453268
0.0039099328
-0.0006681957
0.0018653980
0.0035832412
-0.0008668490
0.0174456256
0.0062639801
-0.0044920629
-0.0098985256
-0.0015388041
0.0110048087
0.0021551341
-0.0034845029
0.0109670248
0.0056828349
-0.0007233661
0.0081126562
0.0023262247
0.0106686881
-0.0039825280
0.0050735701
0.0019285660
0.0017236368
0.0058256105
0.0019999974
0.0080712205
0.0031241219
-0.0048279290
-0.0047737896
0.0028473504
0.0064663704
-0.0018503366
-0.0016670544
0.0058108363
0.0035033456
0.0021849268
0.0008753690
0.0008292717
0.0027956683
-0.0031859576
0.0040654048
0.0018061730
0.0001091111
0.0043758655
0.0032344673
0.0081784538
0.0001595635
-0.0051634694
-0.0023559603
0.0025181248
0.0039953828
-0.0044623498
-0.0008365678
0.0048638296
-0.0000477641
0.0006343879
0.0000765316
-0.0012562706
0.0001967485
0.0004553972
0.0014460447
0.0009734235
0.0004093660
0.0057768305
0.0019258213
0.0092467076
0.0025400992
-0.0031530857
-0.0051454477
0.0006862124
0.0053631866
-0.0013560577
-0.0011542277
0.0055906539
0.0032064885
0.0006328100
0.0032963844
0.0001995571
0.0034471628
-0.0018413165
0.0025183034
0.0014038569
0.0007393806
0.0047180792
0.0024635264
0.0012539460
0.0009934279
-0.0040404659
-0.0014971289
0.0036837854
0.0045877079
-0.0027942831
-0.0009455854
0.0025717000
0.0031719684
0.0037068567
-0.0027628588
0.0010566159
0.0004165610
-0.0033089397
0.0036912619
0.0014026110
-0.0004647286
0.0019943450
0.0010961093
0.0031980677
0.0006332502
-0.0014959777
-0.0014032079
0.0006128992
0.0016115426
-0.0011274616
-0.0002560319
0.0016413064
0.0003076739
0.0001509167
0.0003199805
-0.0002799101
0.0010333290
-0.0001572587
0.0005451557
0.0004902212
0.0001012430
0.0025491297
0.0019751910
0.0012406109
0.0015300753
-0.0018171094
-0.0019115824
0.0010023160
0.0015720558
-0.0005562243
0.0005457209
0.0012909720
0.0023821400
0.0023078895
-0.0013453089
0.0008420599
0.0003405763
-0.0022228994
0.0026384095
0.0018032730
-0.0005676706
0.0015481028
0.0021094893
-0.0002213086
0.0014009022
-0.0007014963
-0.0015426553
0.0007936669
0.0007637405
0.0001465984
0.0010171344
-0.0004294558
0.0028426592
0.0027888816
-0.0021846194
0.0010313678
0.0005620946
-0.0026284552
0.0019674783
0.0019277117
-0.0007885842
0.0005772504
0.0009559442
0.0003533958
0.0006418063
-0.0010589860
-0.0002875625
0.0014486038
0.0010407621
-0.0003117255
-0.0001349220
0.0003773995
0.0015633318
0.0013649234
-0.0007650686
0.0006706070
0.0002355609
-0.0007458769
0.0018666360
0.0011318779
-0.0003686478
0.0005624189
0.0008661452
-0.0002982886
0.0003218375
-0.0010864975
-0.0000857278
0.0013246323
0.0012683947
-0.0004219855
0.0002555058
0.0001865022
0.0010788387
0.0016305623
-0.0011438070
0.0006855460
-0.0000853977
-0.0015087720
0.0014248777
0.0004286692
-0.0001916536
0.0001256837
0.0009287806
0.0003446976
0.0005435009
-0.0011006347
-0.0005278942
0.0009349147
0.0007645019
-0.0005762495
0.0004379215
0.0004588161
0.0005016766
0.0017054221
-0.0009170022
0.0003221477
-0.0000750689
-0.0007372278
0.0007780181
0.0005664381
-0.0002055058
0.0010424161
0.0014230608
-0.0003005854
0.0006262561
0.0005010648
-0.0008434244
0.0003077307
0.0002365357
0.0004256754
0.0010201587
-0.0002783540
0.0011811644
0.0020843504
-0.0010956466
0.0002466859
0.0001758830
-0.0008686429
0.0007496603
0.0008012725
-0.0005460391
0.0007414943
0.0010819586
0.0002479426
0.0000402260
-0.0009021339
-0.0003853737
0.0010170474
0.0003518563
-0.0010308776
0.0005493200
0.0006166464
0.0007099024
0.0010204932
-0.0012655963
0.0003816548
-0.0003369099
-0.0008180917
0.0009171952
0.0007137237
0.0002293917
0.0006660254
0.0010263602
-0.0007071800
0.0006898739
-0.0003633340
-0.0000892737
0.0005437604
-0.0002872854
-0.0006910630
0.0008885995
0.0003204139
0.0004420083
0.0009194112
-0.0013886072
-0.0000356879
-0.0005761766
-0.0003325543
0.0004119802
0.0004617474
-0.0001319662
0.0004847844
0.0007589838
-0.0004640315
0.0003680766
-0.0005983073
0.0000244232
0.0012792816
0.0002668916
-0.0006570021
0.0001316226
-0.0000894378
0.0006495066
0.0008329957
-0.0012272582
-0.0001379834
-0.0003704862
-0.0004009940
0.0005170585
0.0003322225
-0.0000563918
0.0003556088
0.0010887987
-0.0002927561
0.0004336170
0.0003841144
-0.0000440804
0.0001361383
-0.0002504968
0.0000467733
0.0010622320
-0.0003682133
0.0003900894
0.0006213884
-0.0001966385
0.0002698898
-0.0000485625
-0.0003675067
0.0001231019
0.0006720406
-0.0002778955
0.0005125874
0.0008424490
-0.0009149500
0.0002381836
-0.0008388114
0.0001001710
0.0010411735
0.0002660059
-0.0007557743
0.0001867544
-0.0000454187
0.0004984604
0.0012878986
-0.0011219278
0.0001586475
-0.0004252754
-0.0008640581
0.0011106140
0.0003678587
-0.0003575184
0.0000039533
0.0009035626
-0.0021727585
-0.0001519347
0.0001456153
0.0011240888
0.0012624547
-0.0009445003
-0.0003020026
0.0006785780
-0.0011157375
0.0004279944
0.0017958277
-0.0017119844
0.0002166749
-0.0004172504
-0.0005017087
0.0004446780
0.0004119042
-0.0006265011
-0.0000211844
0.0003983362
-0.0006738175
-0.0003444296
0.0012230352
0.0009395418
0.0005271316
-0.0002717287
-0.0003598113
0.0005300278
-0.0007600120
0.0000729740
0.0001864271
-0.0005522306
-0.0000635914
-0.0006498271
0.0001330914
-0.0001170975
-0.0001005369
-0.0001813460
0.0006502461
0.0011496873
-0.0013957293
0.0003886492
0.0015456389
-0.0006402340
-0.0009371812
-0.0015780416
0.0010769602
0.0017479768
-0.0016168851
0.0011361309
0.0014023118
-0.0014876206
0.0005482431
-0.0005128446
-0.0008207350
-0.0001728621
0.0011163035
-0.0007745370
0.0006165349
0.0008556556
-0.0008076376
0.0004340438
-0.0002018822
-0.0007141373
0.0001029168
0.0006451750
-0.0001364061
0.0010153536
-0.0006639748
0.0009817606
0.0011355652
-0.0006168517
0.0001227955
-0.0002244016
-0.0008663346
0.0017214458
0.0011660625
-0.0000244762
0.0001266675
0.0004672108
-0.0005866556
-0.0002803537
0.0001310292
0.0002292954
0.0002180250
-0.0008263815
-0.0001925637
0.0006575867
-0.0007093144
-0.0003373941
0.0001271533
-0.0004958151
0.0000649398
-0.0006390582
0.0001383132
0.0002432385
0.0002082574
-0.0003406591
0.0004762900
0.0008191816
0.0005117893
-0.0007495286
0.0011242799
0.0006619343
-0.0006733082
-0.0022472955
-0.0003001068
0.0012282831
-0.0011199534
-0.0014564592
-0.0006601033
-0.0001158564
-0.0007764757
-0.0008765269
0.0018217979
-0.0016197155
0.0003883314
-0.0000061512
0.0009715735
0.0000161821
-0.0000397426
-0.0000548914
0.0006013776
0.0000420208
-0.0004460222
-0.0009269133
0.0002358174
0.0005985709
-0.0008709390
-0.0003561184
-0.0004853835
-0.0000065352
0.0006925290
-0.0002519354
0.0005816307
-0.0007660681
0.0001439238
0.0000899847
0.0002164028
0.0011801114
-0.0001218563
0.0001547312
0.0007463345
-0.0008786712
-0.0006575447
-0.0015437551
0.0004556412
0.0015843793
-0.0014016824
0.0011801776
0.0004236264
-0.0010443906
0.0000432453
-0.0005101905
-0.0001508097
-0.0004441695
0.0009413338
-0.0005804213
0.0004485316
0.0020648929
-0.0000849598
-0.0002278035
0.0020755365
-0.0009875699
-0.0025304045
-0.0040497368
0.0008042474
0.0028836983
-0.0013065472
-0.0011698912
-0.0010059392
-0.0008246485
-0.0010518723
-0.0012606029
0.0017149128
-0.0026377006
0.0009184748
-0.0006619680
0.0018189016
0.0021387407
0.0014184687
-0.0015639265
0.0024178284
0.0002603806
-0.0028434586
-0.0058098857
0.0000418733
0.0029225014
-0.0023444754
-0.0033099082
-0.0029325293
0.0004136903
-0.0024258913
-0.0023392112
0.0048777146
-0.0043108777
-0.0000986801
-0.0001787735
0.0021555189
0.0017338473
0.0027914183
-0.0038922756
0.0056767175
0.0015314771
-0.0067816081
-0.0113177973
0.0007217572
0.0053574962
-0.0040902109
-0.0086553640
-0.0072100149
0.0029705314
-0.0049152742
-0.0039741422
0.0112710493
-0.0104787373
-0.0007413285
0.0005110830
0.0038992175
0.0030432896
0.0059499447
-0.0047588725
0.0081991745
0.0000103008
-0.0103530158
-0.0160417989
0.0013644296
0.0090345705
-0.0046905138
-0.0119235770
-0.0098934339
0.0026866522
-0.0069367419
-0.0055893681
0.0146916147
-0.0148948301
-0.0004733547
0.0003346996
0.0068487503
0.0036915390
0.0047633414
-0.0039015571
0.0075669549
0.0005512326
-0.0096167485
-0.0158448789
0.0010566149
0.0082431909
-0.0051854078
-0.0105267336
-0.0089352095
0.0019326297
-0.0060789760
-0.0051880007
0.0129885687
-0.0134161017
0.0000432114
-0.0001620453
0.0062206324
0.0030671112
0.0049010774
-0.0040147133
0.0072560870
-0.0003253005
-0.0092033687
-0.0149512350
0.0012253067
0.0079047924
-0.0052352395
-0.0100666895
-0.0079326070
0.0017096303
-0.0057795647
-0.0051110574
0.0128001962
-0.0129702565
0.0001025174
0.0002542557
0.0060315075
0.0022021277
0.0041976843
-0.0035976927
0.0069420716
0.0006298238
-0.0079402021
-0.0134586804
0.0009950192
0.0068459341
-0.0050506054
-0.0096192139
-0.0081055321
0.0022304981
-0.0054288936
-0.0046619629
0.0116982529
-0.0107292161
-0.0004805169
0.0001079491
0.0046689375
0.0029649652
0.0008890949
-0.0019911919
0.0036278405
-0.0005506107
-0.0039907216
-0.0085426928
-0.0003273842
0.0057009514
-0.0035720729
-0.0038491537
-0.0020939903
-0.0013803746
-0.0030939399
-0.0035750413
0.0055782971
-0.0054957912
0.0009730669
-0.0006048610
0.0033204374
0.0046621084
-0.0010491077
-0.0000469687
0.0012168135
-0.0022710536
-0.0010472700
-0.0052352496
-0.0012000655
0.0049103621
-0.0027789243
0.0008462772
0.0016280084
-0.0045723701
-0.0010761202
-0.0030723778
-0.0000240756
-0.0016959190
0.0031916809
-0.0016803447
0.0029137688
0.0037127900
-0.0016130434
0.0005298729
0.0001715277
-0.0019114511
-0.0001486942
-0.0030548836
-0.0009836549
0.0038408886
-0.0024698647
0.0009750874
0.0022004814
-0.0038494338
-0.0006718734
-0.0019349977
-0.0009664085
-0.0000718421
0.0022739267
-0.0014315279
0.0021793101
0.0031827371
-0.0026502894
0.0005270912
-0.0007414070
-0.0007138393
0.0013096683
-0.0014188832
-0.0015768086
0.0021136026
-0.0019740460
0.0021148728
0.0030463600
-0.0045077801
0.0000818006
-0.0019927872
-0.0020034481
0.0017558053
0.0019714982
-0.0012061696
0.0010028551
0.0039760589
-0.0016743877
0.0010735257
-0.0010575801
-0.0021326370
0.0010954742
-0.0013914229
-0.0016376062
0.0027842993
-0.0018302600
0.0023872685
0.0034551932
-0.0047959845
0.0001124929
-0.0019803008
-0.0020434494
0.0021818354
0.0032649253
-0.0016194546
0.0018099063
0.0030114280
-0.0009843923
0.0007514891
-0.0012049656
-0.0015208364
0.0020079015
-0.0003251631
-0.0014771683
0.0019556452
-0.0009696380
0.0022655938
0.0029747273
-0.0037970785
0.0004678958
-0.0009829278
-0.0024376115
0.0017897107
0.0022229352
-0.0009907035
0.0013578871
0.0018675156
-0.0004814415
0.0009660887
-0.0004381270
-0.0017427119
0.0005720056
0.0001754418
-0.0003096052
0.0012768972
-0.0005214540
0.0022110986
0.0027513069
-0.0023038952
0.0005227618
-0.0002392109
-0.0021354691
0.0015541420
0.0019201442
-0.0005666642
0.0006330045
0.0038425481
-0.0013695676
0.0013341507
-0.0005154910
-0.0006433494
0.0005276129
-0.0007250245
-0.0005933559
0.0015270202
-0.0007681470
0.0017103710
0.0027468543
-0.0027322383
0.0003696108
-0.0007887821
-0.0017318645
0.0009181441
0.0019490084
-0.0009801501
0.0006060901
0.0020402136
-0.0011709042
0.0006533325
-0.0000050099
-0.0005738971
0.0008986467
-0.0006418384
-0.0007534170
0.0011819576
-0.0009650910
0.0010537768
0.0018860778
-0.0019954234
0.0003699393
-0.0008828607
-0.0008937781
0.0010715910
0.0010737276
-0.0007945870
0.0009104704
0.0014111890
-0.0008211334
0.0006277410
-0.0002647204
-0.0012784586
0.0008762296
-0.0002730502
-0.0004734375
0.0010788514
-0.0005537088
0.0014436960
0.0019022084
-0.0014785145
0.0002226445
0.0001795188
-0.0013478037
0.0009252253
0.0011953451
-0.0006416012
0.0006750500
0.0014799564
0.0000546855
0.0006639636
-0.0003572681
-0.0014166844
0.0011076247
-0.0000097680
-0.0004088252
0.0013434594
-0.0004888022
0.0016166481
0.0020092783
-0.0018510732
0.0004921599
0.0002813778
-0.0009097265
0.0009685435
0.0014770644
0.0004319714
0.0006347671
0.0012407200
-0.0010143475
0.0007984826
-0.0004364990
-0.0004933573
0.0006610003
0.0001172931
-0.0001313765
0.0007454472
-0.0005758033
0.0013609515
0.0018550997
-0.0014256761
0.0006493977
0.0002447492
-0.0012554273
0.0011555850
0.0010035991
-0.0006411861
0.0000295439
0.0010036947
-0.0001660975
0.0013932910
-0.0000551841
-0.0008258832
0.0007227758
0.0004780383
0.0000471127
0.0003293342
-0.0002221723
0.0015436901
0.0018406799
-0.0009291257
0.0010566917
0.0008334060
-0.0008459569
0.0011417851
0.0009272713
0.0000970332
-0.0000091070
0.0010553631
-0.0006670923
0.0009604666
-0.0000304309
-0.0006053171
0.0009478790
0.0008342481
-0.0001851446
0.0006187112
0.0001799552
0.0015377726
0.0018821789
-0.0013651724
0.0004777057
0.0001822431
-0.0013642695
0.0012489256
0.0009882929
-0.0005986873
0.0001832688
0.0010458700
-0.0006436716
0.0005904508
-0.0001471171
-0.0001884694
0.0009211581
0.0005349770
-0.0003820195
0.0004145580
-0.0002443204
0.0015404658
0.0013284904
-0.0010876056
0.0015937321
-0.0001360361
-0.0012231179
0.0011321571
0.0009797011
-0.0005044472
0.0002724285
0.0011784197
-0.0007341673
0.0004534119
-0.0005467100
-0.0000829313
0.0006253935
0.0002556414
-0.0003450937
0.0004706410
0.0000516155
0.0013522828
0.0014098089
-0.0010742854
0.0003498998
-0.0001392593
-0.0013178621
0.0008934782
0.0005698147
-0.0005046353
0.0000720273
0.0008770276
-0.0009447370
0.0004957827
-0.0005974231
0.0001072125
0.0008075007
0.0008606715
-0.0002261831
0.0002461257
-0.0002438785
0.0012906332
0.0015824771
-0.0015358892
0.0009417564
-0.0002710323
-0.0014752717
0.0011254372
0.0007913370
-0.0004567140
0.0000116292
0.0012381144
-0.0005369142
0.0006937651
-0.0007169739
-0.0006693001
0.0006952430
0.0003804666
-0.0003050381
0.0013419874
-0.0001841530
0.0014997693
0.0014117706
-0.0014408770
0.0004742860
0.0000198562
-0.0017380074
0.0013646991
0.0009798140
-0.0004589888
0.0010751463
0.0006820083
-0.0000615886
0.0009565855
-0.0001399113
-0.0006639982
0.0006464391
0.0004346530
0.0004985727
0.0010922133
-0.0002353829
0.0015518357
0.0020976361
-0.0011625524
0.0006170714
0.0001475448
-0.0014083119
0.0011300274
0.0007775498
-0.0001796148
-0.0000549814
0.0009763464
-0.0004330533
0.0011277183
-0.0003803048
-0.0009929137
0.0003846419
0.0005856551
0.0000889903
0.0003229950
-0.0000885772
0.0017082045
0.0014501645
-0.0011563440
0.0006605791
0.0002632381
-0.0019262292
0.0012951222
0.0009736057
-0.0004798065
0.0000311264
0.0014825605
-0.0012166466
0.0012278711
-0.0005494454
-0.0003547149
0.0010284116
0.0001096587
-0.0000125392
0.0006965250
-0.0004604579
0.0016218837
0.0020736143
-0.0018690682
0.0004733318
0.0002508913
-0.0019596786
0.0014050324
0.0016536021
-0.0003810816
0.0003945110
0.0007670622
-0.0016738981
0.0005240710
0.0001311787
-0.0003941141
0.0008035905
-0.0001272937
0.0001278972
0.0010059791
-0.0007960075
0.0016350699
0.0015865894
-0.0017331351
0.0006118932
-0.0002440830
-0.0015370303
0.0010309350
0.0009221156
-0.0004750663
0.0001639815
0.0010697481
-0.0013933795
0.0003632303
-0.0001046889
-0.0003562780
0.0005533123
-0.0004391959
-0.0003070074
0.0012547885
0.0001622288
0.0014696436
0.0017663824
-0.0020227670
0.0004410395
-0.0006346890
-0.0012747804
0.0010353743
0.0010415051
-0.0004684478
0.0001737504
0.0011320046
-0.0010616084
0.0004300918
-0.0006055362
-0.0003721471
0.0009829688
0.0004029130
0.0000888137
0.0005220028
0.0001449011
0.0017954755
0.0018590326
-0.0017671417
0.0005361301
-0.0002143510
-0.0019173463
0.0014900389
0.0008369182
-0.0006015909
0.0005656761
0.0005036933
-0.0013569852
0.0005821186
0.0002347895
-0.0004612448
0.0007298302
0.0003613573
-0.0000303146
0.0007865538
-0.0002187517
0.0014861857
0.0016051367
-0.0009362459
0.0006907381
0.0000746353
-0.0017533889
0.0013733081
0.0006919231
-0.0003684632
-0.0004317990
0.0007616823
-0.0014067237
0.0007820207
-0.0002023139
-0.0003926010
0.0006169572
0.0007169874
0.0004098768
0.0008152785
-0.0006498728
0.0024631248
0.0017352277
-0.0014467639
0.0008571543
-0.0000803106
-0.0021861389
0.0014107313
0.0009157259
-0.0004695176
-0.0002957824
0.0011636233
-0.0014826931
0.0006317343
-0.0002835741
-0.0006325828
0.0005618962
0.0000335188
-0.0001157913
0.0008604711
-0.0007264052
0.0020097825
0.0019997912
-0.0020947010
0.0008311202
-0.0002427156
-0.0020398606
0.0018695386
0.0011228385
-0.0007560157
0.0001799654
0.0016018706
-0.0013993989
0.0011921718
-0.0004907723
-0.0010004158
0.0011786787
-0.0002057892
0.0000690013
0.0012006479
-0.0008691686
0.0020352333
0.0019445259
-0.0018381434
0.0007240468
-0.0002248093
-0.0021350124
0.0012185559
0.0015226829
-0.0005057428
0.0000683953
0.0028318525
-0.0017136754
0.0006451943
-0.0006369794
-0.0007633299
0.0008363149
-0.0007435228
-0.0001703087
0.0016161779
-0.0012023844
0.0020494632
0.0027540354
-0.0031078334
0.0003149928
-0.0005546139
-0.0020635540
0.0011466913
0.0017161809
-0.0007670548
0.0005918356
0.0033840578
-0.0028654995
0.0011587103
-0.0004586723
-0.0016644294
0.0015922173
-0.0015320960
-0.0013290723
0.0024017658
-0.0017353515
0.0024158833
0.0035818090
-0.0047074150
0.0007195912
-0.0018062685
-0.0026424066
0.0021779341
0.0022552295
-0.0015227673
0.0010603559
0.0029498362
-0.0033845163
0.0010069277
0.0000883506
-0.0014671586
0.0010118949
-0.0015845929
-0.0007100174
0.0022927025
-0.0025287096
0.0028540268
0.0037158905
-0.0047606924
0.0009113006
-0.0013687089
-0.0027343513
0.0019208684
0.0023272875
-0.0012193763
0.0000659425
0.0039910823
-0.0034328813
0.0008340266
-0.0009110345
-0.0013863346
0.0014167575
-0.0014375505
-0.0013161687
0.0028738664
-0.0025299424
0.0032680308
0.0043013558
-0.0053020466
0.0005850797
-0.0016350286
-0.0037212168
0.0020139702
0.0028492450
-0.0017574125
0.0010060097
0.0033583371
-0.0033845345
0.0020824123
0.0000728427
-0.0022421775
0.0007413149
-0.0018753471
-0.0004343794
0.0032386114
-0.0028622446
0.0036109274
0.0039038994
-0.0051741462
0.0009997069
-0.0017016386
-0.0036639961
0.0016954929
0.0036270582
-0.0017931558
0.0004198765
0.0033595521
-0.0028469037
0.0011317706
-0.0002155955
-0.0018555487
0.0007521371
-0.0016444769
-0.0006720669
0.0026647678
-0.0024683904
0.0029094715
0.0038051832
-0.0049259028
0.0004431435
-0.0012813927
-0.0030424917
0.0021127890
0.0027858136
-0.0015049766
0.0005348742
0.0033905332
-0.0041723696
0.0011501575
0.0003105810
-0.0018633672
0.0014770626
-0.0015780950
-0.0003419720
0.0029218091
-0.0027306744
0.0035464533
0.0043696517
-0.0057140626
0.0008830015
-0.0018280626
-0.0039242562
0.0028663016
0.0031372698
-0.0010744054
0.0002907682
0.0065421056
-0.0049066211
0.0016171433
-0.0001172928
-0.0042840250
0.0008679169
-0.0038846991
-0.0015145032
0.0057547635
-0.0041393666
0.0047920708
0.0062515208
-0.0086839747
0.0004124750
-0.0029676902
-0.0048756171
0.0020578305
0.0059060082
-0.0029054973
0.0022292931
0.0088823675
-0.0064208990
0.0024245987
0.0002818277
-0.0058314963
0.0007736759
-0.0061857056
-0.0016552964
0.0082812625
-0.0064773662
0.0064353205
0.0080428442
-0.0114620319
0.0003162377
-0.0036865390
-0.0055233562
0.0023005621
0.0073234319
-0.0038582130
0.0029063729
0.0129746795
-0.0077736977
0.0038709522
0.0002049909
-0.0095700424
0.0002486934
-0.0079588033
-0.0023947729
0.0117394852
-0.0081135281
0.0092839064
0.0112662545
-0.0161575938
0.0006262966
-0.0056616544
-0.0092084971
0.0031256725
0.0101263208
-0.0054479748
0.0050033628
0.0111719443
-0.0082713669
0.0044770156
0.0003053209
-0.0088162535
0.0009469786
-0.0059032610
-0.0011113808
0.0100856318
-0.0075839244
0.0102026611
0.0115270944
-0.0147530680
0.0016824423
-0.0040961451
-0.0104271633
0.0044827585
0.0095017444
-0.0049918744
0.0031063175
0.0011320048
-0.0094342856
0.0017737840
0.0025965672
0.0000491340
0.0005937828
-0.0018489828
0.0026050930
0.0019986501
-0.0047106719
0.0060822108
0.0055860803
-0.0054045496
0.0032445405
-0.0004833148
-0.0073171596
0.0036255604
0.0023779961
-0.0012068948
-0.0038807561
0.0002773562
-0.0140431587
0.0011391078
0.0018652298
0.0025175647
0.0028761067
-0.0018518476
0.0019992628
0.0010447302
-0.0054334295
0.0066010272
0.0074790464
-0.0077478273
0.0034470039
-0.0019343258
-0.0085778438
0.0052338530
0.0016801971
-0.0019596682
-0.0063264004
0.0142120066
-0.0205008344
0.0029191118
0.0005194331
-0.0051758147
0.0042996098
-0.0096806005
-0.0034382942
0.0118997285
-0.0139698159
0.0129118407
0.0171525416
-0.0236449244
0.0026351773
-0.0091013484
-0.0143462023
0.0068028896
0.0103739213
-0.0071224245
0.0003633870
0.0168292846
-0.0143982952
0.0039427997
-0.0002422489
-0.0100873327
0.0027698137
-0.0095282351
-0.0039757607
0.0142472018
-0.0119940638
0.0129459054
0.0167639607
-0.0231150457
0.0018124299
-0.0086675227
-0.0132854498
0.0065596990
0.0126190791
-0.0072720016
0.0045262596
0.0077919906
-0.0119853318
0.0035874213
0.0013027309
-0.0054340435
0.0015090697
-0.0046806270
0.0000629833
0.0075250252
-0.0076121292
0.0105703236
0.0118348436
-0.0136312356
0.0033539706
-0.0033979129
-0.0116774417
0.0055825824
0.0075505006
-0.0045063883
-0.0005857739
0.0075395630
-0.0046571828
0.0050377611
-0.0001595058
-0.0088729177
0.0001990025
-0.0017428575
0.0007105656
0.0068887898
-0.0039909042
0.0106801814
0.0097009471
-0.0093123414
0.0029660200
-0.0001187977
-0.0109113526
0.0055681605
0.0083636801
-0.0036178842
0.0019879651
0.0063391664
-0.0133263052
0.0043425214
0.0001567613
-0.0043274769
0.0028640843
-0.0021543366
0.0003561185
0.0055557408
-0.0071373746
0.0116579083
0.0121344653
-0.0129344576
0.0043681479
-0.0024252569
-0.0133100739
0.0073452084
0.0066841690
-0.0041461704
-0.0020711964
0.0074677623
-0.0196216422
0.0025464715
0.0017299377
-0.0018204629
0.0040422552
-0.0061309180
-0.0007256474
0.0073940014
-0.0114144638
0.0114716019
0.0141729819
-0.0175737584
0.0038163590
-0.0061405280
-0.0132382300
0.0074706768
0.0069811679
-0.0052000198
-0.0035927049
0.0094787388
-0.0279975666
0.0024135947
0.0013261607
-0.0001650443
0.0068659565
-0.0072793341
-0.0014897459
0.0083313242
-0.0152127036
0.0146053674
0.0193936315
-0.0236807639
0.0049093754
-0.0086092779
-0.0181619213
0.0101841351
0.0080757748
-0.0059973455
-0.0062992863
0.0083247562
-0.0261669634
0.0033759185
0.0023406842
-0.0018816012
0.0055401235
-0.0069756234
0.0003167733
0.0083724431
-0.0142718607
0.0148027752
0.0177371177
-0.0209861381
0.0052839300
-0.0065921884
-0.0179853431
0.0100537642
0.0083221407
-0.0060373477
-0.0064790488
-0.0026937631
-0.0166478240
0.0045455736
0.0049713110
-0.0004901563
0.0002499567
0.0003432790
0.0075581366
0.0010894247
-0.0065489990
0.0116845462
0.0092666961
-0.0054051054
0.0069466952
0.0030152631
-0.0140179441
0.0075111661
0.0028483330
-0.0022146638
-0.0105637355
0.0003099209
0.0003879212
0.0067982532
0.0037828853
-0.0086384859
-0.0053486759
0.0036701009
0.0082290005
0.0020057359
0.0005138389
0.0097217947
0.0030260009
0.0023484499
0.0050962576
0.0078231595
-0.0090050172
0.0037079623
0.0041927407
-0.0009506279
-0.0022966929
0.0149740490
-0.0080685004
0.0085778823
-0.0014513629
-0.0162622630
0.0008547217
-0.0034277113
-0.0010741090
0.0127207755
-0.0070616479
0.0176693761
0.0171270035
-0.0186115536
0.0040593440
-0.0023499343
-0.0177583681
0.0087660180
0.0148290823
-0.0068412067
0.0050735993
0.0092218131
-0.0210816690
0.0019077273
-0.0009634167
-0.0019364856
0.0069815236
-0.0051726913
-0.0033264621
0.0071286320
-0.0111952725
0.0123076840
0.0164843309
-0.0202526604
0.0033220728
-0.0074196486
-0.0148175615
0.0087343671
0.0080138770
-0.0055428725
-0.0033416254
-0.0100684718
-0.0236068298
-0.0006055900
0.0031817327
0.0127536240
0.0066573917
0.0038494041
0.0050656192
-0.0075843252
-0.0064289897
0.0059544771
0.0065695079
-0.0029763074
0.0067122242
0.0003507964
-0.0101756464
0.0086062359
-0.0050481620
0.0004543940
-0.0179802068
-0.0093316953
-0.0189581859
0.0004460750
0.0035584061
0.0090560349
0.0054888873
0.0037535751
0.0062648980
-0.0062858155
-0.0039426650
0.0060095320
0.0058761344
-0.0011944294
0.0066628573
0.0019109568
-0.0099825570
0.0074838784
-0.0038940206
0.0003956177
-0.0150841101
0.0057938048
-0.0198996062
0.0059576053
0.0009715084
-0.0056232666
0.0041048863
-0.0012599438
0.0022133818
0.0054327715
-0.0091924212
0.0169606786
0.0167249826
-0.0158362281
0.0069046214
-0.0014702402
-0.0191101151
0.0113001988
0.0078071590
-0.0049930652
-0.0063106391
0.0184149463
-0.0135003249
0.0068386896
-0.0024074945
-0.0148705654
0.0038909290
-0.0060296281
-0.0040866972
0.0148176967
-0.0101987187
0.0185970436
0.0205369122
-0.0243307311
0.0031351826
-0.0065355061
-0.0177824993
0.0098842151
0.0151870891
-0.0081502183
0.0055652392
-0.0071254406
-0.0103582175
0.0010683816
0.0057784669
0.0037189714
-0.0019225556
0.0001994758
0.0075540628
-0.0025475298
-0.0034100301
0.0034535069
0.0005362427
0.0024286930
0.0042879236
0.0032651196
-0.0044535154
0.0022952887
-0.0022416328
0.0004649291
-0.0097069771
-0.0132789166
-0.0339246502
-0.0005274055
0.0146097660
0.0149408092
-0.0014986336
-0.0074010134
0.0141251882
-0.0019511886
-0.0159967790
0.0057788450
0.0047279562
-0.0029784642
0.0082952921
0.0001903809
-0.0098707966
0.0037568444
-0.0049269026
-0.0005055772
-0.0244488643
0.0328578747
-0.0474693776
0.0053000684
0.0036690522
-0.0132017408
0.0074838360
-0.0277792978
-0.0075406856
0.0303691074
-0.0342665774
0.0279402378
0.0385547361
-0.0547877721
0.0055584707
-0.0236272191
-0.0315792443
0.0125849808
0.0247831478
-0.0166259198
0.0013964695
0.0351577983
-0.0057832283
0.0067231943
-0.0032730960
-0.0256043211
-0.0001278281
-0.0190869084
-0.0108788850
0.0291332482
-0.0145636186
0.0173315249
0.0226576639
-0.0355938044
-0.0029560009
-0.0147609199
-0.0141759581
0.0026464540
0.0245313753
-0.0121044652
0.0220015395
0.0007450100
0.0085572961
0.0075556029
0.0048355665
-0.0121516235
-0.0082330299
0.0006351468
0.0093944586
0.0044544873
0.0022416681
0.0078427124
-0.0006493957
0.0058359248
0.0036870222
0.0094813798
-0.0054390688
0.0004818442
0.0051871203
0.0004438420
0.0023551852
-0.0037097633
-0.0173176309
-0.0008743142
0.0053789324
0.0071567004
0.0016973491
-0.0044356558
0.0041843395
0.0001661034
-0.0084946088
0.0028301880
0.0041372863
-0.0049276467
0.0032458511
-0.0023690902
-0.0053402650
0.0023872390
-0.0015165428
-0.0010777389
-0.0100070647
0.0465905954
-0.0367434090
0.0102070924
-0.0015334315
-0.0289121351
0.0072948000
-0.0275330301
-0.0126661671
0.0393076392
-0.0320169877
0.0363030122
0.0453909288
-0.0620441372
0.0032354472
-0.0244026661
-0.0352325663
0.0151131469
0.0347527638
-0.0198837733
0.0148854123
0.0154926344
-0.0057279072
0.0105926196
0.0044172090
-0.0206446428
-0.0060915515
-0.0093470639
0.0046529683
0.0169031160
-0.0093877116
0.0182322995
0.0139542415
-0.0160149235
0.0040586099
0.0001459677
-0.0160223119
0.0047009341
0.0159318321
-0.0060053661
0.0057984417
0.0084941521
-0.0039898472
0.0009594020
0.0014624331
-0.0056112062
-0.0016322388
-0.0073209530
-0.0011891475
0.0084383820
-0.0048935324
0.0036404448
0.0044984890
-0.0083779041
-0.0008912432
-0.0040351051
-0.0021796087
-0.0006979934
0.0056088381
-0.0030296601
0.0038126756
-0.0023400094
-0.0092707493
0.0012900017
0.0020060178
0.0025187789
0.0011427736
0.0007844698
0.0031907525
-0.0006919478
-0.0031863417
0.0041600801
0.0035153615
-0.0021818403
0.0035130249
0.0011373140
-0.0056693562
0.0034955431
0.0003235528
-0.0003203151
-0.0056984703
0.0306901674
-0.0303476128
0.0029901983
-0.0068132352
-0.0111933923
0.0133070805
-0.0142286740
-0.0151965668
0.0214682657
-0.0208038386
0.0206095865
0.0320930038
-0.0455715308
0.0007696177
-0.0212359125
-0.0231934588
0.0131812484
0.0195868033
-0.0121670897
0.0079444588
0.0048015651
-0.0093523688
-0.0038402405
-0.0017084534
0.0048126383
0.0051171523
-0.0050194351
-0.0055281553
0.0026832467
-0.0052005982
-0.0015584210
0.0038747262
-0.0094371527
-0.0021750904
-0.0083875849
0.0010313738
0.0002174085
0.0004900807
-0.0018568412
0.0005014590
0.0044558364
-0.0096018093
-0.0029340591
-0.0021716837
0.0044706443
0.0056185522
-0.0033697914
-0.0055930876
0.0018714175
-0.0044842141
-0.0004641572
0.0048199509
-0.0081899542
-0.0016638291
-0.0080425714
-0.0005664751
0.0010421025
0.0004416516
-0.0013995765
-0.0001744626
0.0112519212
-0.0195693270
-0.0110956660
-0.0034822464
0.0139814759
0.0117562182
-0.0139855146
-0.0155212444
0.0062401867
-0.0135657403
-0.0080562755
0.0067069534
-0.0214272461
-0.0063633617
-0.0215321158
0.0052425867
-0.0032818685
0.0001670650
-0.0035177381
0.0019124471
0.0258539739
-0.0237396882
-0.0059952342
-0.0065805476
0.0022556063
0.0133584176
-0.0190555531
-0.0203960635
0.0172450651
-0.0188494544
0.0017836564
0.0187887721
-0.0371106563
-0.0065942878
-0.0270118345
-0.0036111337
0.0013780072
0.0105729538
-0.0090743828
0.0101937961
0.0104999885
0.0045432649
-0.0012163469
-0.0031433238
-0.0053592137
0.0009839827
-0.0049571863
-0.0070294273
0.0070685849
-0.0012159108
-0.0017030861
0.0027352355
-0.0076908899
-0.0032524532
-0.0060839636
0.0035464581
-0.0022934994
0.0048714760
-0.0018306255
0.0102774858
0.0085926917
-0.0000838645
-0.0098251485
-0.0069963177
0.0088463182
0.0084996275
-0.0062972286
-0.0152727795
0.0025640745
-0.0023915569
-0.0121817403
-0.0007335095
-0.0094741098
-0.0086527162
-0.0147147490
0.0124352474
-0.0057541698
-0.0018536450
-0.0004062477
0.0083582526
0.0003789033
-0.0090788574
-0.0091398487
-0.0055523842
0.0145304482
0.0108521006
-0.0014682787
-0.0110339098
-0.0039837334
-0.0026248172
-0.0090857982
0.0007106401
-0.0064556256
-0.0043281207
-0.0114004121
0.0068694561
-0.0007083533
-0.0059233561
0.0008072487
-0.0015523788
-0.0004217362
0.0013530399
-0.0015895996
-0.0004853579
0.0022027865
0.0006881486
0.0003952181
-0.0010765971
-0.0003526846
0.0010444772
-0.0024651626
-0.0020702675
0.0011037038
-0.0011499543
-0.0011163098
0.0035199790
-0.0015296918
-0.0013244184
0.0008456066
0.0005889200
0.0017277129
-0.0098093742
-0.0073158156
-0.0021682351
0.0120657060
0.0079760897
-0.0037165134
-0.0086365993
-0.0012072230
-0.0042984117
-0.0070319094
0.0009496352
-0.0072222426
-0.0037248791
-0.0103576210
0.0053345839
-0.0014479315
-0.0038709507
-0.0000711705
-0.0016464444
0.0074803243
-0.0077007758
-0.0013994624
-0.0015958296
0.0002644289
0.0039060495
-0.0054173140
-0.0044152514
0.0049407574
-0.0058328489
0.0016325156
0.0059202725
-0.0110163531
-0.0009648578
-0.0071152007
-0.0024794495
0.0012312285
0.0033913453
-0.0027849051
0.0020315396
-0.0009282726
-0.0008854314
0.0014344408
0.0016846877
-0.0003930727
-0.0016456526
-0.0002105922
0.0024592677
0.0003590443
-0.0003938716
0.0017625574
0.0001109644
0.0006682120
0.0011331604
0.0015271431
-0.0014389896
0.0002062181
0.0003533704
0.0005563054
-0.0011405540
-0.0037230358
-0.0079421692
0.0010915665
0.0036346041
0.0024164201
-0.0008137747
-0.0000590913
0.0046046355
-0.0010960276
-0.0024283441
0.0029997766
0.0014386750
0.0002384505
0.0030486918
0.0020929147
-0.0041984765
0.0020937489
-0.0006640770
0.0000886036
-0.0067423222
-0.0018457323
-0.0017722648
0.0022524746
0.0034501025
-0.0016288903
-0.0021709226
0.0000171063
0.0042228698
0.0005833612
-0.0008845584
0.0033365705
0.0003972642
0.0016031911
0.0024503295
0.0030920580
-0.0020535952
0.0009872999
0.0007206596
-0.0001568323
-0.0025645847
0.0055913713
-0.0033027385
0.0006997860
-0.0007157511
-0.0021763156
0.0011044404
-0.0029465183
-0.0018779708
0.0044383207
-0.0031033395
0.0033022432
0.0043000579
-0.0056030423
-0.0002491856
-0.0031015848
-0.0024234691
0.0009407862
0.0033737231
-0.0021321710
0.0025661455
0.0085291117
-0.0110397770
0.0006205805
-0.0007231348
-0.0021695770
0.0039184409
-0.0050793488
-0.0038909312
0.0062529858
-0.0073604697
0.0061157855
0.0098746264
-0.0136830195
0.0006291478
-0.0062944616
-0.0069244413
0.0037738002
0.0054289584
-0.0039691932
0.0008298447
0.0097906759
-0.0044780648
0.0047721985
-0.0010149667
-0.0094229447
0.0004598301
-0.0029462707
-0.0011353958
0.0088651257
-0.0045981087
0.0095819828
0.0096904911
-0.0117487090
0.0018787069
-0.0023800335
-0.0094989742
0.0045520603
0.0090471310
-0.0042662431
0.0045032798
0.0000912036
-0.0028054063
-0.0002014931
0.0001694312
0.0013587941
0.0020256095
-0.0001776753
0.0001393478
0.0000761883
-0.0010667229
0.0009667461
0.0013311746
-0.0014842116
0.0005506882
-0.0007860485
-0.0015796010
0.0010391166
0.0000704511
-0.0004002612
-0.0010931343
0.0003447428
-0.0065254023
-0.0030956997
-0.0005249853
0.0060141751
0.0036441196
-0.0017864604
-0.0028667186
-0.0002388892
-0.0030418128
-0.0021482499
0.0017302362
-0.0036072167
-0.0009292768
-0.0044392585
0.0010802156
0.0003891268
-0.0018811520
-0.0003723199
-0.0024326732
0.0018902809
0.0014203717
0.0038912893
0.0005371657
-0.0048691973
-0.0018426083
0.0007258662
0.0020162075
0.0021736979
0.0002612821
0.0045426791
0.0018147794
-0.0003827001
0.0016518307
0.0027132329
-0.0039426392
0.0015563408
0.0026804230
-0.0008708121
0.0009346111
-0.0019301526
-0.0058513892
0.0013041264
0.0019399054
0.0016736676
0.0001054728
0.0000975257
0.0028520148
-0.0007359657
-0.0020674939
0.0034133706
0.0021325188
-0.0004167114
0.0027265701
0.0013772716
-0.0038063910
0.0024270698
-0.0001287801
-0.0002527896
-0.0041407082
0.0201453631
-0.0096962808
0.0060960894
-0.0029255579
-0.0155342344
0.0033432612
-0.0081687530
-0.0056071619
0.0157322187
-0.0100465716
0.0160747454
0.0188359908
-0.0244245567
0.0018678025
-0.0075847825
-0.0150817150
0.0074227245
0.0153121728
-0.0082126419
0.0086243637
0.0129494627
0.0026738597
0.0093947356
-0.0015031366
-0.0179112038
-0.0026073266
-0.0012009762
0.0011950241
0.0111119988
-0.0022597160
0.0158879331
0.0124722218
-0.0108142907
0.0033255459
0.0029533180
-0.0131649236
0.0064340985
0.0132733629
-0.0048173585
0.0083747662
0.0286897964
-0.0129274692
0.0047354283
-0.0056694985
-0.0171342899
0.0070847293
-0.0133426113
-0.0122796054
0.0208416373
-0.0141864622
0.0176759646
0.0251860303
-0.0351967929
-0.0007911746
-0.0148556961
-0.0168408873
0.0086266036
0.0192488404
-0.0106887177
0.0142850381
0.0232501619
0.0162430719
0.0189652832
-0.0036924555
-0.0378910339
-0.0074448357
0.0008346766
0.0025134438
0.0195878794
0.0011925189
0.0277266768
0.0175027399
-0.0140572653
0.0053867382
0.0087816636
-0.0231214890
0.0103756409
0.0239084970
-0.0077661980
0.0196975985
0.0183927030
0.0000180951
0.0093651611
-0.0043731148
-0.0195476371
0.0017203282
-0.0032082936
-0.0037763995
0.0132120938
-0.0042283770
0.0181403957
0.0176277710
-0.0185735834
0.0024652767
-0.0016229743
-0.0171222345
0.0088405009
0.0160107009
-0.0065018530
0.0113789664
0.0231723132
0.0124137690
0.0056550457
-0.0090937744
-0.0197688087
0.0034060361
-0.0024389824
-0.0117315584
0.0137802011
0.0011101943
0.0111939224
0.0120466287
-0.0172933223
-0.0029612007
-0.0053397478
-0.0080947309
0.0039976265
0.0147531281
-0.0059826086
0.0215290638
0.0082850527
0.0028435359
-0.0145800795
-0.0122891176
0.0185157465
0.0147923709
-0.0046102112
-0.0231703765
-0.0031636979
0.0009324469
-0.0178204398
-0.0049265164
-0.0081488081
-0.0122735684
-0.0189112198
0.0180268435
-0.0074487764
-0.0063867516
0.0015987669
0.0112448262
0.0172572369
-0.0199378332
-0.0302628895
-0.0159736841
0.0388290722
0.0283135781
-0.0217112443
-0.0414420666
0.0015876107
-0.0142220186
-0.0331685863
-0.0012745224
-0.0295617978
-0.0216474787
-0.0447097186
0.0292714891
-0.0137981362
-0.0116664435
-0.0014315125
0.0120816663
0.0034542565
0.0038595782
-0.0156948566
-0.0042073973
0.0192121175
0.0064270289
-0.0116069130
-0.0162140731
-0.0006459321
-0.0016632283
-0.0236340294
-0.0126581798
-0.0011616223
-0.0135641999
-0.0168134324
0.0241535685
-0.0148471239
-0.0093452112
0.0028021249
0.0094542727
0.0168232663
-0.0207425418
-0.0224113086
-0.0077458760
0.0267087026
0.0180100658
-0.0238599477
-0.0299079784
0.0075282030
-0.0166740945
-0.0235206676
0.0008804794
-0.0270090276
-0.0168229737
-0.0361075476
0.0212005103
-0.0128846303
-0.0058389129
-0.0027051628
0.0094702900
-0.0156155183
0.0071161842
0.0031036056
0.0071314006
0.0031197106
-0.0080639994
0.0078633941
0.0131897699
-0.0091621797
0.0076328799
-0.0002052872
-0.0109053618
0.0202956866
0.0042237981
0.0139552880
0.0005125913
-0.0010412166
-0.0066214763
0.0051846717
-0.0082308132
0.0174243714
-0.0097239568
0.0118256184
0.0007394263
-0.0218851524
-0.0012602283
-0.0053211528
0.0016838350
0.0156553958
-0.0086623245
0.0243737507
0.0206805235
-0.0215779917
0.0071677699
-0.0008625743
-0.0240715221
0.0121347744
0.0178416198
-0.0083455270
0.0056714596
-0.0062604152
0.0153147159
0.0157235861
0.0115377035
-0.0217389837
-0.0193023744
0.0045268203
0.0221134080
0.0033521833
0.0064730362
0.0167117689
-0.0028511399
0.0162356372
0.0089564201
0.0228148643
-0.0125495533
0.0020957725
0.0071473213
0.0005192044
-0.0012000060
0.0184940694
0.0052856264
0.0154662089
0.0094792535
-0.0332468317
-0.0168134279
-0.0143080303
0.0118898975
0.0240743239
-0.0087754548
0.0222606924
0.0123170067
-0.0125347817
0.0048222085
0.0061487511
-0.0175954285
0.0007589551
0.0219416635
-0.0081346195
0.0122087130
0.0128704371
0.0069741141
0.0052410034
-0.0000346415
-0.0127924908
-0.0038699078
-0.0061467163
-0.0011999766
0.0113789187
-0.0018141324
0.0066789143
0.0051599579
-0.0080402542
-0.0012263284
-0.0015767192
-0.0044440428
-0.0007825702
0.0094901926
-0.0034403660
0.0121132604
0.0229476724
-0.0107882494
0.0046326468
0.0030136641
-0.0167327641
-0.0032501487
-0.0193430266
-0.0038623727
0.0223508473
-0.0158201757
0.0120680403
0.0156071342
-0.0260084717
-0.0013225817
-0.0114933859
-0.0106722192
0.0001250473
0.0165852543
-0.0085498439
0.0113862487
-0.0117391470
-0.0162685159
0.0001673560
0.0204929824
0.0056028916
-0.0147510117
-0.0138894564
0.0178393958
0.0026953788
-0.0122230859
-0.0012259606
-0.0072202905
0.0071408077
0.0039654694
0.0042958997
0.0009500062
-0.0084322888
-0.0028883093
0.0008964794
-0.0151169852
0.0053044746
-0.0158711413
0.0073729770
0.0114509200
-0.0107567210
-0.0086572069
-0.0105216961
0.0099136454
0.0112842845
-0.0117776793
0.0141491956
0.0089895572
-0.0099302833
0.0054200392
0.0010858428
-0.0141960375
0.0024576626
0.0092321882
-0.0044363365
-0.0047832627
0.0010353982
-0.0279784295
-0.0008126772
0.0071071854
0.0063675543
0.0035639452
-0.0101618579
0.0021789841
0.0042761450
-0.0151857174
0.0063727144
0.0093060073
-0.0140164532
0.0032776815
-0.0074688869
-0.0096354980
0.0032635471
0.0022851490
-0.0035654029
-0.0113752668
0.0262146503
-0.0468262501
-0.0078978168
0.0023618127
0.0068490624
0.0126469901
-0.0309662365
-0.0163244228
0.0223571805
-0.0332139403
0.0065987589
0.0253334540
-0.0484170422
-0.0041292348
-0.0329208021
-0.0107034335
0.0021381911
0.0116109308
-0.0119129262
0.0000437808
0.0084230167
-0.0160503901
-0.0068591980
0.0080106198
0.0061013584
-0.0024214659
-0.0224133219
-0.0035494176
0.0115214484
-0.0165046611
-0.0064680802
0.0011943092
-0.0141730706
-0.0055277664
-0.0150312289
0.0062533103
-0.0092096534
0.0020607748
-0.0031670099
0.0014999659
0.0228180075
-0.0032224493
0.0036341230
-0.0067339548
-0.0140979689
0.0049997835
-0.0075695850
-0.0105154892
0.0150673068
-0.0066356893
0.0116467523
0.0159805859
-0.0232973052
-0.0019718036
-0.0102765459
-0.0106388066
0.0054174591
0.0147243876
-0.0073445567
0.0144433366
0.0185372212
-0.0031993334
-0.0014848851
0.0059860761
-0.0090889894
-0.0066259355
-0.0234596133
-0.0048604394
0.0199807730
-0.0135165029
-0.0005253119
0.0036829801
-0.0164711521
-0.0059100616
-0.0128635060
0.0035448477
-0.0092284684
0.0101507466
-0.0059262211
0.0131943934
0.0050939398
-0.0128423384
-0.0055147442
0.0076831599
0.0072331514
-0.0029704935
-0.0191090121
-0.0022242005
0.0093170170
-0.0136767340
-0.0067198532
-0.0010618758
-0.0096816051
-0.0047842537
-0.0121174466
0.0065013211
-0.0090612474
0.0000456308
-0.0022359394
0.0001923548
0.0051811258
-0.0139730004
-0.0021254142
-0.0010240399
0.0049790266
0.0061210483
-0.0038987204
-0.0052161717
0.0023114258
-0.0067450200
0.0029603079
0.0077669598
-0.0125311206
-0.0001251906
-0.0079649659
-0.0048322020
0.0032774814
0.0015042969
-0.0026095359
-0.0018246773
0.0011996534
0.0055276942
0.0020740051
0.0076720273
-0.0057421672
-0.0098448119
-0.0071634106
0.0064196395
0.0060279320
-0.0020987749
-0.0005267957
-0.0046434456
0.0038246722
-0.0003302167
0.0023902194
0.0027720110
-0.0061932570
0.0025052665
-0.0002290748
0.0029941117
0.0054317682
-0.0061251927
-0.0078267228
0.0096120850
0.0065507610
-0.0070446592
-0.0207999364
-0.0013589294
0.0092899651
-0.0112795861
-0.0132624131
-0.0074189754
-0.0045596233
-0.0076576165
-0.0118664070
0.0145222306
-0.0151778888
-0.0012487424
-0.0005024050
0.0036348260
-0.0136599376
-0.0227488086
-0.0178701538
0.0095086160
0.0331851693
0.0029794706
-0.0101464585
-0.0008840362
-0.0096419776
-0.0098456273
-0.0234639735
-0.0120877603
0.0042184968
-0.0054955371
-0.0130248189
0.0199752441
-0.0129095133
-0.0167284036
0.0046383476
-0.0155694470
-0.0269503635
-0.0239750960
-0.0199266565
0.0216155039
0.0397645465
-0.0076287787
-0.0171126239
0.0101898361
-0.0121823832
-0.0124017685
-0.0313931604
-0.0252576661
0.0180009636
-0.0061423712
-0.0081415626
0.0294618349
-0.0228765664
-0.0238264182
0.0084374940
-0.0249836267
-0.0114286264
-0.0096906242
-0.0152793007
-0.0000630316
0.0282357223
0.0082240103
0.0014532275
-0.0067853715
-0.0141125941
0.0005581281
-0.0204800885
-0.0100109999
0.0057926611
-0.0060072312
-0.0098815682
0.0170363345
-0.0062534012
-0.0160385001
0.0053898404
-0.0094327703
0.0112608974
-0.0051691603
-0.0082691625
-0.0130026728
0.0096799844
0.0166903969
0.0035991944
-0.0195741147
-0.0023546324
0.0015003484
-0.0045480704
0.0088146854
-0.0165564337
-0.0058530617
-0.0156729706
0.0024275681
0.0050823927
-0.0007872669
-0.0011835885
0.0074320177
0.0035078972
0.0025871967
-0.0059251787
0.0036387983
0.0036731234
-0.0034336757
-0.0108742004
-0.0027608654
0.0040509102
-0.0038506991
-0.0102707529
-0.0056393554
-0.0006916540
-0.0061178544
-0.0072856242
0.0113891340
-0.0100274744
-0.0009713281
0.0001509823
0.0056707731
0.0210870976
-0.0072685499
-0.0075829470
-0.0205168403
0.0055112454
0.0243490958
0.0046265722
-0.0273711072
0.0010520470
0.0003720255
0.0011978686
0.0186285345
-0.0289754647
-0.0066998734
-0.0212746793
-0.0043490576
0.0102974562
0.0044924919
-0.0043680961
0.0131547829
0.0094330135
-0.0042930051
-0.0058244091
-0.0168284471
0.0088771303
0.0199075253
0.0112186998
-0.0194501092
-0.0061460096
0.0055024879
0.0001889769
0.0119692441
-0.0147843010
-0.0033051136
-0.0117628826
-0.0030819810
0.0105240853
-0.0010651156
-0.0010039565
0.0054513804
0.0173378797
-0.0015104915
0.0052380976
-0.0019842413
-0.0152740981
-0.0002964089
-0.0067199498
-0.0041176983
0.0137349219
-0.0059730408
0.0113352379
0.0126053280
-0.0173946588
-0.0001209764
-0.0052162099
-0.0103711407
0.0037732908
0.0128484034
-0.0059985970
0.0106768502
0.0110805447
0.0048799979
-0.0028788931
-0.0098139265
-0.0004566446
0.0090383648
0.0016838318
-0.0132592012
0.0014905215
0.0024422416
-0.0016787680
0.0055372963
-0.0105641261
-0.0047726106
-0.0081172507
0.0011490313
0.0028937414
0.0024363312
-0.0009825217
0.0108909256
0.0090897214
0.0063840119
0.0039269290
0.0008164893
-0.0115644409
-0.0047910989
-0.0054355640
0.0002081846
0.0088125784
-0.0016492643
0.0042900065
0.0030136823
-0.0051560893
-0.0010278833
-0.0005291629
-0.0020693977
-0.0010261839
0.0072979483
-0.0026003976
0.0087105411
0.0114482186
0.0055017221
0.0054622100
0.0033470083
-0.0154991585
-0.0079978051
-0.0093289614
0.0021051106
0.0129254440
-0.0039658449
0.0070584923
0.0037699463
-0.0068690524
-0.0002763223
0.0002224597
-0.0035648000
-0.0026556069
0.0102371886
-0.0039136814
0.0100484272
0.0055375619
0.0015662265
-0.0004416968
0.0006498118
-0.0026206603
-0.0015078640
-0.0048820902
-0.0020429864
0.0045128098
-0.0019470650
-0.0012192113
0.0007096299
-0.0037115846
-0.0022808334
-0.0028661458
0.0018690504
-0.0026435053
0.0023547350
-0.0011733732
0.0046421021
0.0110193746
0.0030118269
0.0002940105
0.0017963293
-0.0077547834
-0.0035292331
-0.0109654914
-0.0030861493
0.0107651317
-0.0049511834
0.0002530004
0.0022543243
-0.0081455184
-0.0035313263
-0.0056329672
0.0016126394
-0.0046999767
0.0069928625
-0.0031199716
0.0093297918
0.0036313729
0.0062814078
0.0028704138
0.0056832513
-0.0081532053
-0.0078473952
-0.0064051850
0.0041804689
0.0063572499
-0.0011702709
0.0016130741
-0.0019397859
0.0018090540
-0.0005850374
0.0023957831
0.0013224512
-0.0041316375
0.0039740839
-0.0010307970
0.0053019570
0.0108257748
0.0084062259
0.0017251634
0.0017289069
-0.0111320103
-0.0058975171
-0.0099893961
-0.0021156647
0.0110504572
-0.0029747721
0.0002776303
0.0006999669
-0.0051088502
-0.0033707081
-0.0030765421
0.0024932982
-0.0048706069
0.0081938215
-0.0027103747
0.0117209346
0.0142998732
0.0068606294
0.0067081786
0.0072587125
-0.0191603670
-0.0131743827
-0.0154955926
0.0046025771
0.0178411397
-0.0070944403
0.0061382461
0.0022142071
-0.0071755904
-0.0014515105
-0.0003865794
-0.0016919744
-0.0064385194
0.0125801779
-0.0048810992
0.0122969477
0.0118316587
0.0033632588
0.0100233446
0.0107646716
-0.0232328303
-0.0157951223
-0.0144901638
0.0112243636
0.0186986490
-0.0086043454
0.0122079837
0.0049427326
-0.0063981383
0.0020504031
0.0043544203
-0.0074979936
-0.0033864067
0.0146248749
-0.0052095402
0.0082791158
-0.0004709423
0.0135624326
0.0016497646
0.0039294453
-0.0066479923
-0.0079422922
-0.0038453315
0.0043408162
0.0027899654
0.0031972284
-0.0032075733
-0.0073747193
0.0087477344
-0.0011986643
0.0054948273
0.0059665335
-0.0066370349
0.0013453319
0.0014497952
0.0058389488
0.0162654141
0.0087483696
0.0070711256
-0.0017194547
-0.0198910108
-0.0042376725
-0.0063721827
-0.0021418723
0.0137612538
-0.0022804773
0.0099323334
0.0081911375
-0.0112260144
-0.0003798838
-0.0009292694
-0.0069417921
0.0013425528
0.0130772509
-0.0049648046
0.0141724238
0.0084235153
0.0094934365
0.0055969743
-0.0028710044
-0.0130091934
-0.0018627462
0.0008694874
-0.0009615115
0.0056553315
0.0024493283
0.0074448884
0.0047679432
-0.0035944462
0.0006959340
0.0024104619
-0.0051038626
0.0025639835
0.0072671020
-0.0022335812
0.0091619703
0.0022567816
0.0219175383
0.0062882077
0.0002288369
-0.0142285169
-0.0077566365
0.0021965604
0.0044353358
0.0032760348
0.0072932335
0.0025586473
-0.0049125926
0.0087019229
-0.0001870442
0.0093254889
0.0012970025
-0.0024655676
0.0049809130
0.0007184889
0.0100526737
0.0130850349
0.0179610181
0.0059648842
-0.0084174555
-0.0164901053
0.0017792970
0.0047658251
-0.0067148519
0.0056631176
0.0072306118
0.0080107892
0.0063283116
-0.0053195337
-0.0012068283
0.0019045246
-0.0055157777
0.0049010187
0.0099631190
-0.0024840612
0.0163234982
0.0098729066
0.0145291839
0.0100666627
0.0001318740
-0.0217807340
-0.0078227720
-0.0006536017
0.0041833766
0.0097372858
0.0028079641
0.0121114051
0.0046225785
-0.0018866167
0.0028036749
0.0073668718
-0.0085520646
0.0024765826
0.0112263803
-0.0029027851
0.0115206909
0.0085349493
-0.0041129346
0.0111630606
-0.0122004544
-0.0130288592
0.0126765702
0.0164384378
-0.0036447472
-0.0013092989
0.0045129347
0.0242266917
0.0217094730
-0.0139301213
0.0087615205
0.0060108089
-0.0263001019
0.0220093397
0.0102137716
-0.0042360241
0.0015540547
0.0032905521
0.0221876620
0.0051139050
-0.0071227956
-0.0117420996
-0.0004807917
0.0091998642
-0.0019602288
-0.0016782005
0.0116087748
0.0034517162
-0.0010306572
0.0063074496
-0.0003978713
0.0081663236
-0.0009169072
0.0025498000
0.0031497154
0.0015659493
0.0115514967
0.0232560580
-0.0103102444
0.0155248600
-0.0052528207
-0.0271022086
0.0046074270
0.0013911088
-0.0007695662
0.0159449536
-0.0072716708
0.0327476794
0.0297965483
-0.0286171975
0.0086350743
0.0009342606
-0.0325685997
0.0194302962
0.0224532476
-0.0101323088
0.0077866565
0.0090446635
0.0220364138
0.0012126751
-0.0046695521
-0.0113075073
-0.0035743040
-0.0012355184
-0.0048597716
0.0053077550
0.0069782650
-0.0035384000
-0.0039468881
0.0021182257
-0.0045614035
0.0001828347
0.0071506568
-0.0051996125
0.0043192200
-0.0001077826
0.0160605892
0.0073375332
0.0016763330
0.0088807219
-0.0080575655
-0.0118465983
0.0064075956
0.0118135964
-0.0012250573
-0.0001349899
0.0054117220
0.0168477022
0.0134752643
-0.0078433598
0.0058141025
0.0061031391
-0.0173152735
0.0137776323
0.0077761604
-0.0026589915
0.0025904383
0.0091869295
0.0210453374
0.0051382949
0.0015950869
-0.0180483193
-0.0101356795
-0.0059742717
0.0023659183
0.0103795466
0.0033536833
0.0013187459
-0.0038453348
0.0028759621
-0.0031447800
0.0038574943
0.0037372056
-0.0060534696
0.0078755316
-0.0012192193
0.0149384811
0.0328822709
0.0184262359
0.0050017282
-0.0053803995
-0.0279039666
-0.0045975864
-0.0159204177
-0.0115571613
0.0265000771
-0.0045109020
0.0040032911
0.0084737349
-0.0223734822
-0.0087248887
-0.0113587897
0.0026314141
-0.0066080972
0.0203659457
-0.0082204657
0.0301230441
0.0148375931
0.0362536895
-0.0034311981
-0.0042244679
-0.0138008619
-0.0080245058
-0.0101448075
-0.0095706474
0.0118585194
0.0075125551
-0.0162659821
-0.0134122825
0.0041062446
-0.0135829191
-0.0047751763
0.0233563221
-0.0179440833
0.0048245073
0.0004383128
0.0273294621
0.0195857687
0.0235502711
0.0065613936
0.0146570170
-0.0306973759
-0.0270374348
-0.0291219179
0.0088105403
0.0297103567
-0.0086220949
-0.0025168026
-0.0087655908
-0.0019798429
-0.0075966789
-0.0005012646
0.0122122490
-0.0214621758
0.0169052789
-0.0051798743
0.0230612560
0.0329333563
0.0305027541
-0.0042070811
-0.0068287784
-0.0195165057
-0.0054407091
-0.0222725595
-0.0188580611
0.0257044167
-0.0014136323
-0.0144708765
-0.0043669107
-0.0161359517
-0.0177131727
-0.0179995392
0.0223972283
-0.0176249595
0.0141245200
-0.0053118529
0.0373219972
0.0226365646
0.0322422187
-0.0101282099
-0.0133920379
-0.0059872780
0.0030653969
-0.0090380875
-0.0228176535
0.0107941022
0.0077839416
-0.0207731076
-0.0073786078
-0.0077388152
-0.0175585151
-0.0171748722
0.0263448850
-0.0152261941
0.0042201235
-0.0007262255
0.0323633801
0.0074801659
0.0155046742
0.0073014784
0.0090887268
-0.0205353445
-0.0160903670
-0.0111808158
0.0093975748
0.0139076611
-0.0016177348
0.0039154730
-0.0039797454
0.0029382578
-0.0006544176
0.0062341899
0.0013425950
-0.0068703471
0.0094604987
-0.0013503566
0.0109670348
0.0021823386
0.0325770154
0.0020062398
0.0175152169
-0.0186070900
-0.0295734192
-0.0210590876
0.0146109327
0.0158733944
0.0007044200
-0.0134883176
-0.0220108532
0.0185844900
-0.0076482136
0.0072730663
0.0232990046
-0.0257200100
0.0041233510
0.0016861457
0.0156878880
0.0123975396
-0.0230255247
-0.0033315438
-0.0071553845
0.0047638719
0.0146026355
-0.0001474063
-0.0115641974
0.0039400423
-0.0088070492
0.0064377690
0.0179990165
-0.0260553310
0.0002415607
-0.0147013676
-0.0102995710
0.0104609880
0.0049981006
-0.0050650279
-0.0016501452
0.0027476410
-0.0112774279
0.0000485438
0.0040983677
-0.0009454629
-0.0010313357
-0.0057687476
0.0024344087
0.0046609058
-0.0069599834
0.0032382048
0.0051242462
-0.0078568876
0.0008921744
-0.0036903573
-0.0040337806
0.0011385352
0.0027127686
-0.0022038737
-0.0030438583
0.0057880844
-0.0182292253
0.0140260746
0.0560955085
-0.0334271910
-0.0582322344
-0.0593294869
0.0487741374
0.0456568909
-0.0396734047
0.0088999231
-0.0103484671
-0.0004805611
0.0043360861
0.0084491764
0.0007640582
-0.0304972646
0.0208003323
-0.0085558414
-0.0062856689
0.0082379568
-0.0174016184
-0.0055033739
-0.0134924217
0.0096761145
0.0205439985
0.0084551127
-0.0160516157
-0.0039017364
-0.0013255856
0.0029035960
0.0157937524
-0.0204844685
-0.0006861189
-0.0134722121
-0.0075661456
0.0123248687
0.0002243043
-0.0024668707
-0.0015795275
0.0136843152
-0.0443396094
-0.0000958972
0.0257218246
-0.0046160100
-0.0149654704
-0.0379631695
0.0130830219
0.0277178218
-0.0361850042
0.0076624680
0.0120008984
-0.0288565356
0.0017769952
-0.0156533778
-0.0077438911
-0.0088958645
0.0131784439
-0.0099928128
-0.0102373900
-0.0263134451
-0.0246455063
0.0148518268
0.0786997900
-0.0229723659
-0.0753708646
-0.0625005256
0.0764897648
0.0347668802
-0.0424273095
0.0024449964
-0.0310586739
0.0314760686
0.0111585961
0.0266701579
0.0084710750
-0.0407275938
0.0069150958
-0.0011273967
-0.0302133528
-0.0274439571
-0.0513140529
0.0035583544
0.0753585332
-0.0015822432
-0.0614229916
-0.0657282869
0.0655195244
0.0297226392
-0.0521259201
-0.0060490232
-0.0258553852
0.0177737077
0.0093047640
0.0106841491
0.0112302660
-0.0386197914
-0.0003505820
-0.0017942661
-0.0417035504
0.0066182930
-0.0864848535
0.0097432791
0.0523391956
-0.0104252385
-0.0313159634
-0.0588508643
0.0403023635
0.0411777067
-0.0642456362
0.0266477233
0.0215191535
-0.0373376585
0.0145328044
-0.0101900627
-0.0282960938
-0.0070341327
0.0208036661
-0.0154280302
-0.0353393232
-0.0165898284
-0.0732893586
-0.0133809478
0.0242901443
0.0344054719
0.0028259781
-0.0252421787
0.0119117513
-0.0005388054
-0.0360617588
-0.0059063886
0.0053044656
-0.0167397779
0.0056844683
-0.0181817440
-0.0021017635
-0.0030205690
-0.0111773226
-0.0019308938
-0.0409600275
0.0000703216
-0.0838656797
-0.0016938479
0.0502903520
0.0074128065
-0.0268651247
-0.0598535150
0.0329843415
0.0331075637
-0.0613232449
0.0085057800
0.0101200298
-0.0300933205
0.0081946410
-0.0170420743
-0.0096101347
-0.0157837532
0.0096912074
-0.0114080414
-0.0366790018
-0.0018055167
-0.0261076688
-0.0052528664
0.0088340362
0.0098943302
0.0000984870
-0.0126903835
0.0024725334
0.0035432526
-0.0149530848
-0.0023622843
0.0031304077
-0.0094567750
0.0004653861
-0.0091035612
0.0002872647
-0.0031111785
-0.0015034659
-0.0019265981
-0.0103713831
-0.0020043600
-0.0401624458
0.0029060135
0.0258144169
-0.0004394645
-0.0153214101
-0.0259253021
0.0205836882
0.0159158150
-0.0289407802
0.0090454240
0.0062645018
-0.0112505641
0.0067201772
-0.0028512613
-0.0102869128
-0.0047781485
0.0060464393
-0.0056066389
-0.0195165019
-0.0026457614
0.0062939094
0.0023638939
-0.0045679773
-0.0019443071
0.0029632239
0.0112156545
0.0005950817
-0.0058116725
0.0084224285
0.0031715824
0.0004387953
0.0051132381
0.0018497600
0.0056194712
-0.0032541176
0.0051982897
-0.0008311140
0.0020688515
0.0002269033
0.0029905060
-0.0149277667
0.0070083549
0.0244936086
-0.0142252925
-0.0237302882
-0.0248591051
0.0216662747
0.0200719032
-0.0193704027
0.0077168801
-0.0008219329
-0.0036816854
0.0037831932
0.0030792020
-0.0043059684
-0.0102952508
0.0101120393
-0.0043790553
-0.0055431948
-0.0084358344
0.0031757438
0.0023963447
0.0092030864
-0.0040278979
-0.0105762249
-0.0027880337
0.0116475121
0.0007211739
-0.0001995070
-0.0017166898
-0.0087866220
0.0126587387
0.0017280773
0.0084066742
0.0040862122
-0.0057854556
-0.0010385740
0.0020238478
-0.0042435492
-0.0093615202
0.0192797122
0.0131105509
0.0339636063
-0.0285400110
-0.0453471308
-0.0232498580
0.0378042412
0.0186821805
-0.0058982126
-0.0001853954
-0.0238299981
0.0289738759
0.0027446152
0.0235010625
0.0108594007
-0.0245226793
0.0071208768
0.0013230390
0.0000717907
-0.0318902917
0.0359495835
0.0131105948
0.0515270536
-0.0261746380
-0.0663325983
-0.0288759740
0.0583644854
0.0136235496
-0.0024369966
-0.0130650296
-0.0496522995
0.0623583771
0.0025738862
0.0390278874
0.0278943503
-0.0415432537
-0.0032889732
0.0089842696
-0.0076742922
-0.0392214896
0.0432949527
0.0191222228
0.0721118129
-0.0396591393
-0.0906928570
-0.0419016819
0.0806620918
0.0229632460
-0.0067955183
-0.0152499217
-0.0641854308
0.0792192697
0.0043559133
0.0520339461
0.0345307778
-0.0558011663
-0.0007502779
0.0098953323
-0.0099365078
-0.0472876500
0.0615332547
0.0167958710
0.0542206188
-0.0337952033
-0.0774088030
-0.0181187511
0.0692817481
0.0048519651
0.0130356034
-0.0208363534
-0.0682203825
0.0925360857
0.0031218072
0.0570508562
0.0383468202
-0.0477674050
-0.0103083098
0.0162605731
-0.0074813102
-0.0446941629
0.0428414249
0.0173818882
0.0849245649
-0.0377122112
-0.1047353826
-0.0557616701
0.0903218902
0.0278392360
-0.0138408869
-0.0235790697
-0.0748638151
0.0869209840
0.0023306202
0.0523935446
0.0444180744
-0.0677789475
-0.0034117930
0.0115452814
-0.0122867374
-0.0521310301
0.0538929625
0.0082888606
0.0561574843
-0.0190495597
-0.0745865982
-0.0230088728
0.0655740531
0.0009015795
0.0100471043
-0.0327002319
-0.0737830475
0.0924249299
-0.0009474122
0.0493720806
0.0487576868
-0.0536645449
-0.0174588026
0.0177028936
-0.0115538493
-0.0461968512
0.0043060565
0.0009723299
0.0610900701
-0.0019566519
-0.0626025681
-0.0387397172
0.0608509771
0.0070535699
-0.0166083911
-0.0259860403
-0.0549394263
0.0615901589
0.0016665892
0.0288818665
0.0370458494
-0.0472991293
-0.0161211137
0.0110203900
-0.0284270420
-0.0297479807
0.0217516567
0.0040885672
0.0360685765
-0.0104285810
-0.0433349013
-0.0180225524
0.0392064183
0.0029869678
-0.0002694651
-0.0178284379
-0.0403555483
0.0497150787
0.0000507092
0.0260874844
0.0268212346
-0.0314403648
-0.0093053442
0.0089572873
-0.0101173995
-0.0234555850
0.0102907967
-0.0026696499
0.0189070578
0.0030163601
-0.0207280087
-0.0087399468
0.0195193682
-0.0046583208
0.0012508437
-0.0179488880
-0.0273324557
0.0326425216
-0.0017052002
0.0127985657
0.0218633197
-0.0198869474
-0.0121786557
0.0076315904
-0.0095391080
-0.0115470655
0.0164721509
0.0076408528
0.0193149491
-0.0152660683
-0.0265454749
-0.0092862255
0.0236116936
0.0061388450
0.0006318166
-0.0022823724
-0.0183030795
0.0254151768
0.0022116760
0.0175279298
0.0084379989
-0.0143367552
0.0011075336
0.0031124634
-0.0015572977
-0.0306501191
-0.0205130955
-0.0077239727
0.0069889250
0.0250102187
0.0038935796
0.0088941374
0.0095578686
-0.0207779676
0.0004493004
-0.0109712333
-0.0122624002
0.0205863680
0.0042712153
0.0058839017
0.0069400321
0.0001233191
-0.0199866229
0.0080058882
-0.0279097767
-0.0153697820
0.0087866239
-0.0024322846
0.0168610803
0.0007863550
-0.0194992562
-0.0102343941
0.0163952594
-0.0001136577
-0.0001959156
-0.0140938355
-0.0221100092
0.0242670809
-0.0029433069
0.0085758985
0.0181894821
-0.0178302370
-0.0076789617
0.0054270446
-0.0048883366
-0.0026893605
0.0100216045
0.0024844889
0.0326049491
-0.0168085018
-0.0393101432
-0.0354821365
0.0262331693
0.0222961760
-0.0143083212
-0.0101938635
-0.0227255710
0.0173373327
-0.0047979073
0.0064863151
0.0187671125
-0.0304147064
0.0046202003
0.0003245539
0.0042086320
0.0498895865
-0.0342208523
-0.0074184852
0.0025942489
-0.0184395356
0.0023555971
-0.0518885146
-0.0249086905
0.0458893980
-0.0399437149
0.0041373515
0.0281470603
-0.0618666728
-0.0133621775
-0.0440623717
-0.0024790781
-0.0098335854
0.0265844027
-0.0174473476
0.0252132157
0.0070931317
0.0177131037
-0.0050948387
0.0233049444
-0.0132099472
-0.0327699624
-0.0386860853
0.0101493788
0.0241986808
-0.0118422989
-0.0202215056
-0.0235175030
0.0107982804
-0.0136986467
-0.0056896413
0.0304576933
-0.0348744488
0.0043171535
-0.0001002025
0.0178693039
0.0026157909
0.0375799342
0.0049447297
0.0440705644
-0.0321083379
-0.0627441466
-0.0508599129
0.0351081372
0.0360609214
-0.0122200467
-0.0177919944
-0.0379699563
0.0304270781
-0.0110375793
0.0115327274
0.0329952475
-0.0486905110
0.0100573102
0.0009069278
0.0208256353
0.0166547318
0.0397330044
0.0119367971
0.0311802999
-0.0448690679
-0.0526979994
-0.0422574470
0.0255800559
0.0406283358
-0.0086946940
-0.0028845660
-0.0216393166
0.0150670499
-0.0083075635
0.0100597828
0.0167639040
-0.0351067804
0.0210394416
-0.0039665603
0.0300978117
-0.0044624789
0.0177274144
-0.0014035108
0.0233104899
-0.0082068102
-0.0309756945
-0.0260587267
0.0174530693
0.0134776048
-0.0051473933
-0.0154693461
-0.0244524534
0.0217585718
-0.0073981192
