100,1,20,32,0.010000,0.010000,8192,Rectangle
0.0596877844
0.1190580863
-0.0418130147
0.1665194064
-0.0432803391
0.0797230336
-0.0248273905
0.0531381654
-0.0433041593
-0.0145243184
0.0136524721
-0.0111253601
-0.0295815109
0.0396023435
0.0109674508
0.0169614979
-0.0851478929
-0.0177146540
0.0482104705
0.0709967275
0.0009870173
0.0004911867
0.0006945876
-0.0013336089
-0.0000873338
0.0011046548
-0.0006246437
0.0000740726
0.0017387180
0.0000021225
0.0013952169
0.0000199685
0.0003220108
0.0009535936
0.0011472192
0.0001580356
-0.0006337793
-0.0006957152
-0.0000952312
-0.0000268828
0.0009179401
0.0004996185
0.0006264456
-0.0017985670
0.0005214703
0.0011688567
-0.0006680512
-0.0002001584
0.0013501316
-0.0000424996
0.0011532226
-0.0003318605
0.0001492542
0.0007942246
0.0013784638
0.0004691493
-0.0005026119
-0.0007595701
0.0006203557
0.0000113942
0.0007598682
0.0007839137
0.0006767018
-0.0016298837
-0.0001815006
0.0011881807
-0.0006081795
-0.0002259120
0.0014839712
-0.0000247989
0.0013958793
-0.0001338336
0.0001599445
0.0007614671
0.0018139664
0.0000992452
-0.0008388282
-0.0004529725
-0.0001317022
0.0019742658
0.0006062517
0.0006587975
0.0004634207
-0.0015743138
-0.0001846918
0.0010610355
-0.0004055364
-0.0000779403
0.0014250995
-0.0000528622
0.0011936772
-0.0005016373
0.0010957329
0.0007582524
0.0016182381
0.0002347511
-0.0007980508
-0.0008970214
-0.0001874954
-0.0001167564
0.0005342229
0.0007213606
0.0006503718
-0.0016376321
0.0006804031
0.0013107892
0.0000065563
-0.0001124566
0.0015558732
0.0004308218
0.0011749640
-0.0005081568
0.0001990263
0.0009729464
0.0014068679
0.0001720427
-0.0001361519
-0.0007768201
0.0005054792
-0.0001056972
0.0004238901
0.0008187493
0.0004875736
-0.0006119890
0.0003394539
0.0011154487
-0.0004718023
-0.0001567663
0.0016893840
0.0005158132
0.0016089325
-0.0001409259
0.0003091471
0.0016653056
0.0011417438
0.0003353547
-0.0008026119
-0.0007930457
0.0002401230
0.0003220710
0.0007344061
0.0005275290
0.0005311977
-0.0017563346
-0.0002309020
0.0010661287
-0.0004555514
0.0002025625
0.0016319380
-0.0001046147
0.0013885391
-0.0004859835
0.0001720428
0.0015504212
0.0014534910
0.0004741294
-0.0003631149
-0.0009301772
0.0004847108
0.0003928731
0.0009226427
0.0004932472
0.0007507513
-0.0010423806
-0.0000925694
0.0016275576
-0.0003981126
0.0001100406
0.0015526775
-0.0000214220
0.0011337392
-0.0005248995
0.0008745293
0.0009973163
0.0015875767
0.0005754813
-0.0008640806
-0.0005516437
0.0009180769
-0.0001007000
0.0005540575
0.0012383770
0.0005824418
-0.0018192091
0.0000597643
0.0011439486
-0.0004679275
-0.0001845236
0.0016461651
-0.0001665094
0.0023200679
-0.0005190024
0.0004782405
0.0008432869
0.0012252792
0.0005839299
-0.0004574430
-0.0002976455
-0.0001702448
0.0006371652
0.0004962808
0.0015751554
0.0005657608
-0.0017800726
-0.0001422258
0.0014909424
-0.0005042186
0.0002197131
0.0013597020
0.0000887619
0.0013449438
-0.0004500089
0.0005362838
0.0008719369
0.0013776405
0.0001453150
-0.0003889322
-0.0009352703
-0.0001057935
0.0002618582
0.0005040766
0.0007163962
0.0005285499
-0.0015595442
-0.0002612330
0.0011471773
-0.0005994968
0.0000386902
0.0019566843
0.0000363017
0.0011877580
-0.0003593478
0.0005017603
0.0008458164
0.0012187401
0.0002521828
-0.0005214660
-0.0008761979
0.0000171197
0.0001893757
0.0006254013
0.0015759291
0.0004711269
-0.0018019811
-0.0001783592
0.0013418747
-0.0005530384
0.0001092929
0.0015770241
-0.0001497479
0.0012646263
-0.0005195247
0.0001864443
0.0008448218
0.0014079414
0.0003256484
-0.0008741715
-0.0001368004
0.0000562766
-0.0001496773
0.0003998025
0.0005186524
0.0007169959
-0.0017312777
0.0001311413
0.0010433264
-0.0006183389
0.0000962222
0.0015793582
-0.0001622240
0.0012118184
-0.0005316005
0.0002396856
0.0009116196
0.0011400839
0.0003186508
-0.0007579687
-0.0009093072
-0.0000080482
-0.0000283605
0.0007574368
0.0005298787
0.0006485485
-0.0012255025
-0.0001117429
0.0013291361
0.0000414563
0.0000074878
0.0015323395
-0.0000351568
0.0014087617
-0.0004481111
0.0003337740
0.0008798161
0.0012328283
0.0002322328
-0.0002118960
-0.0004526341
-0.0000603919
0.0000655053
0.0008887939
0.0004998894
0.0005214871
-0.0007747929
0.0001214032
0.0011438765
-0.0003877760
-0.0001614394
0.0015174827
0.0002083016
0.0011889883
-0.0000098467
0.0008759500
0.0010402964
0.0013296623
0.0012854837
-0.0008293175
-0.0008772717
0.0001668687
0.0001214146
0.0007299729
0.0006656696
0.0005847804
-0.0014591630
-0.0001932134
0.0011625805
-0.0005342275
-0.0000251476
0.0016882888
0.0000253049
0.0012111399
-0.0000780063
0.0002531633
0.0008784372
0.0020153574
0.0001655631
-0.0006895962
-0.0007348829
-0.0001860629
0.0006859346
0.0005496295
0.0008023138
0.0007530407
-0.0006326154
-0.0001987191
0.0011533284
-0.0005703635
0.0005880366
0.0014502002
0.0001004707
0.0020746171
-0.0003589002
0.0007957117
0.0007600060
0.0011433880
0.0006555267
-0.0007706661
-0.0007254899
0.0005528527
0.0003646214
0.0004285777
0.0005488296
0.0005927048
-0.0015676623
-0.0000920881
0.0011481787
-0.0005697015
-0.0000720707
0.0014539302
-0.0001589135
0.0011969728
-0.0004831866
0.0001909746
0.0008665509
0.0012115092
0.0004110789
-0.0008705819
-0.0008523858
-0.0000838032
0.0002265525
0.0008288242
0.0006536775
0.0004728119
-0.0015029607
0.0002326601
0.0022300497
-0.0006395615
0.0000114891
0.0015638390
0.0006331344
0.0011385687
-0.0004503574
0.0001903502
0.0008106358
0.0017273067
0.0006116678
-0.0008599212
-0.0008629281
-0.0000596599
0.0000739450
0.0004621741
0.0007764923
0.0006865443
-0.0016683695
0.0001689825
0.0010957658
-0.0004413140
-0.0001052724
0.0014703080
0.0001610153
0.0011850390
-0.0004876585
0.0009529615
0.0008017141
0.0012031436
0.0003100878
-0.0003570055
-0.0007723390
-0.0001351361
0.0002197037
0.0005557195
0.0005613798
0.0006040627
-0.0017726825
-0.0002393402
0.0010545940
-0.0002325755
0.0004504447
0.0014256452
-0.0001357718
0.0014872155
-0.0003397327
0.0003747291
0.0009553564
0.0013250872
0.0003291622
-0.0005974758
-0.0008414041
0.0001636230
-0.0001436326
0.0005301561
0.0005219404
0.0004511099
-0.0010631330
-0.0001192646
0.0011033384
-0.0005903456
-0.0000663965
0.0012964066
-0.0000898636
0.0015137935
-0.0003044216
0.0007451564
0.0008586648
0.0016681915
0.0002050517
-0.0008032282
-0.0009290579
0.0000210443
0.0002389159
0.0004107086
0.0005034503
0.0012614583
-0.0014045846
-0.0000104727
0.0013605207
-0.0004678489
0.0002360870
0.0020419287
0.0005618372
0.0011513814
-0.0002613784
0.0001748306
0.0007642000
0.0011440594
0.0002172012
-0.0008576391
-0.0005121338
-0.0001302860
0.0002677613
0.0004432737
0.0006401562
0.0009015540
-0.0017099978
-0.0001131521
0.0012437714
-0.0005856755
-0.0000614235
0.0013498624
-0.0000495992
0.0014303886
-0.0003267328
0.0001484638
0.0009729240
0.0011485535
0.0001332170
-0.0007549155
-0.0005266420
-0.0000165062
0.0002711351
0.0005543812
0.0005011569
0.0007216619
-0.0016168094
0.0002726503
0.0010965933
-0.0005524661
-0.0000179608
0.0021246905
0.0001058914
0.0011493597
-0.0003313409
0.0004261133
0.0007673731
0.0013265296
0.0005330283
-0.0004094654
-0.0005225287
-0.0001016791
0.0001286785
0.0009370509
0.0006443296
0.0004514178
-0.0016385115
-0.0000911949
0.0010839549
-0.0005050500
-0.0001922674
0.0013311733
-0.0000916806
0.0011676961
-0.0003796627
0.0003823568
0.0010766998
0.0012173081
0.0001316872
-0.0008379439
-0.0005331829
0.0000042918
-0.0000860551
0.0004470002
0.0005388513
0.0008681724
-0.0016608712
0.0004017865
0.0016463264
-0.0004605887
0.0000873695
0.0013235660
0.0000874581
0.0015837360
-0.0004537815
0.0003115299
0.0010698955
0.0014605507
0.0001849628
-0.0008045856
-0.0009422712
0.0001619933
0.0000611160
0.0005857908
0.0007419846
0.0006443878
-0.0017719046
-0.0001906572
0.0015189545
-0.0005313366
0.0003318452
0.0015650214
0.0000045636
0.0011754099
-0.0000268692
0.0004357013
0.0007799350
0.0013818799
0.0003044352
-0.0006796501
-0.0004731245
0.0001442737
-0.0000896857
0.0005143512
0.0007139967
0.0004959906
-0.0015652152
-0.0002417677
0.0010962931
-0.0006114232
-0.0001171197
0.0016341092
0.0001954754
0.0014242150
-0.0003671231
0.0002827027
0.0008722752
0.0012833020
0.0002773542
-0.0006986197
0.0001461484
0.0000907067
-0.0000340473
0.0010409466
0.0006681418
0.0005191095
-0.0015750991
-0.0000632011
0.0011271160
-0.0002302780
-0.0001791733
0.0014458901
0.0001272018
0.0015644234
-0.0004439926
0.0006161478
0.0010628728
0.0011379686
0.0004687637
-0.0000162349
-0.0005274028
-0.0000628832
0.0000656562
0.0007851910
0.0007087768
0.0004593418
-0.0016983768
-0.0000844798
0.0012954101
-0.0006024870
-0.0000644790
0.0013793216
0.0000478976
0.0011873934
-0.0004467145
0.0001913340
0.0010890349
0.0011785511
0.0002243885
-0.0007806544
-0.0008874965
0.0001965228
0.0002695336
0.0005886786
0.0006535616
0.0005062752
-0.0016138174
-0.0002602260
0.0010897865
-0.0005253815
-0.0001989254
0.0016082933
0.0004741252
0.0012028624
-0.0002182522
0.0006575354
0.0008830635
0.0012409293
0.0004088870
-0.0005972775
-0.0008335936
0.0006516981
-0.0001458233
0.0006289608
0.0006800684
0.0008065585
-0.0017897177
0.0004587383
0.0011865991
-0.0003981001
-0.0002294445
0.0012952119
-0.0001438974
0.0011305589
-0.0004723785
0.0002225184
0.0008418938
0.0014462563
0.0002455745
-0.0008037112
-0.0008083136
-0.0001959294
0.0000405430
0.0005231792
0.0005481787
0.0017512659
-0.0017336666
-0.0002792232
0.0010839881
-0.0002645374
0.0000836311
0.0018942385
-0.0000039771
0.0011210490
-0.0001359090
0.0002554594
0.0022016879
0.0014485018
0.0004989718
-0.0007465430
-0.0006934520
0.0004952062
-0.0001208951
0.0007900202
0.0004926914
0.0006859178
-0.0017318215
-0.0001173823
0.0011034262
-0.0001304866
0.0002816615
0.0013058201
0.0001701960
0.0012799024
-0.0005254034
0.0001993147
0.0007460492
0.0013989507
0.0005997478
-0.0007729494
-0.0007353831
-0.0001775281
0.0000243115
0.0004616665
0.0006548500
0.0005292788
-0.0011785524
-0.0000601617
0.0013112985
0.0000069475
0.0000212769
0.0013335886
0.0002057585
0.0014720781
-0.0001469213
0.0001702425
0.0014138654
0.0012935599
0.0001482346
-0.0005068115
-0.0007121175
0.0005485928
-0.0000596066
0.0005213247
0.0010919800
0.0004514800
-0.0014779723
0.0000405946
0.0010864651
-0.0001708663
-0.0002114805
0.0014936379
0.0003710307
0.0011685489
-0.0001171275
0.0001713831
0.0008822977
0.0016014110
0.0002449940
-0.0004335525
-0.0008414147
0.0000804000
0.0000431146
0.0004372032
0.0013732987
0.0006475652
-0.0017803418
-0.0000383041
0.0010310974
-0.0004518059
-0.0000257681
0.0015674997
-0.0001063172
0.0011464366
-0.0005322526
0.0003661453
0.0013620996
0.0016763523
0.0001097923
-0.0008766013
-0.0005386708
-0.0001813882
-0.0000779242
0.0004581645
0.0005104004
0.0010156590
-0.0011876674
0.0000582730
0.0011466135
-0.0005758769
-0.0001209812
0.0016126048
0.0000003136
0.0013505094
-0.0004906510
0.0005387138
0.0009133873
0.0012318635
0.0006025166
-0.0007206307
-0.0009292961
0.0002697321
-0.0001362338
0.0004870253
0.0006324279
0.0006834295
-0.0018263119
-0.0002588950
0.0012952597
-0.0005781899
-0.0001478634
0.0014952864
0.0002858708
0.0012078165
-0.0004638505
0.0005837503
0.0012206695
0.0012961746
0.0001449881
-0.0005286090
-0.0001505029
0.0001523069
0.0002398918
0.0005027525
0.0006681457
0.0009652828
-0.0018350155
-0.0002234633
0.0010565921
-0.0002255215
-0.0001066365
0.0016203588
0.0001197414
0.0012064615
-0.0004853679
0.0002446574
0.0011065085
0.0011559909
0.0001207685
-0.0008119148
-0.0007056381
-0.0001758031
0.0001293423
0.0004065131
0.0007452571
0.0008487850
-0.0017443088
-0.0000538374
0.0016730783
-0.0001455935
-0.0000804560
0.0013508007
0.0001026172
0.0011558120
-0.0005161198
0.0001918083
0.0008690631
0.0013662774
0.0001917975
-0.0007926611
-0.0009115622
-0.0001516057
0.0001455387
0.0007805758
0.0007000602
0.0009700724
-0.0017109636
0.0003735048
0.0014609467
-0.0001701137
-0.0001787621
0.0013125301
0.0000276573
0.0011647260
-0.0005277624
0.0003506867
0.0010618280
0.0016870197
0.0006962374
-0.0004138125
-0.0008577118
-0.0001476094
-0.0001113484
0.0005655360
0.0010116273
0.0010535818
-0.0012770836
-0.0002439050
0.0010688519
-0.0006426548
-0.0001318771
0.0016014413
0.0000811954
0.0013310850
-0.0000629825
0.0001548608
0.0007817051
0.0011887056
0.0000997202
-0.0005849453
-0.0009007422
-0.0001085019
-0.0000569805
0.0003893991
0.0006257234
0.0006676952
-0.0017444396
-0.0002687633
0.0010369226
-0.0005071404
0.0000386541
0.0013638831
-0.0001066892
0.0017087443
-0.0005335397
0.0003808210
0.0008661279
0.0017104706
0.0001501412
-0.0008744042
-0.0008341702
-0.0001462307
0.0002066737
0.0006121006
0.0005727128
0.0006543727
-0.0016501650
0.0007666777
0.0016739674
-0.0006175443
-0.0000612988
0.0013027585
0.0001899271
0.0012531790
-0.0003896498
0.0009475957
0.0008288083
0.0012047881
0.0003147619
-0.0005400022
-0.0006892417
0.0000328566
-0.0000454430
0.0004208034
0.0006150958
0.0010245997
-0.0013236369
-0.0000432547
0.0013909438
-0.0002435149
-0.0000624545
0.0020763869
0.0003504735
0.0014069649
-0.0004957816
0.0002776286
0.0007607723
0.0013999248
0.0004724154
-0.0008541744
-0.0007591906
0.0000172850
0.0000531663
0.0005469830
0.0008511390
0.0005225283
-0.0015880343
-0.0001390766
0.0010274295
-0.0005098689
-0.0000636587
0.0016643356
-0.0000255353
0.0014156208
-0.0004186485
0.0004072848
0.0014802793
0.0011614326
0.0002031342
-0.0004964111
-0.0007924714
-0.0000241763
-0.0000863654
0.0004688119
0.0005419875
0.0004541868
-0.0018341655
-0.0001123316
0.0012301305
-0.0002370057
-0.0000602970
0.0013694648
0.0001143695
0.0011246892
-0.0002790719
0.0002543295
0.0007769997
0.0013439590
0.0005047802
-0.0002460732
-0.0004224067
0.0003780325
0.0001423135
0.0007203527
0.0007791504
0.0004611539
-0.0015611273
0.0015442186
0.0014560493
-0.0005085255
-0.0002097847
0.0014178816
0.0000731736
0.0012344751
-0.0004587482
0.0003548527
0.0008641350
0.0013951129
0.0006818116
-0.0003653126
-0.0004250467
-0.0001152978
-0.0001371453
0.0006731137
0.0008536970
0.0005670513
-0.0016940572
-0.0001475814
0.0011780806
-0.0006442792
-0.0001322871
0.0013344476
0.0000623306
0.0011721831
-0.0002890350
0.0007050151
0.0013386720
0.0015295750
0.0001198518
-0.0005089696
-0.0007557357
0.0000404342
-0.0001194870
0.0006135802
0.0010436785
0.0004473621
-0.0017001643
-0.0001716215
0.0010386723
-0.0005703361
0.0010310179
0.0019871534
0.0011393619
0.0013200763
-0.0005462165
0.0001534868
0.0008048012
0.0011449863
0.0002842141
-0.0008077113
-0.0009266901
-0.0000634527
0.0000807112
0.0004174834
0.0007525148
0.0006186007
-0.0018182772
-0.0001753731
0.0012101839
-0.0006300231
-0.0000992783
0.0020565693
-0.0001440430
0.0014568777
-0.0004677337
0.0002638477
0.0012219981
0.0013967240
0.0001173257
-0.0007396243
-0.0009269212
0.0008110210
0.0002626740
0.0009852509
0.0005117682
0.0011325996
-0.0015266609
-0.0000758979
0.0012886779
-0.0004347244
-0.0000974415
0.0014114313
-0.0000747013
0.0017626991
-0.0005552816
0.0001982472
0.0007722421
0.0012725429
0.0001781565
-0.0000894937
-0.0009181143
-0.0001477383
0.0002564943
0.0005357706
0.0006948283
0.0006818094
-0.0017704799
0.0001872686
0.0011759624
-0.0006387055
-0.0002001216
0.0021373040
0.0000382111
0.0011355608
0.0002423384
0.0009525445
0.0009764844
0.0011365521
0.0003309525
-0.0008213942
-0.0009239082
-0.0001859463
-0.0000483433
0.0006602426
0.0008058287
0.0005620906
-0.0017969638
-0.0002914038
0.0016716868
-0.0006480464
-0.0001378290
0.0013704917
0.0005584741
0.0027010959
-0.0003155102
0.0004183780
0.0008849448
0.0023251142
0.0001637878
0.0000386547
-0.0006670893
-0.0001938938
-0.0000728220
0.0006082195
0.0009495775
0.0005099611
-0.0016471927
-0.0001053990
0.0010232856
-0.0005394398
-0.0001923357
0.0023200068
0.0000787068
0.0014543185
-0.0004827853
0.0006857199
0.0008777159
0.0012656949
0.0001308497
-0.0005185866
-0.0009501907
-0.0001240988
0.0000553170
0.0010127041
0.0006065109
0.0004505283
-0.0017720701
-0.0001722830
0.0014767144
-0.0005900075
-0.0002052964
0.0015510826
-0.0001653410
0.0012483984
-0.0003131670
0.0001619935
0.0008743755
0.0012660833
0.0008896633
-0.0005712163
-0.0008546247
-0.0001303977
-0.0000072339
0.0005999803
0.0007191956
0.0005215945
-0.0005026991
-0.0000340786
0.0012708508
-0.0004561193
-0.0002079530
0.0019063919
0.0008197918
0.0019849257
-0.0004501516
0.0006034564
0.0010187266
0.0011380835
0.0003740073
-0.0003943432
-0.0009136796
0.0002225980
-0.0000970048
0.0009405994
0.0008837303
0.0006320996
-0.0015968022
-0.0001633236
0.0011916591
-0.0002339533
0.0003010112
0.0020022418
0.0000877263
0.0014990955
-0.0005566685
0.0001566169
0.0008561005
0.0014228925
0.0002466521
-0.0008089912
-0.0006756303
-0.0002053448
-0.0001325560
0.0006733544
0.0004854337
0.0007359470
-0.0015205948
0.0007532794
0.0013208005
-0.0004129405
-0.0002233423
0.0016928397
-0.0001567570
0.0011376663
-0.0001761569
0.0003934442
0.0008352504
0.0012086742
0.0002295866
-0.0007425638
-0.0008537598
0.0001563835
-0.0000608597
0.0004933566
0.0004908064
0.0004392330
-0.0016890916
-0.0002266302
0.0010870882
-0.0006059769
0.0000612864
0.0013786184
-0.0001647059
0.0011366904
-0.0004223866
0.0004352507
0.0008135783
0.0016902716
0.0005214865
-0.0008128818
-0.0004490036
0.0001204023
0.0002005113
0.0004707587
0.0005129409
0.0005809029
-0.0017966039
-0.0002175616
0.0010424864
-0.0005804174
-0.0002213646
0.0015864767
-0.0000246965
0.0015934295
-0.0005584466
0.0001838961
0.0009979784
0.0013405201
0.0001635825
-0.0000623590
0.0014011814
0.0010244811
0.0002725969
0.0005384693
0.0007801392
0.0004557592
-0.0017469647
0.0006024282
0.0010255845
-0.0005542458
-0.0001049572
0.0015781276
0.0001899053
0.0017773278
0.0002718868
0.0002725785
0.0008592338
0.0013760156
0.0003559054
-0.0005430324
-0.0000588845
0.0000442338
0.0000047184
0.0009385524
0.0006665842
0.0005084196
-0.0016947405
-0.0000774674
0.0011585411
-0.0002440174
-0.0001090330
0.0018684530
0.0004927466
0.0013419236
-0.0002363346
0.0001437306
0.0008692344
0.0016984936
0.0004005836
-0.0008279633
-0.0009170616
-0.0001014108
0.0000669836
0.0012339012
0.0006583325
0.0004567479
-0.0005837117
0.0004056355
0.0011543025
-0.0002060023
-0.0001699581
0.0015127800
-0.0000772674
0.0014848531
-0.0005531342
0.0005910700
0.0012749924
0.0012282645
0.0002761423
-0.0006772186
-0.0008073021
0.0002741120
-0.0000666378
0.0004478448
0.0004860770
0.0005558034
-0.0017967058
-0.0001600645
0.0013374303
-0.0005223934
-0.0000887818
0.0013824387
-0.0000593969
0.0013599754
0.0000946708
0.0010639964
0.0007577995
0.0011977181
0.0003899367
-0.0008148984
-0.0006282545
-0.0000597420
0.0000706588
0.0006371294
0.0007290198
0.0007438972
-0.0018142524
-0.0002074227
0.0010636229
-0.0006086323
0.0001424967
0.0013985541
-0.0000447205
0.0011445906
-0.0005369047
0.0002926308
0.0008066957
0.0012246312
0.0000834858
-0.0006864060
-0.0007730011
0.0000654060
-0.0000139320
0.0003791674
0.0005380460
0.0005002535
-0.0017185456
-0.0002179800
0.0016470832
-0.0004961457
0.0001889937
0.0014252504
-0.0001208579
0.0012325516
-0.0004951023
0.0002201207
0.0011632550
0.0015224982
0.0002543930
-0.0005587349
-0.0005274905
-0.0001984097
-0.0001209853
0.0005461382
0.0006926635
0.0005224300
-0.0016650116
-0.0000434747
0.0010317990
-0.0005836914
0.0000787102
0.0014246707
-0.0000182432
0.0012338053
-0.0004472001
0.0003569759
0.0008256625
0.0012463027
0.0000896936
-0.0008033047
-0.0007099939
-0.0001810208
0.0002998419
0.0008478948
0.0008156889
0.0011252544
-0.0017884393
-0.0001047578
0.0014229259
-0.0005014498
-0.0002074945
0.0013407369
-0.0000204771
0.0015022146
0.0004446904
0.0007261514
0.0015124014
0.0012995557
0.0003512676
-0.0006465237
-0.0005105887
-0.0000270682
-0.0000504270
0.0005092115
0.0006599172
0.0006026969
-0.0018618115
0.0000853731
0.0011177039
-0.0001447754
-0.0002126454
0.0017262495
-0.0001146761
0.0011838437
-0.0003373145
0.0001900877
0.0011921592
0.0011905453
0.0001098533
-0.0006604251
-0.0005953455
-0.0002014433
0.0003468760
0.0009978043
0.0011508489
0.0004919817
-0.0015718874
-0.0001118749
0.0012566380
0.0002355986
0.0003248822
0.0015804236
-0.0001582518
0.0011656424
-0.0004034043
0.0005915234
0.0011603703
0.0013157376
0.0001646599
-0.0008430284
-0.0004902152
-0.0001155658
0.0002828750
0.0005875324
0.0011895698
0.0005993777
-0.0014593103
0.0003099351
0.0017812660
-0.0003523033
-0.0001968151
0.0013480267
0.0001220726
0.0011361399
-0.0004107631
0.0002221417
0.0009075751
0.0017595967
0.0000853852
-0.0001444046
-0.0006266086
-0.0000553282
0.0000595524
0.0007489049
0.0005346653
0.0012115841
-0.0012198401
-0.0001697164
0.0011955007
-0.0003970211
0.0003574143
0.0018638734
-0.0000973808
0.0011903157
-0.0003823621
0.0001430827
0.0011797724
0.0015351217
0.0002962274
-0.0008592734
-0.0009846597
0.0004341236
-0.0000994562
0.0005202624
0.0007587767
0.0007299757
-0.0015448317
-0.0002117613
0.0011073400
-0.0004068772
-0.0002335626
0.0014647997
0.0001534627
0.0015664276
-0.0005658233
0.0006018172
0.0009793074
0.0012143333
0.0001386128
-0.0008103192
-0.0007951712
-0.0001502886
0.0000498620
0.0004885813
0.0008346495
0.0006008671
-0.0015030228
-0.0003553880
0.0012949712
-0.0004009473
-0.0001800985
0.0016962770
-0.0000854994
0.0010491383
0.0000939027
0.0005809671
0.0007771138
0.0014965296
0.0003912747
-0.0008013022
-0.0007554193
-0.0000560172
0.0001288019
0.0008032246
0.0009390049
0.0012060093
-0.0016483121
-0.0004511161
0.0011795132
-0.0004175653
0.0000208259
0.0014554667
-0.0000017228
0.0011222997
-0.0002875779
0.0004569627
0.0008447028
0.0014386421
0.0000397319
-0.0008439541
-0.0009171774
-0.0002751672
0.0002760800
0.0008623155
0.0005291799
0.0014202216
-0.0013320933
-0.0001756053
0.0016746298
-0.0003589659
-0.0001101739
0.0014923248
-0.0000255895
0.0011554187
-0.0005068614
0.0013403910
0.0009643384
0.0016459562
0.0003248596
-0.0008109191
-0.0008449765
-0.0003924383
0.0000397775
0.0004486020
0.0007639302
0.0006566959
-0.0019181445
-0.0003356984
0.0014319514
-0.0003695981
-0.0001343823
0.0017196093
-0.0001273349
0.0013796030
-0.0003598326
0.0001380470
0.0008712930
0.0014949321
0.0000595246
-0.0008662993
-0.0009354151
-0.0002423513
0.0000949388
0.0004798770
0.0006874213
0.0007052666
-0.0019024891
-0.0001673533
0.0014607702
-0.0005978843
0.0003335244
0.0014196847
0.0001610796
0.0012238651
-0.0003873676
0.0001714413
0.0008313324
0.0016666955
0.0006161972
-0.0007114266
-0.0009530522
-0.0001615974
0.0010992786
0.0005286214
0.0005465675
0.0006496853
-0.0018206823
-0.0000716841
0.0009648914
-0.0003737309
-0.0002365205
0.0017196468
0.0004430698
0.0012305015
-0.0004212304
0.0001612870
0.0011397020
0.0016267392
0.0006700740
-0.0008137211
-0.0004964292
-0.0001205543
-0.0000907858
0.0014746686
0.0005978936
0.0007635774
-0.0007673204
0.0000631224
0.0011429723
-0.0000184039
0.0000763390
0.0015189128
0.0002140011
0.0014566642
-0.0005117664
0.0002736536
0.0011458655
0.0011974358
0.0000401530
-0.0007310881
-0.0007073016
-0.0001099255
0.0000062784
0.0012243395
0.0006720042
0.0006776777
-0.0017519135
0.0002048167
0.0012124708
-0.0005815339
0.0000232166
0.0014362324
0.0000382747
0.0015243909
-0.0001838678
0.0004788321
0.0008695567
0.0012558155
0.0003353109
-0.0007868967
-0.0006650337
-0.0000940270
-0.0000855479
0.0004476268
0.0007728720
0.0007802994
-0.0017202907
-0.0003550649
0.0009024619
-0.0004536117
-0.0001936126
0.0013893168
0.0005319174
0.0010279112
-0.0000646471
0.0008164775
0.0011479727
0.0014763091
0.0000468503
-0.0003827858
-0.0006153761
-0.0000260583
0.0000424938
0.0004399661
0.0006167701
0.0005137567
-0.0014629119
-0.0000871860
0.0011409728
-0.0006542871
-0.0001672355
0.0013515527
-0.0000195442
0.0010887381
-0.0004281041
0.0003662941
0.0012671741
0.0011127160
0.0003422520
-0.0008096837
0.0004154457
-0.0002004598
-0.0000423572
0.0004655940
0.0006811797
0.0006161482
-0.0019357908
0.0000148628
0.0010716316
-0.0002946436
0.0002061300
0.0016934405
-0.0001869855
0.0011676057
-0.0005093867
0.0001735508
0.0009515255
0.0011385683
0.0003231746
-0.0007796654
-0.0008421250
0.0001377431
0.0009910864
0.0003435855
0.0005958299
0.0005323584
-0.0017374691
0.0004763271
0.0010881022
-0.0005263809
-0.0001511888
0.0025924897
-0.0000732918
0.0012547731
-0.0005110370
0.0017148467
0.0011258779
0.0012751912
0.0003658493
-0.0004496975
-0.0007309094
0.0005501566
-0.0002278808
0.0009037318
0.0007717109
0.0005269497
-0.0016806864
0.0001356967
0.0014881739
-0.0004740371
0.0000075778
0.0015635322
0.0002477777
0.0010756593
-0.0000209481
0.0003935625
0.0007184597
0.0016807031
0.0002191863
-0.0003038155
-0.0007632324
-0.0001898836
0.0001952330
0.0003842069
0.0002852627
0.0004677488
-0.0017869312
-0.0000596866
0.0011173157
-0.0005618648
-0.0002611724
0.0012965357
-0.0000637085
0.0010059894
-0.0004927397
0.0001470167
0.0013283895
0.0013369491
0.0000317408
-0.0005599293
0.0011031344
-0.0003258583
0.0005905172
0.0003029215
0.0005089660
0.0008603975
-0.0015616858
0.0011561557
0.0011535125
-0.0004488855
0.0004029198
0.0013926381
0.0005980370
0.0009482549
-0.0002282754
0.0000352423
0.0006093827
0.0011539467
0.0000302697
-0.0005350854
-0.0006771228
-0.0001169314
0.0000122083
0.0002381098
0.0000304827
0.0010260209
-0.0015791775
-0.0001459222
0.0007661213
0.0001895528
0.0000156840
0.0017127993
0.0002038046
0.0004781478
-0.0002823790
0.0000833059
0.0004751442
0.0010120084
0.0010156513
0.0001811277
-0.0004396648
-0.0004391129
0.0000982475
0.0002972096
0.0000023471
0.0007877735
-0.0020351564
0.0000036951
0.0009780855
-0.0001329088
0.0001905071
0.0020487741
0.0000519777
0.0010963115
-0.0004787977
0.0001558452
0.0008144936
0.0011622133
-0.0001220878
-0.0002387709
-0.0008420620
0.0004210368
-0.0001445653
0.0003557913
0.0001827534
0.0016713097
-0.0017614786
0.0000571254
0.0009811659
-0.0003706965
-0.0001642461
0.0012397940
-0.0001464792
0.0010561881
-0.0002070315
0.0003753591
0.0008368758
0.0010670066
0.0001877376
-0.0000960056
-0.0007684864
0.0000551093
0.0001984897
0.0003165628
0.0004734383
0.0007619960
-0.0021924016
0.0001476529
0.0010846155
-0.0005710696
-0.0002040948
0.0012597358
-0.0000836378
0.0015312688
-0.0005033406
0.0006317551
0.0007166974
0.0012121050
0.0003715864
-0.0006466970
-0.0006649523
-0.0000212993
-0.0001647326
0.0005477854
0.0005277830
0.0006703475
-0.0017941914
0.0000179732
0.0015900142
-0.0004810784
-0.0002447249
0.0014837416
-0.0001330498
0.0012764661
-0.0004247169
0.0001212277
0.0007900977
0.0012764220
0.0005806822
-0.0003572296
-0.0005586378
-0.0001984277
-0.0000907640
0.0004927593
0.0003590247
0.0009601578
-0.0020245648
0.0001180173
0.0009778320
-0.0004350561
-0.0001768878
0.0019097480
0.0002363980
0.0016615347
-0.0007153710
0.0003749015
0.0010293438
0.0016228223
0.0006740913
-0.0003892516
-0.0006228311
0.0005422779
0.0002770519
0.0005357343
0.0005480641
0.0008068423
-0.0019466480
0.0003578731
0.0010614501
-0.0006803644
0.0010377575
0.0015068829
-0.0000268662
0.0012673888
-0.0005397504
0.0004233745
0.0009042233
0.0012624195
0.0002505750
0.0000357591
-0.0007273664
-0.0001291095
0.0004527312
0.0002405645
0.0005950041
0.0005516683
-0.0015425567
0.0000390496
0.0017458602
-0.0004363352
0.0001815459
0.0015236050
-0.0001026513
0.0013938035
-0.0005657050
0.0006655072
0.0010577565
0.0010956578
0.0000780522
-0.0002386205
-0.0008155988
0.0001051659
-0.0000786624
0.0003678732
0.0003938870
0.0005428813
-0.0015250280
0.0000370762
0.0011727071
0.0002259641
0.0001353837
0.0017304514
-0.0000349708
0.0012286698
-0.0005037748
0.0001310020
0.0008771119
0.0012545209
0.0002116448
-0.0001160303
-0.0009558978
0.0003502344
0.0000549430
0.0005481717
0.0003843052
0.0006027787
-0.0017424634
0.0001613236
0.0009045928
-0.0003546735
0.0010389596
0.0020065360
0.0000709647
0.0010891273
-0.0003985956
0.0004793042
0.0008104314
0.0012541894
-0.0000030528
-0.0002892827
-0.0000179787
0.0000479025
-0.0001475714
0.0001398630
0.0004816719
0.0007953574
-0.0017144814
0.0001671786
0.0010642894
-0.0001234539
0.0000948179
0.0016114670
-0.0000196093
0.0011096779
-0.0006471559
0.0003748248
0.0013284408
0.0014543407
0.0009359720
-0.0000953785
-0.0006512101
-0.0001427450
0.0011493379
0.0000259354
0.0005910535
0.0010387357
-0.0018103115
0.0001277000
0.0011698657
-0.0002769278
0.0002818734
0.0017319455
0.0000875393
0.0013034566
-0.0006091089
0.0007514724
0.0008390494
0.0011415199
0.0000367444
0.0001754614
-0.0011336750
0.0004467546
0.0002864602
0.0003738445
0.0003795323
0.0005004807
-0.0017819347
0.0002706384
0.0012781739
-0.0004146595
0.0000774432
0.0013603727
0.0000296565
0.0013037143
-0.0001976630
0.0003395019
0.0007696220
0.0010357108
0.0003035679
-0.0005321091
-0.0010728692
0.0001830230
0.0000305084
0.0002526341
0.0007016630
0.0005615626
-0.0014211883
-0.0000051071
0.0009604711
-0.0002896991
0.0001355399
0.0016679711
-0.0000158197
0.0008080647
-0.0003534922
0.0001052930
0.0009148021
0.0011275879
0.0001663771
-0.0006382878
-0.0008683563
-0.0000108863
0.0002117344
0.0005445807
0.0008651882
0.0005768473
-0.0015374380
-0.0003987812
0.0013830611
0.0002981415
-0.0000591135
0.0018009968
0.0001254913
0.0012849770
-0.0008304284
0.0002322804
0.0008997623
0.0012247016
0.0001501124
-0.0007562252
-0.0005597029
-0.0000518002
0.0002477899
0.0006622400
0.0007227833
0.0003947221
-0.0008109890
0.0006372616
0.0011662791
-0.0000828039
-0.0000588865
0.0014584138
0.0000857129
0.0013381198
-0.0005228996
0.0007421106
0.0007760632
0.0019706939
0.0002830922
-0.0008690773
-0.0003161227
0.0000643791
0.0001028359
0.0007830206
0.0009068303
0.0007340602
-0.0021420534
0.0000883862
0.0021223995
-0.0005605693
-0.0000494117
0.0013878451
-0.0002657400
0.0020056524
-0.0002309439
0.0005342883
0.0010443682
0.0014358023
0.0003627057
-0.0007460590
-0.0010092379
0.0001416242
-0.0001878747
0.0010995803
0.0001456247
0.0015746020
-0.0024600367
0.0003455438
0.0019508454
-0.0007096915
-0.0002927768
0.0014778051
0.0000994198
0.0019555444
-0.0001543914
0.0004771294
0.0006953950
0.0017964227
0.0005965969
-0.0006230775
-0.0004237783
-0.0001218385
-0.0005668678
0.0008648300
-0.0000470453
0.0013565513
-0.0036509006
0.0000133501
0.0012693183
-0.0008785762
-0.0011391604
0.0015137383
-0.0001955848
0.0024549465
-0.0002373811
0.0007455176
0.0008487908
0.0016210032
0.0003131978
-0.0006089812
-0.0003025629
-0.0006810246
-0.0004726820
0.0003962541
0.0005735865
0.0005649283
-0.0020386877
0.0007386203
0.0014156796
-0.0008437909
-0.0001805219
0.0015487893
-0.0002372594
0.0018783071
-0.0003836450
0.0018393624
0.0010270044
0.0013701416
0.0003904111
-0.0006075093
-0.0009737654
0.0002478190
-0.0002818794
0.0001281700
0.0003499334
0.0006495682
-0.0021441735
-0.0003199044
0.0012064072
-0.0004734144
-0.0000190438
0.0021387696
0.0002962714
0.0012609547
-0.0010790935
0.0010867803
0.0010839484
0.0019079703
-0.0002721622
-0.0005527072
-0.0010027491
0.0004886897
0.0002491113
0.0005389549
-0.0002666776
0.0013683637
-0.0011886483
0.0001070799
0.0004904822
-0.0002417092
-0.0007650185
0.0012880649
0.0006673165
0.0014797458
-0.0001732448
0.0003759856
0.0006736160
0.0009013037
0.0000906103
0.0002343702
-0.0003284767
-0.0003477951
-0.0004573695
0.0005129477
-0.0002031102
0.0015763397
-0.0041383414
-0.0004064637
0.0005615780
0.0002947405
-0.0018138333
0.0014846252
0.0004550934
0.0019378466
0.0000003563
0.0003617997
0.0004573003
0.0014615978
0.0000531307
-0.0004414547
0.0005030524
-0.0011109636
-0.0002035321
0.0003655311
-0.0008357054
0.0028382444
-0.0067293035
-0.0002691334
0.0011612678
-0.0003085824
-0.0029764975
0.0029408327
0.0001107970
0.0028204624
0.0007012166
-0.0004671209
0.0008797157
0.0025502885
0.0019786698
-0.0006458110
-0.0002856829
-0.0017471744
-0.0013810201
0.0005715722
-0.0008874088
0.0040327569
-0.0092292141
-0.0003181698
0.0017371140
-0.0016233427
-0.0040930150
0.0038794297
-0.0002710587
0.0042600345
0.0018079028
-0.0003899305
0.0016685864
0.0041731204
0.0011565058
-0.0009721440
-0.0012392328
-0.0033037397
-0.0020263737
0.0006243490
-0.0007768148
0.0033371896
-0.0074072719
-0.0010237194
0.0010989503
-0.0008180162
-0.0035073939
0.0036086707
0.0000372400
0.0028000163
0.0009730665
-0.0013086219
0.0010782120
0.0039368935
0.0004904370
-0.0005606373
-0.0010114307
-0.0033769805
-0.0014617757
0.0010168738
-0.0035190989
0.0026393723
-0.0060546182
-0.0030238363
-0.0025610224
-0.0002063132
-0.0052958101
0.0004699278
0.0009591270
-0.0002072595
0.0017769951
-0.0001248178
-0.0016446364
0.0013029406
-0.0010102271
0.0006664486
0.0035120872
-0.0049914785
-0.0001754889
-0.0006526757
-0.0046599202
0.0023424092
-0.0066700618
-0.0008192148
-0.0022760621
0.0001477939
-0.0033930825
0.0015590145
0.0017436868
0.0003732984
-0.0008494613
0.0013437689
-0.0011233481
0.0015308662
-0.0022810112
0.0025595656
0.0031333475
-0.0033323382
0.0000392179
-0.0017649962
-0.0044256024
0.0047494177
-0.0133128607
0.0026617688
0.0001696432
-0.0017922997
-0.0060235347
0.0039071615
0.0002828855
0.0063823404
0.0005277564
0.0028045483
0.0002665427
0.0030126713
0.0005437972
0.0020814524
-0.0000698457
-0.0024840432
-0.0036743231
-0.0025125268
-0.0007500991
0.0034722690
-0.0098274828
0.0036973158
0.0039962455
-0.0020108166
-0.0002967323
0.0072804260
0.0008572355
0.0073733028
-0.0042330890
0.0052917513
0.0038118957
0.0051885280
0.0001678317
0.0005588797
-0.0045238024
0.0016822713
-0.0007815919
-0.0029217845
0.0002607675
0.0010812693
-0.0054124214
0.0080893129
0.0036480007
-0.0010819993
0.0009017453
0.0028992635
-0.0007364391
0.0086838023
-0.0028066962
0.0071299338
0.0029376106
0.0010045035
0.0018554319
0.0012052525
-0.0039999091
0.0060934351
-0.0026373514
-0.0041261065
-0.0008494993
0.0005060613
-0.0042555601
0.0052822120
0.0020282844
0.0004800633
0.0030773896
0.0046112540
0.0010531308
0.0031781002
-0.0035796836
0.0044067026
0.0026262338
0.0021072080
-0.0004063714
0.0026910623
-0.0042847384
0.0039561020
-0.0008741917
-0.0029512555
-0.0046969695
0.0068779709
-0.0186295677
0.0039492830
0.0024609110
-0.0029478590
-0.0066664823
0.0082705327
0.0002693722
0.0102378035
-0.0006209067
0.0031407333
0.0027297183
0.0060989202
0.0012773684
0.0016255903
-0.0035868966
-0.0028805107
-0.0043435577
-0.0035758606
-0.0009360002
0.0034953526
-0.0118056380
0.0069399577
0.0052330790
-0.0023443307
-0.0008474924
0.0070505011
-0.0003751127
0.0102374876
-0.0028094278
0.0059818820
0.0040749289
0.0045596813
0.0026934116
0.0007755210
-0.0065478645
0.0034376204
-0.0036639570
-0.0054797331
-0.0011089422
0.0008057297
-0.0063950598
0.0107495149
0.0031431167
-0.0009379522
0.0018589419
0.0031592123
-0.0004811527
0.0081487279
-0.0031292861
0.0097126717
0.0026309736
0.0000578139
0.0016968676
0.0036745538
-0.0051619230
0.0072919241
-0.0040294511
-0.0032209313
-0.0084065911
0.0016475394
-0.0096848806
0.0079065845
-0.0038289987
-0.0015177498
-0.0059021871
-0.0023895137
0.0013192225
0.0062299281
-0.0028875465
0.0117641705
-0.0019869063
-0.0023833657
-0.0011110642
0.0065121859
0.0047920250
0.0028627653
-0.0035012995
0.0006074540
-0.0105971948
0.0120086173
-0.0276642842
-0.0006366432
-0.0031457802
-0.0042228536
-0.0205437313
0.0031861091
-0.0021581151
0.0106198031
0.0108756945
-0.0020049371
-0.0034451180
0.0050573059
0.0046500921
0.0009660259
0.0036289135
-0.0138599348
-0.0107525082
-0.0057473127
-0.0079621350
-0.0009040798
-0.0046191055
0.0125097462
-0.0043134819
-0.0014310364
-0.0023725270
-0.0047453662
0.0013212624
0.0063275092
-0.0054962465
0.0167359691
-0.0019687618
-0.0059553047
-0.0012287175
0.0092183966
0.0057392792
0.0088762197
-0.0030979378
-0.0063959160
-0.0005563335
-0.0033017939
0.0030527263
0.0153369521
0.0009673058
-0.0012011432
0.0044897313
-0.0035845465
-0.0016613427
0.0061545630
-0.0013296343
0.0118604873
0.0011450149
-0.0062375872
0.0035216992
0.0044817336
-0.0033469099
0.0135447456
-0.0052967582
-0.0016951209
-0.0034390140
0.0039459541
-0.0114095712
0.0102822824
0.0009288929
-0.0041009122
-0.0084020965
-0.0019226263
-0.0042604611
0.0116112240
0.0071751329
0.0057254661
-0.0004926936
-0.0010716944
0.0077193080
0.0006396048
-0.0008573680
0.0016949554
-0.0105087559
-0.0074806795
-0.0148750083
0.0120811128
-0.0364352365
0.0182404885
0.0021363853
-0.0091522406
-0.0194656334
0.0057230167
-0.0006312363
0.0273253455
-0.0005778577
0.0193727331
0.0008183862
0.0048015048
0.0050833896
0.0071383623
0.0008012105
0.0017564464
-0.0132587126
-0.0074393843
-0.0146473591
-0.0039723241
-0.0020106350
0.0256091428
-0.0127689846
-0.0049319117
-0.0113766633
-0.0229437935
-0.0018620292
0.0123866002
-0.0002217632
0.0313324868
-0.0102569809
-0.0197901454
0.0032401117
0.0136850496
0.0179763208
0.0182969768
-0.0100717648
-0.0063391200
0.0017246383
-0.0134379478
0.0277649384
0.0129044848
-0.0049883093
0.0050503989
0.0155128926
-0.0126174785
0.0009797120
-0.0091258353
-0.0062696623
0.0117715309
-0.0024047299
-0.0149822099
-0.0032992114
0.0075759434
0.0021712318
0.0197480188
0.0033015471
-0.0117008586
-0.0184836200
0.0074826311
-0.0352118543
0.0227478780
0.0021251065
-0.0103606774
-0.0131411802
0.0086443589
0.0081287499
0.0324440832
-0.0257352107
0.0425065583
0.0065976683
0.0065054963
-0.0067992257
0.0142317367
0.0060683872
0.0153474787
0.0006981211
-0.0095386880
-0.0064515940
0.0013918718
-0.0204103714
0.0321284733
0.0120515107
-0.0132832265
-0.0024878374
0.0046035269
0.0041103436
0.0389491005
-0.0254326370
0.0458582786
0.0115704155
0.0033213959
-0.0004786773
0.0078528618
-0.0028193534
0.0295536298
-0.0002449723
0.0052512089
-0.0019784357
0.0173854467
-0.0398882655
0.0031018940
0.0139861566
-0.0132352682
-0.0247364311
0.0139323979
-0.0033091321
0.0315405097
0.0061716313
0.0005301790
0.0076539361
0.0187893966
0.0085899731
-0.0088472883
-0.0062652912
-0.0082425741
-0.0097933351
-0.0077087475
-0.0116495241
0.0218741057
-0.0614225749
0.0217314935
0.0149692537
-0.0163615925
-0.0255910783
0.0220488787
-0.0006178254
0.0480570938
-0.0043669000
0.0235583846
0.0109325815
0.0200648576
0.0087203403
0.0007709002
-0.0117069052
0.0017454143
-0.0164679308
-0.0057275046
-0.0023168079
-0.0014863713
-0.0019316657
0.0164776598
0.0031023236
-0.0035914948
-0.0006653710
-0.0023007198
-0.0002564271
0.0129787338
-0.0047354947
0.0155072170
0.0030544980
-0.0031452991
0.0025396995
0.0040965179
-0.0026481225
0.0142993982
-0.0038210881
-0.0152950455
-0.0195991449
0.0066201137
-0.0344981040
0.0350320933
0.0033328835
-0.0125496747
-0.0144900073
0.0042674490
0.0045165402
0.0404152433
-0.0221412443
0.0468952606
0.0056717885
0.0016528012
-0.0016457174
0.0154513263
0.0032136962
0.0217030146
-0.0076023138
-0.0146643789
-0.0159327056
-0.0059813865
0.0009186807
0.0194661745
-0.0071042207
0.0018706134
0.0065440495
-0.0010580829
0.0110297772
0.0037972452
-0.0275208986
0.0317099420
0.0007226639
-0.0069421873
-0.0154115138
0.0198991671
0.0084301300
0.0205302039
0.0086639508
-0.0070775455
0.0001547154
-0.0024370103
-0.0010936243
0.0174789238
0.0068496009
-0.0027766208
0.0064468556
0.0037415276
0.0018000414
0.0126260416
-0.0134019849
0.0180865532
0.0068285346
0.0000549183
-0.0011027803
0.0046918982
-0.0067114693
0.0171833884
0.0010630402
-0.0140465514
-0.0131698117
-0.0055723823
0.0080511793
0.0067792948
-0.0116830711
0.0097059924
0.0125020464
0.0025622467
0.0092429437
-0.0140513594
-0.0154998891
0.0092805307
-0.0026581159
-0.0068599371
-0.0140227311
0.0179600615
0.0038889210
0.0054290920
0.0060416923
-0.0004267905
-0.0019792056
-0.0022501892
0.0079099228
-0.0056026578
-0.0047925470
0.0041768602
0.0038718785
0.0001713328
0.0033749782
-0.0098412637
-0.0030719511
-0.0023270371
-0.0014412094
-0.0013727525
-0.0056942228
0.0029499698
0.0032663663
-0.0030654136
0.0048182361
0.0028804694
-0.0023879400
0.0038481884
-0.0074364119
-0.0082798742
-0.0004766190
0.0008819072
-0.0052459861
0.0040834126
0.0027272186
-0.0009877313
-0.0021640830
-0.0031507547
0.0004972075
0.0052217157
-0.0035556922
-0.0008116348
0.0031776869
-0.0075213290
0.0035111512
-0.0069351252
-0.0088161006
-0.0042068163
0.0140552191
-0.0097208291
-0.0125730889
0.0125488996
0.0122499595
0.0038896929
0.0088041079
-0.0248901521
-0.0075890465
-0.0084007389
-0.0046835520
-0.0032275346
-0.0147908295
0.0118258804
0.0037262338
-0.0082252476
0.0092409031
-0.0014792323
-0.0052534546
-0.0011202127
0.0045727734
-0.0062679372
-0.0073599399
0.0049668086
0.0015042363
-0.0006108810
0.0036343615
-0.0099489948
-0.0015237400
-0.0035010308
-0.0036302722
-0.0019297677
-0.0064468192
0.0050219855
0.0051562642
-0.0056267076
0.0039935140
-0.0035036262
-0.0067526291
-0.0031204513
0.0086161249
-0.0016588048
-0.0104488489
0.0064537968
0.0031285923
-0.0044292551
0.0036005560
-0.0129702048
-0.0011158256
-0.0010608462
-0.0058172520
-0.0063636565
-0.0057779405
0.0082077141
0.0070033955
-0.0030782940
0.0031610353
-0.0042646080
-0.0054839909
-0.0008873688
0.0031285712
0.0021058675
-0.0069384618
0.0041201604
0.0020723121
-0.0027194318
0.0010495748
-0.0072838002
0.0013135166
-0.0008254527
-0.0040765419
-0.0045385393
-0.0022789822
0.0064964887
0.0026063327
-0.0009441077
-0.0019999441
-0.0067096866
-0.0107881285
-0.0051521100
0.0131158145
-0.0005321464
-0.0168055285
0.0093600125
0.0028798064
-0.0098850752
0.0023725245
-0.0197858138
0.0045648554
-0.0035388657
-0.0112106329
-0.0128386739
-0.0053835537
0.0116191542
0.0099668805
-0.0038471974
-0.0014585928
-0.0089905574
-0.0066196815
-0.0085419764
0.0251233204
-0.0092674451
-0.0146340047
0.0164039199
0.0194145937
0.0008378450
0.0086091109
-0.0332236220
-0.0068988723
-0.0117137624
-0.0061174942
-0.0075606828
-0.0155540472
0.0134629796
0.0033074887
-0.0049083395
0.0108262168
-0.0164245441
-0.0045096773
-0.0131814389
0.0391139733
0.0021961022
-0.0168023509
0.0212426725
0.0301003633
-0.0037834321
0.0041043736
-0.0404964747
0.0032792432
-0.0175211128
-0.0078525763
-0.0157374475
-0.0096337899
0.0164367990
-0.0052852403
0.0019963450
0.0019867851
-0.0066946046
-0.0128726558
-0.0089324510
0.0240660406
-0.0042467169
-0.0231112258
0.0125265033
0.0050458967
-0.0165769105
0.0040641111
-0.0288072644
0.0045108787
-0.0061921015
-0.0149530044
-0.0182020531
-0.0092299486
0.0144856056
0.0160963835
-0.0054121412
0.0017648942
-0.0058482267
-0.0134605002
-0.0085198729
0.0134955000
0.0179489296
-0.0206218013
-0.0004090052
-0.0120594204
-0.0343276617
-0.0065761351
-0.0014661573
0.0172391696
0.0194727883
-0.0192114509
-0.0289938558
0.0084447576
0.0110743692
0.0203205710
0.0116283668
-0.0154836175
-0.0242315690
-0.0231894594
-0.0106605744
0.0244755826
0.0047804220
-0.0266224807
0.0221203693
0.0239170440
-0.0016389508
0.0126043279
-0.0388627282
-0.0105883566
0.0018440772
-0.0106893631
-0.0166330209
-0.0205872940
0.0303647489
0.0077347687
0.0014630444
0.0057218269
-0.0106446580
-0.0021326874
-0.0102320438
0.0284902905
-0.0100045135
-0.0039074142
0.0152213840
0.0308559988
0.0135962660
0.0152135359
-0.0286666851
-0.0249031358
-0.0028003780
0.0055111934
0.0021610241
-0.0234571760
0.0121647610
-0.0042157744
0.0036197435
0.0232887333
-0.0092740079
0.0014874446
-0.0038491105
0.0150191402
-0.0051582551
0.0014096215
0.0111617174
0.0243310384
0.0160802986
0.0080485246
-0.0182679991
-0.0134223033
-0.0094115435
0.0066726546
0.0051287186
-0.0124554421
0.0065079215
-0.0126237556
0.0003682351
0.0109248325
-0.0063638432
0.0084983399
-0.0106338452
0.0283619025
0.0022716342
0.0034310137
0.0082242764
0.0265506386
0.0042178224
0.0040719731
-0.0157068722
-0.0105225182
-0.0026702851
0.0058564130
-0.0028008747
-0.0070308573
0.0036058827
-0.0109055949
0.0117744593
0.0099068144
-0.0050013049
0.0041710476
-0.0048568702
0.0111111524
0.0034068261
0.0060672421
0.0033446970
0.0176937097
0.0090919306
0.0051432521
-0.0035865921
-0.0163875962
0.0069523947
0.0080561549
0.0027942838
-0.0074585511
0.0035047236
-0.0086262771
0.0107049833
0.0095390997
-0.0041189679
0.0066468338
-0.0049939565
0.0097965462
0.0125146598
0.0065797614
0.0005061493
0.0115197702
-0.0000558000
-0.0021308629
0.0026872741
-0.0023128396
0.0054465066
0.0047773852
-0.0030353835
0.0033765982
0.0001490216
-0.0098275726
0.0132071522
-0.0015929821
-0.0026632506
-0.0040269270
-0.0042316446
0.0103143634
0.0007033211
-0.0067884194
0.0040460801
0.0039883726
-0.0052996395
0.0023710566
-0.0088779921
-0.0022035515
0.0028235539
-0.0038356226
-0.0058249279
-0.0040207235
0.0058062486
0.0064575763
0.0018174925
0.0024115387
-0.0020943077
-0.0024438764
-0.0004897229
0.0003571910
0.0058185319
-0.0033198091
0.0004786336
-0.0017841376
-0.0053625755
-0.0018091220
-0.0003462557
0.0053200377
0.0012473365
-0.0028463436
-0.0049563394
0.0035939260
0.0025494067
0.0016923754
0.0018534426
-0.0054058633
-0.0023393437
-0.0034081185
0.0008554849
-0.0014617043
0.0016120518
-0.0034944326
0.0018430619
-0.0008181575
-0.0006786222
-0.0005866768
-0.0028930120
0.0037305183
-0.0022065621
-0.0015867947
-0.0020335333
0.0007116314
0.0030173041
0.0002339359
-0.0020483293
-0.0034759634
-0.0008668459
-0.0031796367
0.0008550877
-0.0021277803
0.0027266067
-0.0034678574
0.0005189713
-0.0032016390
-0.0036147550
-0.0019725432
-0.0006257288
0.0058280179
-0.0009539312
-0.0031443663
-0.0029230964
0.0026708987
0.0016460011
0.0021720030
-0.0015881124
-0.0054672886
-0.0029074129
-0.0034615947
-0.0004857928
0.0000033197
0.0063219954
-0.0039348112
0.0005607204
-0.0005630119
-0.0049851496
-0.0019197634
-0.0003762781
0.0044098017
0.0022509925
-0.0028197509
-0.0053771260
0.0026906569
0.0035987661
0.0017509823
0.0019760727
-0.0060139416
-0.0023604239
-0.0024393827
-0.0005915580
-0.0010656886
0.0053351776
-0.0018405637
-0.0000249178
0.0001909586
-0.0021662898
-0.0011493728
0.0013476642
0.0014176375
0.0035259328
-0.0014804709
-0.0031880282
0.0017045310
0.0031087038
0.0007743005
0.0029743223
-0.0037716622
0.0000265918
0.0007289076
-0.0000598192
0.0001347808
0.0020745481
0.0011314837
-0.0007139570
0.0012962164
0.0000455038
-0.0003828525
0.0017920766
-0.0003375526
0.0014844906
0.0008370897
-0.0000445918
0.0007525600
-0.0000179271
-0.0004742034
0.0015234300
-0.0005919644
-0.0004692154
-0.0000506516
0.0004789357
-0.0013753861
0.0018705024
0.0009856698
-0.0005038083
0.0001482664
0.0005419141
-0.0000656471
0.0022851001
0.0001999622
0.0026676977
0.0007514177
0.0002174848
0.0007273799
0.0003337357
-0.0001364669
0.0016627994
-0.0001402322
0.0006738923
0.0000469276
0.0001705651
-0.0014813960
0.0009207126
0.0005917754
-0.0006650265
-0.0003618574
-0.0002381878
-0.0003211156
0.0016688658
-0.0000007143
0.0013535180
0.0001232070
-0.0000268019
0.0009236198
-0.0004318059
0.0009698695
0.0005082490
-0.0005676563
-0.0002552576
-0.0004850541
0.0004900873
-0.0010176837
0.0018262944
0.0004331911
-0.0003382702
0.0004549808
0.0010360441
0.0003223666
0.0021730447
-0.0010924041
0.0017710836
0.0004805263
0.0004896547
0.0004047426
0.0003920484
-0.0001540125
0.0008043345
-0.0003085177
0.0003327007
-0.0005274598
0.0006906117
-0.0022536545
-0.0000618694
0.0003122564
-0.0005930951
-0.0010547381
0.0012874299
0.0002480277
0.0013884116
-0.0008180721
0.0009886969
0.0003801343
0.0011258601
0.0001882441
-0.0001843632
0.0012162515
-0.0002841361
-0.0000320121
-0.0001050486
0.0001023500
0.0004871713
-0.0022042229
0.0009830496
0.0010718391
0.0000937253
0.0001945713
0.0017451867
0.0000293795
0.0018382038
-0.0009693484
0.0013604076
0.0009977855
0.0011670948
0.0000027391
-0.0002719810
-0.0009952247
0.0009871494
0.0000206596
0.0005267807
0.0005920659
0.0006829590
-0.0017960193
0.0005664406
0.0012099358
-0.0002967646
0.0003543378
0.0016756488
0.0001357326
0.0026159037
-0.0008504875
0.0012035868
0.0009310095
0.0013304477
0.0000576651
-0.0006267541
-0.0006638402
0.0003818897
0.0000953928
-0.0006921741
-0.0015459122
0.0005716784
-0.0029403445
0.0011995634
-0.0006050719
-0.0001586506
-0.0005749070
0.0004309756
0.0007481218
0.0013032321
-0.0009234947
0.0019738579
-0.0001734534
0.0007141407
0.0005755305
0.0012544717
0.0011576829
0.0001492123
-0.0005346923
0.0019092628
0.0011525430
0.0003191912
-0.0005360542
-0.0019662935
0.0008399140
-0.0007587839
-0.0010440324
-0.0000375850
0.0004019257
0.0006573908
-0.0008920889
0.0003988654
0.0003730281
0.0009383237
-0.0003727018
-0.0010772650
0.0016240851
-0.0010331546
0.0017261016
0.0016682884
0.0010581494
0.0006523108
-0.0010910349
-0.0021342826
0.0014996984
-0.0006019412
-0.0006747882
0.0016524557
0.0003229124
0.0008350594
-0.0002212794
-0.0001393456
0.0008355028
0.0017869546
-0.0002224294
-0.0015177345
0.0000751507
-0.0011455970
0.0012888320
0.0019530394
0.0000774094
0.0013087439
-0.0028286425
-0.0025913398
0.0010522014
-0.0009759079
-0.0016531282
0.0011472859
0.0003744010
0.0017319112
-0.0007377693
-0.0002494103
0.0004586198
0.0019528703
-0.0005274940
-0.0013667452
0.0010655560
-0.0019698074
0.0009986296
0.0009420085
-0.0009534803
0.0004208996
-0.0007179502
-0.0024075643
-0.0012029029
0.0002417565
-0.0011057595
-0.0000776156
0.0005558604
-0.0013796814
0.0006712179
-0.0013213984
-0.0006143065
0.0003334679
-0.0010027044
0.0003003768
0.0022688839
-0.0024050491
0.0011765981
0.0001894069
-0.0022499430
0.0018697861
-0.0046969950
-0.0011678847
-0.0005873546
-0.0001339803
-0.0016536521
0.0020895471
0.0015295263
0.0008640337
-0.0007533528
0.0000600335
0.0001869993
0.0019991153
-0.0010878398
0.0007468548
0.0006368297
-0.0024992484
0.0001637932
0.0004942646
-0.0005171453
0.0020219352
-0.0041421597
-0.0038036851
0.0004699498
0.0004412690
-0.0003769853
0.0042092320
0.0016457950
-0.0004831314
-0.0020929461
-0.0018920829
0.0014796806
0.0037712162
-0.0023180664
-0.0000157595
-0.0003114102
-0.0038230558
0.0019830333
0.0042959050
-0.0012304644
0.0009166403
0.0000930946
-0.0085486713
-0.0023689088
0.0003535909
-0.0042828053
-0.0013315200
0.0020128794
-0.0026550331
-0.0008427570
-0.0027893149
-0.0019132486
0.0013527147
-0.0032449665
-0.0007260687
0.0060537747
-0.0058471499
0.0047061472
0.0059984534
-0.0069815445
0.0000186199
0.0035618225
-0.0144868659
-0.0113414582
0.0034403646
-0.0084053658
-0.0072006885
0.0042195954
-0.0122436717
0.0010877808
-0.0051055012
-0.0080963183
-0.0028446934
-0.0065507141
0.0037231107
0.0160694770
-0.0130150843
0.0061175498
0.0100222292
-0.0139118312
0.0021486488
-0.0012023531
-0.0212281340
-0.0179701228
0.0020288867
-0.0203853714
-0.0131922943
0.0056913043
-0.0124922813
0.0021947711
-0.0032840972
-0.0137190328
-0.0040287415
-0.0096862701
0.0044193266
0.0291341855
-0.0202655014
0.0077480335
0.0120417290
-0.0153452227
0.0009072495
0.0021034094
-0.0236018153
-0.0209914600
0.0020210998
-0.0234407576
-0.0196743496
0.0055976384
-0.0151794141
0.0038727682
-0.0038582885
-0.0163412597
-0.0075814344
-0.0104023905
0.0045051676
0.0342051965
-0.0221721431
0.0086644541
0.0118286433
-0.0021899466
0.0010536827
0.0045918897
-0.0152786535
-0.0086015323
-0.0003166354
-0.0159701958
-0.0148067046
-0.0019304914
-0.0074038207
0.0125737082
-0.0109780212
-0.0095401676
-0.0048332787
0.0017800154
-0.0044066911
0.0165869737
-0.0147397990
0.0003945858
0.0082349194
-0.0005120256
-0.0003563781
0.0095851597
-0.0185151350
-0.0068535100
0.0037425322
-0.0058998077
-0.0060196600
0.0013464983
-0.0148125779
0.0066962861
-0.0164047106
-0.0064782158
-0.0009898729
-0.0039802383
-0.0027805331
0.0099860486
-0.0150330416
0.0057513653
0.0054527088
0.0008737283
0.0028235073
-0.0005673240
-0.0040195236
-0.0037775920
-0.0005612787
-0.0105683148
-0.0090612527
-0.0069295047
-0.0031145564
0.0204487162
-0.0156104276
-0.0072100549
-0.0043910034
0.0092299732
-0.0049144708
0.0030764624
-0.0104676527
-0.0095490758
0.0011896023
-0.0012109745
0.0101691902
-0.0258159417
0.0015946056
0.0058256285
-0.0044512511
-0.0120077754
0.0090420615
-0.0037457643
0.0128813031
0.0091622521
-0.0065464403
0.0020803933
0.0089882145
0.0076605010
-0.0044633488
-0.0082659792
-0.0082832396
-0.0103067275
-0.0051305782
-0.0003597904
0.0232864324
-0.0666546759
0.0180969218
0.0222680166
-0.0147024616
-0.0206261732
0.0283223957
-0.0083787573
0.0444418950
0.0100511173
0.0031851087
0.0131195742
0.0236092728
0.0184557626
-0.0083398771
-0.0274914888
-0.0044181220
-0.0242132936
-0.0114560486
0.0087633144
0.0263379142
-0.0722474310
0.0339347290
0.0317915910
-0.0151167367
-0.0149449012
0.0346838224
-0.0196969447
0.0512781589
0.0296424991
-0.0108649454
0.0173052554
0.0233420098
0.0361695301
-0.0139052654
-0.0530175896
0.0005596522
-0.0442230267
-0.0042719436
0.0097402137
0.0194596442
-0.0489596156
0.0156726357
0.0251609784
-0.0105077919
-0.0098426179
0.0280040608
-0.0130314844
0.0342035456
0.0208184423
-0.0124129662
0.0142897689
0.0215781773
0.0236826432
-0.0137843806
-0.0385125635
-0.0031794947
-0.0270794124
0.0061241107
0.0070100899
0.0137127151
-0.0291945949
0.0034724027
0.0111828178
-0.0089088871
-0.0186643446
0.0052246164
-0.0142966955
0.0196783597
0.0302241381
-0.0181828941
0.0014284341
0.0087923217
0.0226856540
-0.0147047820
-0.0152638030
-0.0117900999
-0.0239377499
0.0074455084
0.0079564152
0.0102009834
-0.0174203930
-0.0056014502
0.0078194285
-0.0043829176
-0.0131355785
0.0043365681
-0.0110437821
0.0076367376
0.0267089773
-0.0224942490
0.0000949680
0.0085899038
0.0167615591
-0.0135250320
-0.0116726386
-0.0144132835
-0.0164675110
0.0018117533
0.0054882295
0.0086411173
-0.0132118262
-0.0057652729
0.0064034439
0.0009043497
-0.0033983113
0.0116155440
-0.0066226542
-0.0005169209
0.0198336484
-0.0235658025
0.0017690129
0.0086215861
0.0103662812
-0.0078316473
-0.0160742544
-0.0138641042
-0.0121546771
0.0006347473
0.0077271497
0.0073928636
-0.0137095762
-0.0016629567
0.0103581108
-0.0007077676
-0.0006719587
0.0133951317
-0.0057151175
0.0053840055
0.0128776741
-0.0158024114
0.0054060547
0.0102934585
0.0093829688
-0.0082178758
-0.0181171249
-0.0070579467
-0.0095002680
0.0039916990
0.0166680193
0.0010519037
0.0030079912
0.0007750981
0.0151446960
-0.0021517194
0.0063397846
0.0073254489
-0.0070565339
0.0055295699
0.0102324612
-0.0121374455
0.0084121885
0.0069657421
0.0103410764
-0.0127346963
-0.0189593022
0.0029689527
-0.0051451159
0.0010723677
0.0132131851
-0.0003441983
0.0058285221
0.0002247965
0.0109606617
0.0003521551
0.0089208411
0.0072026589
-0.0050772640
0.0002595650
0.0088595043
-0.0120956341
0.0067496316
0.0051935008
0.0073106271
-0.0087364490
-0.0176668439
0.0021795581
-0.0042779149
-0.0015930098
0.0083694346
-0.0005369875
0.0078594628
-0.0028078434
0.0059043102
0.0047783945
0.0120553340
0.0086977554
-0.0022496420
-0.0079918597
0.0062371352
-0.0152790543
0.0041671796
0.0036889158
0.0028170543
-0.0037722903
-0.0150116463
-0.0016234632
-0.0017302461
-0.0011936176
0.0068711764
-0.0001403709
0.0041604526
0.0009436856
0.0053685756
0.0020189189
0.0083782610
0.0057544726
-0.0024064209
-0.0032950745
0.0052382952
-0.0097578612
0.0035306600
0.0025219949
0.0039026092
-0.0036694173
-0.0120831378
0.0003075641
-0.0027897795
-0.0008612788
0.0022501413
0.0010973800
-0.0014474165
-0.0002966504
0.0027611903
0.0008772164
0.0028702823
0.0051779117
0.0002821261
-0.0007833889
0.0015212194
-0.0044665048
0.0027265734
0.0034099849
0.0010459256
-0.0013185391
-0.0059666695
-0.0006309052
-0.0007491281
-0.0006104785
0.0008874315
0.0008152903
-0.0005567545
-0.0014661995
0.0004723658
0.0014122063
0.0018061192
0.0032584984
0.0000113572
-0.0020428391
0.0012705025
-0.0037462035
0.0013043854
0.0020199816
0.0000472855
-0.0002961649
-0.0029196246
-0.0023776383
-0.0004415317
0.0008690905
0.0061531338
-0.0005990683
0.0050008529
-0.0012994049
0.0046436559
0.0009070765
0.0060109300
0.0037959395
-0.0010736553
-0.0021526468
0.0021495530
-0.0062376812
0.0031817988
0.0021631401
0.0020528364
-0.0034973482
-0.0074626764
0.0008704894
-0.0001214010
0.0019523487
0.0082885426
-0.0018959934
0.0078825431
-0.0016976167
0.0055441068
0.0007932016
0.0071561583
0.0025591366
-0.0023044251
-0.0023257285
0.0032351773
-0.0071007726
0.0036027412
0.0023900988
0.0026195278
-0.0051884461
-0.0079232207
0.0018373788
0.0003002002
0.0005847935
0.0030797427
-0.0001395380
0.0005269290
0.0007700656
0.0034173606
-0.0005636535
0.0023285246
0.0025885746
0.0000073318
0.0012016933
0.0003321594
-0.0009667234
0.0020685738
0.0017385221
0.0014062308
-0.0019879586
-0.0036166716
0.0012190894
-0.0005643065
-0.0000629575
0.0029603551
0.0002606678
0.0012381317
0.0007206691
0.0027830121
0.0000089658
0.0030117549
0.0023530472
-0.0004040326
0.0003387073
0.0002478237
-0.0012336086
0.0022978761
0.0016511823
0.0011290435
-0.0016088090
-0.0040527579
0.0014229357
-0.0003290387
0.0015939635
0.0064852644
-0.0015550628
0.0056794649
-0.0008589043
0.0050019989
0.0004838025
0.0062486871
0.0027571735
-0.0015696480
-0.0015589332
0.0023214307
-0.0048135396
0.0034133692
0.0016228056
0.0022391162
-0.0038563805
-0.0068187212
0.0021772378
0.0003941767
0.0052797320
0.0188899960
-0.0054115923
0.0238858432
-0.0064691031
0.0093831142
0.0037837471
0.0166924691
0.0020920576
-0.0051335993
-0.0116733764
0.0095538137
-0.0204693552
0.0050319193
0.0013131452
0.0067045369
-0.0114097240
-0.0150214663
0.0018426635
0.0013477964
0.0041800194
0.0142052022
-0.0037380906
0.0151435736
-0.0025250439
0.0081241697
0.0011833385
0.0106740515
0.0013209438
-0.0041375505
-0.0046923914
0.0062177741
-0.0115901931
0.0042265449
0.0013078895
0.0051056007
-0.0084354443
-0.0112563880
0.0029146249
0.0003892092
0.0006408180
0.0046918904
-0.0009736059
0.0028861907
0.0010686579
0.0038490874
0.0003004898
0.0041659211
0.0023558904
-0.0011778199
0.0004232431
0.0003327627
-0.0017860778
0.0029705770
0.0015236868
0.0015353939
-0.0021219795
-0.0049986010
0.0025342288
0.0001707630
0.0014734630
0.0057324915
-0.0010758516
0.0028311488
0.0017816176
0.0055500258
-0.0007340596
0.0039805505
0.0020634280
-0.0017084257
0.0025203526
0.0001989217
-0.0004827928
0.0034956127
0.0015854489
0.0023159596
-0.0034306059
-0.0057838495
0.0043327991
-0.0003305305
0.0022435803
0.0069681716
-0.0011020358
0.0060979990
-0.0025466806
0.0045525816
0.0006399998
0.0062753332
0.0027309969
-0.0017849587
-0.0019136459
0.0028126411
-0.0075268193
0.0028509927
0.0021873831
0.0028628417
-0.0035961040
-0.0061814628
0.0000325432
0.0005687036
0.0019988200
0.0080723198
-0.0022888644
0.0091132555
-0.0017329498
0.0044822798
0.0012432583
0.0071302424
0.0011550963
-0.0018851305
-0.0034290519
0.0039178274
-0.0075691353
0.0028780281
0.0006411571
0.0032474555
-0.0040681451
-0.0070904639
0.0024878230
-0.0001527607
0.0013880261
0.0034692732
-0.0000623436
0.0018060282
-0.0004410602
0.0032350968
-0.0000691520
0.0023381165
0.0019800459
-0.0012940589
0.0002475985
0.0016563922
-0.0026394448
0.0016524788
0.0013478859
0.0017549678
-0.0025899982
-0.0033605551
0.0008272316
-0.0002854781
0.0022818907
0.0059666658
-0.0009725747
0.0052419057
-0.0021883138
0.0040280895
0.0006839111
0.0043605742
0.0014775594
-0.0021159441
-0.0021706433
0.0037696181
-0.0063303790
0.0017975592
0.0014552618
0.0029304720
-0.0038187099
-0.0052074721
-0.0004051827
-0.0004564739
0.0032081549
0.0081377543
-0.0013476091
0.0080563413
-0.0037896839
0.0045340993
0.0007972378
0.0058301177
0.0020019597
-0.0021502793
-0.0033029906
0.0043825631
-0.0092073876
0.0023664406
0.0019174692
0.0028635897
-0.0057838685
-0.0065415378
-0.0005454426
0.0003004259
0.0024625796
0.0046032098
0.0008654601
0.0010458681
-0.0026388171
0.0036417248
-0.0004313115
0.0015014188
0.0024371982
-0.0018228413
0.0003729579
0.0032953873
-0.0053730850
0.0019866355
0.0025025998
0.0023605984
-0.0036108394
-0.0029492712
-0.0016324449
-0.0007019047
0.0036822050
0.0071394380
0.0003316268
0.0030615266
-0.0032822273
0.0054749639
-0.0003017292
0.0027748820
0.0027146050
-0.0028799401
-0.0009142893
0.0053017873
-0.0086615719
0.0023899333
0.0031982565
0.0039263492
-0.0057605729
-0.0063081501
-0.0020217167
-0.0003447167
0.0021877572
0.0048626453
0.0017264826
-0.0013607271
-0.0009469585
0.0052289902
-0.0014899368
0.0007263288
0.0037488535
-0.0023479282
0.0023575085
0.0037032051
-0.0044890304
0.0027812982
0.0033601030
0.0036647450
-0.0047334700
-0.0050674571
-0.0010559890
-0.0017928176
0.0012252634
0.0021671446
0.0031328071
-0.0079138613
0.0017219765
0.0058578437
-0.0032309617
-0.0025136794
0.0039935811
-0.0018904407
0.0076527667
0.0017264077
-0.0000512364
0.0031817471
0.0046055034
0.0038284164
-0.0034454127
-0.0041755680
-0.0002937618
-0.0026176139
0.0014449963
0.0012210620
0.0028629944
-0.0066382009
0.0005553929
0.0031722450
-0.0024595450
-0.0030801045
0.0028602367
-0.0011235817
0.0050884181
0.0024037577
-0.0011801096
0.0017907432
0.0035714688
0.0028200370
-0.0029629789
-0.0025768719
-0.0016851844
-0.0016513853
0.0017631312
0.0021979770
0.0017490961
-0.0042121703
0.0007556077
0.0035664906
-0.0024926392
-0.0020399289
0.0015390868
-0.0017107202
0.0051930096
0.0027287182
-0.0001120356
0.0015829518
0.0025996973
0.0028251421
-0.0030852048
-0.0022170080
-0.0002432442
-0.0020330539
0.0008671292
-0.0002386347
0.0041332088
-0.0107164877
0.0026654100
0.0034913007
-0.0037672835
-0.0054891693
0.0029344984
-0.0017151135
0.0089778305
0.0017608219
0.0026641725
0.0018518881
0.0036971581
0.0038587772
-0.0023219574
-0.0021606154
0.0000594497
-0.0041083061
0.0026984958
0.0003382581
0.0073829443
-0.0159413235
-0.0014727551
0.0053293726
-0.0045259971
-0.0088011520
0.0065608350
-0.0021448562
0.0102873781
0.0042470079
-0.0026166868
0.0026323133
0.0077710863
0.0045002528
-0.0046332466
-0.0036275424
-0.0055064545
-0.0046089132
0.0032306593
-0.0012232661
0.0081858590
-0.0191579248
-0.0007365310
0.0046929119
-0.0057488897
-0.0115997412
0.0059562409
-0.0016911944
0.0126069012
0.0040017511
-0.0003365873
0.0022931129
0.0084835029
0.0042963502
-0.0041622550
-0.0015692313
-0.0062496715
-0.0050145182
0.0042771983
-0.0001447636
0.0109441066
-0.0253496106
-0.0002696669
0.0083606434
-0.0082177678
-0.0149976274
0.0089840954
-0.0028461742
0.0188376900
0.0051241473
-0.0002639501
0.0041041296
0.0118298410
0.0069830401
-0.0069681757
-0.0038406750
-0.0073135982
-0.0068710159
0.0015538357
-0.0055328217
0.0117443826
-0.0303495740
0.0031725871
0.0053746425
-0.0078088512
-0.0179759774
0.0070135440
-0.0023263297
0.0195771931
0.0049188962
0.0039832118
0.0018300174
0.0095330618
0.0060511677
-0.0029681626
-0.0009306924
-0.0072975210
-0.0094095945
-0.0003561945
-0.0021404399
0.0078904376
-0.0238126013
0.0083734354
0.0041543800
-0.0063467325
-0.0114791864
0.0050361621
-0.0023960221
0.0167946615
0.0032508022
0.0066204667
0.0024508488
0.0064157964
0.0058625657
-0.0005910292
-0.0025429127
-0.0002346671
-0.0091026110
0.0014104701
-0.0019754192
0.0145816309
-0.0362018311
0.0056249371
0.0083648125
-0.0086838356
-0.0184200688
0.0097983563
-0.0059366413
0.0224573115
0.0123848433
-0.0025534276
0.0034417350
0.0112174358
0.0114513016
-0.0059050167
-0.0075602440
-0.0072389520
-0.0149597462
0.0140432859
-0.0055153579
0.0327406379
-0.0734620853
-0.0119573398
0.0126247242
-0.0172236380
-0.0488059180
0.0192873417
-0.0093849204
0.0361438643
0.0291925707
-0.0203820255
0.0032877409
0.0286194573
0.0190910251
-0.0180379838
-0.0049177341
-0.0343893820
-0.0229292461
0.0194194677
-0.0098148326
0.0367155213
-0.0788106795
-0.0238457185
0.0080838861
-0.0162659291
-0.0577909435
0.0191259249
-0.0073908647
0.0318169912
0.0324778109
-0.0273645008
-0.0009925645
0.0316810999
0.0159828472
-0.0183495467
0.0026397139
-0.0465033126
-0.0202117939
0.0149609502
-0.0174060509
0.0329199223
-0.0746374893
-0.0189993018
-0.0013112082
-0.0135059521
-0.0572508680
0.0105725627
-0.0057061453
0.0261517870
0.0304326127
-0.0204045241
-0.0067764212
0.0223708052
0.0127744117
-0.0111195746
0.0107211427
-0.0433079717
-0.0211522305
0.0093147767
-0.0176610091
0.0281285085
-0.0634894954
-0.0109103363
-0.0031035337
-0.0112957541
-0.0477309153
0.0077123599
-0.0034563760
0.0238417688
0.0218937479
-0.0104253670
-0.0063875144
0.0162793941
0.0090304614
-0.0052817105
0.0114315402
-0.0323211142
-0.0180497687
0.0037281706
-0.0116461196
0.0254322567
-0.0631444161
0.0002917882
0.0059017731
-0.0124943221
-0.0369936028
0.0150333267
-0.0053632262
0.0305015335
0.0187145716
-0.0063626040
0.0011943689
0.0197059373
0.0130596431
-0.0063308805
-0.0030113071
-0.0213337147
-0.0209928621
0.0022206690
-0.0067226973
0.0233895035
-0.0588882397
0.0066459924
0.0113975445
-0.0135425487
-0.0316844315
0.0159343428
-0.0074814872
0.0355216660
0.0165944507
-0.0016685633
0.0045010924
0.0185628587
0.0157087445
-0.0081302561
-0.0085485617
-0.0144525375
-0.0218884644
0.0006199034
-0.0088233454
0.0286683113
-0.0739986817
0.0130045710
0.0148727188
-0.0177065479
-0.0369835007
0.0207459883
-0.0087959683
0.0462638082
0.0179464254
0.0029096602
0.0065791369
0.0222035984
0.0198249683
-0.0079923116
-0.0125572250
-0.0128214510
-0.0276263749
0.0014927697
-0.0169434354
0.0318108334
-0.0807863668
0.0047038837
0.0068338681
-0.0152158224
-0.0460291490
0.0188813169
-0.0073194653
0.0408648744
0.0219053653
-0.0043554574
0.0007049479
0.0222908277
0.0163938613
-0.0050977680
-0.0037282533
-0.0252534721
-0.0280096373
0.0015818468
-0.0158234497
0.0212663819
-0.0518125578
0.0035965664
-0.0015312395
-0.0096797535
-0.0350746591
0.0059856956
-0.0033972043
0.0236371659
0.0144477327
0.0016930663
-0.0033706928
0.0098783840
0.0088453979
0.0005496398
0.0060422177
-0.0168022248
-0.0178093382
0.0038108302
-0.0211472025
0.0202417291
-0.0488418136
-0.0123204958
-0.0111382733
-0.0032148517
-0.0365157076
0.0059472549
0.0011581908
0.0076382623
0.0146826708
-0.0102641927
-0.0089954193
0.0102967944
-0.0000242147
0.0026701426
0.0140613659
-0.0302776793
-0.0109040579
-0.0005115494
-0.0167404370
0.0282186023
-0.0681998313
-0.0014992359
0.0047281925
-0.0099350533
-0.0357768597
0.0236017891
-0.0020372981
0.0285674297
0.0136618344
-0.0067151531
0.0020065914
0.0229558752
0.0078728868
-0.0016273689
-0.0050179830
-0.0264258829
-0.0187779140
-0.0073005131
-0.0104641394
0.0200463893
-0.0525650188
0.0173964243
0.0081352461
-0.0096977644
-0.0206482152
0.0162942577
-0.0069724863
0.0312216035
0.0148165430
0.0029344119
0.0040455507
0.0124220491
0.0146435577
0.0010203139
-0.0135734073
-0.0073278625
-0.0251058795
-0.0188831525
-0.0041346158
0.0009956320
-0.0151118729
0.0339058963
0.0058467544
-0.0018991426
0.0092456595
0.0077849503
-0.0038780568
0.0176191424
-0.0010911803
0.0205053993
0.0060497646
-0.0036372169
0.0088356949
0.0102565249
-0.0174946812
0.0212504944
-0.0162218800
-0.0179777161
-0.0027967101
0.0031439442
-0.0193802075
0.0297928409
0.0080596228
-0.0019619631
0.0089023097
0.0132846681
-0.0027869685
0.0177427987
-0.0027779038
0.0155090225
0.0077456292
0.0013564385
0.0070230071
0.0082233963
-0.0197186312
0.0177128793
-0.0143554920
-0.0099582600
-0.0063681185
0.0191265632
-0.0477206397
0.0124674977
0.0115073312
-0.0051775045
-0.0116224449
0.0269747233
-0.0031591358
0.0240749177
0.0087196388
-0.0051072550
0.0083671944
0.0185981275
0.0099222693
0.0001911790
-0.0218786775
-0.0080893299
-0.0187562984
0.0035280020
-0.0098116755
0.0282198189
-0.0628584460
-0.0067109722
0.0094152218
-0.0105759055
-0.0347345551
0.0250374295
-0.0042091274
0.0273949364
0.0183523957
-0.0152416880
0.0039831372
0.0261400997
0.0110746650
-0.0079285938
-0.0085056451
-0.0285633600
-0.0178315915
-0.0100374977
-0.0164268751
0.0011142551
-0.0119748977
0.0137649025
-0.0116555071
0.0011109349
-0.0073161696
-0.0050230731
0.0032417950
0.0031879041
-0.0039665094
0.0164545495
-0.0061754682
-0.0079276307
-0.0034898059
0.0148744640
0.0104490407
0.0046471267
-0.0046088037
-0.0188068525
-0.0079096289
-0.0032460392
-0.0151285477
0.0523912488
0.0032180519
-0.0103573789
-0.0004935058
-0.0092422025
-0.0060808656
0.0340747938
-0.0058829114
0.0476407791
0.0023006243
-0.0147955669
0.0121859027
0.0135454820
-0.0042066125
0.0390863300
-0.0204036859
-0.0096553680
-0.0036055934
0.0377062894
-0.1035678512
0.0398436283
0.0407231756
-0.0312364507
-0.0354267163
0.0452786020
-0.0110652877
0.0881075771
0.0049664038
0.0256920114
0.0259927885
0.0394798919
0.0289280703
-0.0110870095
-0.0394600812
0.0049155928
-0.0364814681
-0.0036501439
-0.0321684349
0.0327356258
-0.0852690988
0.0079083881
-0.0015780674
-0.0158836257
-0.0520561647
0.0185738915
0.0016382660
0.0433265674
0.0056810154
0.0149360846
-0.0019696526
0.0206440399
0.0043006702
0.0074987736
0.0091638539
-0.0251704090
-0.0208540030
-0.0088703238
-0.0231625029
0.0012290151
-0.0114031616
0.0070783504
-0.0189572616
0.0024797490
-0.0126526672
-0.0094488184
0.0069301439
-0.0021425929
-0.0068702435
0.0186956025
-0.0107421456
-0.0097860380
-0.0100162699
0.0184987898
0.0197821783
-0.0015122539
-0.0010278795
-0.0105619400
-0.0002638844
0.0007397438
-0.0147458654
0.0285733654
0.0108424702
-0.0079015168
0.0025400308
0.0047593529
-0.0023286944
0.0260182094
-0.0089788288
0.0270346481
0.0084440733
0.0001351124
0.0065021218
0.0045581373
-0.0114536825
0.0226381632
-0.0090878747
0.0070527277
-0.0025381886
0.0496870505
-0.1204565661
0.0134509259
0.0421643839
-0.0354514030
-0.0585701103
0.0473856181
-0.0140261647
0.0890003024
0.0200435588
0.0036744996
0.0229107158
0.0524770598
0.0323454259
-0.0244022370
-0.0324967810
-0.0239180495
-0.0369683119
0.0041169003
-0.0090568651
0.0199944472
-0.0448858865
-0.0074013406
0.0047583387
-0.0083662968
-0.0287198567
0.0149708223
-0.0009924159
0.0198774616
0.0091443810
-0.0066212494
0.0015532806
0.0183741112
0.0044087305
-0.0047469326
-0.0005886037
-0.0212735929
-0.0098568279
0.0107380111
-0.0069823681
0.0116829187
-0.0211990939
-0.0144815802
-0.0033076241
-0.0049476738
-0.0254452353
-0.0011295104
0.0002455194
0.0055158319
0.0106318922
-0.0079244253
-0.0050346726
0.0082090392
0.0008352316
-0.0049857834
0.0119702305
-0.0198797329
-0.0016367004
0.0027946023
-0.0122717287
0.0095818746
-0.0292831175
0.0093651125
-0.0055251252
-0.0093337527
-0.0285893170
-0.0107487245
-0.0048110604
0.0192876955
0.0134033284
0.0127301192
-0.0073211951
-0.0034608606
0.0088914805
0.0015254050
0.0120829086
-0.0034431682
-0.0158156661
-0.0024775064
-0.0393938746
0.0442154810
-0.1161733759
0.0192498283
-0.0016949941
-0.0248121727
-0.0774395668
0.0114040314
-0.0097537605
0.0635353641
0.0313530423
0.0154282615
-0.0081248336
0.0189535791
0.0229856014
0.0042683558
0.0093840770
-0.0316566583
-0.0463596545
-0.0098173349
-0.0321712067
0.0033753770
-0.0206812846
0.0183082475
-0.0254511052
-0.0017932246
-0.0263893327
-0.0217311223
0.0017515188
0.0068441164
0.0049198120
0.0275212643
-0.0182370694
-0.0185447647
-0.0018168337
0.0223805252
0.0284736478
-0.0004433583
-0.0145235915
-0.0061538170
-0.0198107139
-0.0003943305
-0.0099264812
0.0215375288
-0.0159881681
-0.0046996528
-0.0194952707
-0.0226789021
-0.0012311957
0.0113964120
0.0041313817
0.0275360679
-0.0126703146
-0.0177721534
0.0026381894
0.0147169495
0.0213533587
0.0084174565
-0.0127821313
-0.0148777073
-0.0417604309
0.0042831974
-0.0366677656
0.0446035644
-0.0255575117
-0.0125214814
-0.0384355427
-0.0323226540
0.0008216005
0.0337504282
-0.0022898836
0.0609410292
-0.0194162362
-0.0261674484
0.0034902087
0.0291967901
0.0380941959
0.0184776498
-0.0234110109
0.0058471587
-0.0276313871
0.0159841076
-0.0460203999
0.0118866779
-0.0135809134
-0.0170978449
-0.0530208447
-0.0208737454
-0.0046274805
0.0333835217
0.0153076490
0.0267257254
-0.0150270776
-0.0054821156
0.0098672538
0.0061854388
0.0318847619
-0.0109156492
-0.0203621531
0.0121731716
-0.0077600069
-0.0006397536
0.0030654768
-0.0053689493
-0.0121664573
-0.0056016157
-0.0236209680
-0.0242905081
-0.0006759518
0.0028778186
0.0060717044
0.0107865212
-0.0126997612
-0.0107964479
0.0001927778
-0.0004067233
0.0291664904
-0.0046817298
0.0005988498
-0.0054603362
-0.0103773375
-0.0089966560
0.0074181694
0.0287750455
-0.0083492150
-0.0055864066
-0.0062465675
-0.0254159122
-0.0016262462
0.0142703732
-0.0049056304
0.0359300343
-0.0076707409
-0.0214789672
0.0038839957
0.0120330419
0.0183334623
0.0248706537
-0.0064423267
-0.0112346260
-0.0093789270
-0.0039771631
-0.0026742004
0.0317178668
-0.0060221452
-0.0034846142
-0.0019134327
-0.0141587813
-0.0044207659
0.0139901099
0.0020996235
0.0254632537
-0.0049782991
-0.0157430902
0.0079590590
0.0115098343
0.0043282135
0.0221954106
-0.0146760737
-0.0028688525
-0.0079682834
-0.0038832247
0.0056847765
0.0067027741
-0.0109398489
0.0017745646
-0.0030844976
-0.0122268608
0.0007562445
-0.0041679071
0.0004105535
0.0081461553
-0.0073463706
-0.0114764778
-0.0019246619
0.0087720606
0.0119895592
0.0043222405
-0.0017140174
-0.0025043762
-0.0053610738
0.0004854243
-0.0052094399
0.0083173334
-0.0033846948
-0.0017467462
-0.0044857234
-0.0049088719
-0.0015011395
0.0050566245
0.0026851173
0.0063997335
-0.0030930553
-0.0042452957
0.0026987370
0.0037960432
0.0040936642
0.0034664640
-0.0055237387
-0.0024262262
-0.0064174242
0.0063949232
-0.0201591806
0.0118061252
0.0014804720
-0.0062428112
-0.0118502720
0.0008418063
-0.0021867883
0.0172076995
0.0016800434
0.0111300870
0.0003730178
0.0021284271
0.0056143103
0.0018374094
0.0009508594
0.0026609496
-0.0091680335
-0.0011862132
-0.0007478711
-0.0007846276
0.0015595268
-0.0002985810
-0.0015599558
0.0015999196
0.0022387330
0.0005107090
0.0016069684
-0.0029961927
-0.0014243692
-0.0001103254
-0.0004829249
-0.0002053184
-0.0014543599
0.0017190204
0.0007987797
-0.0002421114
0.0015835173
-0.0029995891
0.0030300624
-0.0002505235
0.0010306830
0.0027907884
0.0016852887
0.0018930001
0.0053232494
0.0035971010
-0.0013364375
-0.0018755315
0.0025112132
-0.0043523716
0.0015566987
0.0003306168
0.0018798104
0.0004415477
-0.0068335584
0.0013229177
-0.0016234725
-0.0065422478
-0.0065112816
0.0009502597
-0.0087073403
0.0101491564
-0.0027825889
-0.0002587414
-0.0007332653
0.0011068425
0.0006175400
0.0045970536
-0.0026759378
0.0086259624
-0.0009388146
-0.0018592723
-0.0003182952
0.0066394901
0.0006626476
0.0047929137
-0.0044705839
-0.0012551910
-0.0029072247
0.0039080591
-0.0112120782
0.0043908569
0.0013137992
-0.0030141134
-0.0055634035
0.0025448982
-0.0010649667
0.0080084330
0.0012453067
0.0033465145
0.0009545694
0.0024419123
0.0026339423
0.0005823532
-0.0008571031
-0.0005694052
-0.0043842004
-0.0003921952
0.0000104187
0.0094994420
-0.0240401325
0.0068168233
0.0093166626
-0.0072095592
-0.0090928883
0.0100129012
-0.0037218654
0.0192191198
0.0041901923
0.0023841881
0.0063635943
0.0098455639
0.0080153759
-0.0041744576
-0.0087479915
-0.0011676409
-0.0094099111
0.0005234529
-0.0034911400
0.0111288877
-0.0259214337
-0.0001420931
0.0053762193
-0.0050891574
-0.0118346983
0.0109510072
-0.0014075919
0.0140886943
0.0046660499
-0.0027257545
0.0029703254
0.0109099841
0.0045772475
-0.0029584233
-0.0049846770
-0.0083584462
-0.0070804383
-0.0024231012
-0.0025996326
0.0011876611
-0.0062111770
0.0064440518
-0.0000338667
-0.0014155894
-0.0020729214
0.0005656196
-0.0001078600
0.0052411939
0.0000049554
0.0055346572
0.0007121775
0.0000671861
0.0010734626
0.0022574748
0.0001663614
0.0029724819
-0.0030791184
-0.0018849669
-0.0012000934
-0.0009426466
-0.0016531558
0.0085874925
0.0002027117
-0.0022014864
-0.0010148983
-0.0035005440
-0.0015235968
0.0063777553
0.0000399815
0.0088595110
-0.0002276526
-0.0031792304
0.0026975098
0.0019685988
0.0004890870
0.0071271320
-0.0036163216
-0.0037771599
-0.0082585938
0.0025860788
-0.0112570774
0.0066652560
-0.0032617303
-0.0014881045
-0.0061172207
-0.0000849724
0.0014230041
0.0075244743
-0.0032428612
0.0101061702
-0.0007732722
-0.0007308888
-0.0008817600
0.0055340928
0.0049494507
0.0014876111
-0.0028490853
-0.0044281406
0.0004606261
-0.0009741458
-0.0021577891
0.0084220335
0.0036442036
0.0006819012
0.0052651905
0.0043339944
0.0012622698
0.0055384736
-0.0066470902
0.0086378933
0.0039459850
0.0008643549
-0.0006244926
0.0036627071
-0.0044357974
0.0082826993
0.0003364679
0.0052410074
0.0017130941
0.0166454235
-0.0382017559
-0.0012081044
0.0174371433
-0.0124135458
-0.0181445560
0.0202157492
-0.0016195965
0.0299724258
0.0001042120
0.0012010193
0.0114779437
0.0226540549
0.0066755816
-0.0105565972
-0.0108744028
-0.0089713786
-0.0053761011
-0.0038533818
-0.0105967149
0.0116124674
-0.0329736282
0.0081570733
0.0036534276
-0.0073165820
-0.0158939555
0.0114064055
0.0021018664
0.0212811517
-0.0048246495
0.0118806058
0.0036670234
0.0101227646
0.0006657781
0.0041450309
-0.0009733811
-0.0019943261
-0.0060922334
0.0050965687
0.0013445386
0.0234010553
-0.0592442254
0.0111032612
0.0266304016
-0.0223575886
-0.0283128096
0.0242634467
-0.0053892557
0.0542056913
0.0012690954
0.0123466165
0.0162539712
0.0284131334
0.0148164979
-0.0141640631
-0.0155074464
-0.0033555189
-0.0138452882
-0.0098479302
-0.0201244272
0.0200787605
-0.0569528548
0.0140827966
0.0046527047
-0.0101807850
-0.0241752520
0.0220860524
0.0041634737
0.0340973635
-0.0097016852
0.0195477189
0.0057296408
0.0175445543
-0.0006276695
0.0087822453
-0.0025583361
-0.0055737804
-0.0103268188
-0.0130354217
-0.0024642955
0.0111283371
-0.0396216740
0.0371217294
0.0206252395
-0.0151327992
-0.0072595528
0.0174754433
-0.0047694229
0.0473248639
-0.0079151340
0.0300782444
0.0149650671
0.0112312062
0.0126606839
0.0013310566
-0.0213733570
0.0217213065
-0.0173552524
-0.0217204380
-0.0280868926
0.0201699053
-0.0683641001
0.0369526303
0.0027540244
-0.0115999260
-0.0238622903
0.0202777926
0.0034077787
0.0445343829
-0.0111327368
0.0336826577
0.0055820098
0.0112095894
0.0028891672
0.0180734989
-0.0060020227
0.0072635576
-0.0205476256
-0.0524693254
-0.0359594387
-0.0097743939
-0.0126220210
0.0723859267
-0.0138627412
0.0071473962
0.0276542155
0.0063063948
0.0123003215
0.0153367010
-0.0409782308
0.0615791209
0.0031627152
-0.0210403192
-0.0140451646
0.0502151734
-0.0077486815
0.0513207897
-0.0097587615
-0.0509745095
-0.0503374620
-0.0002146488
-0.0462354260
0.0880251957
-0.0152923312
-0.0070019257
-0.0015112827
-0.0019431501
0.0094540946
0.0462502173
-0.0385322400
0.0848267358
-0.0012145408
-0.0221255040
-0.0058623376
0.0532215391
0.0063073757
0.0549101862
-0.0219872407
-0.0429116319
-0.0455153516
-0.0154567278
-0.0025916931
0.0631631340
-0.0293398134
0.0044775725
0.0113719639
-0.0170385225
0.0180702896
0.0111678012
-0.0502119820
0.0800053117
-0.0088611494
-0.0328913614
-0.0239957430
0.0554417354
0.0266573464
0.0503556807
0.0028468431
-0.0246351485
-0.0503317515
0.0099316214
-0.0492527501
0.0351743247
-0.0256506658
-0.0048312136
-0.0289738475
-0.0065282756
0.0110101707
0.0239035418
-0.0183308920
0.0452772425
-0.0126845729
-0.0113828845
-0.0116716308
0.0374480798
0.0285354064
0.0072681283
-0.0116153998
-0.0295333830
-0.0186741393
-0.0181749655
0.0367994034
0.0185358761
-0.0257822641
0.0237508147
0.0349936244
-0.0059617613
0.0139676678
-0.0406691277
-0.0208665141
0.0063615663
-0.0085341511
-0.0238475736
-0.0226998788
0.0352231763
0.0039164057
0.0171385616
0.0094536298
0.0096065839
-0.0077878308
0.0253856864
-0.0462744606
-0.0316600959
0.0068615596
-0.0031979008
-0.0266582666
0.0298296355
0.0058133220
0.0062104937
0.0043375409
-0.0292689022
0.0051632271
0.0327771538
-0.0053080246
-0.0087618507
-0.0023012779
-0.0423752271
0.0035952019
-0.0130491479
-0.0178727476
-0.0154152451
0.0432675073
-0.0228346560
-0.0266553596
0.0260397897
0.0308699349
0.0055422333
0.0291685061
-0.0534942653
-0.0435354222
0.0021486960
-0.0061373453
-0.0063176530
-0.0464521811
0.0283621768
0.0194220726
-0.0055858175
0.0407783000
0.0223621596
-0.0342258519
0.0229307816
-0.0439183105
-0.0457095989
-0.0260987984
-0.0058239683
-0.0638717607
-0.0081890056
0.0130204853
0.0003624601
0.0023666455
-0.0059821435
-0.0208337819
0.0124896754
-0.0183854222
0.0022178602
0.0535152785
-0.0541970431
0.0111377752
-0.0089112571
-0.0107033760
-0.0062212810
0.0109095053
0.0093084986
-0.0066454648
0.0031080785
0.0074489986
-0.0022456042
0.0112196024
-0.0023721504
-0.0241135158
0.0211011202
0.0004692821
-0.0049660922
-0.0155215953
0.0146942755
0.0088279552
0.0120412510
0.0121716234
-0.0025053048
-0.0394268095
0.0149187098
-0.0127993012
-0.0569669899
-0.0381930631
0.0253573910
-0.0143294257
0.0198459137
0.0239104229
-0.0549921360
-0.0008542256
-0.0476884391
-0.0195951824
0.0131111806
-0.0379718831
0.0221986545
0.0279576810
-0.0674392269
0.0191492105
-0.0014119638
-0.0096282477
-0.0062057079
0.0254792610
-0.0129033456
-0.0249705649
0.0143614206
0.0004499031
-0.0182139663
0.0009842436
-0.0365772901
0.0177498886
-0.0240103368
-0.0186545747
-0.0173216704
-0.0057741672
0.0095063093
0.0151087638
-0.0165410731
-0.0016411490
-0.0200980492
-0.0347407935
0.0044351639
0.0247824581
-0.0604183323
-0.0534436300
0.0530129163
0.0205747213
0.0219742597
0.0186275911
-0.1102553278
0.0287188531
-0.0992985917
-0.0291473264
-0.0026385149
-0.0352766964
0.0319277452
0.0023236576
-0.0780213511
0.0058500033
-0.0384824975
-0.0064764971
-0.0142077114
0.0498708564
0.0012539784
-0.0181006698
0.0410098947
0.0624727290
0.0258247998
0.0098251041
-0.0691813801
0.0035973601
-0.0484184957
-0.0017066378
-0.0100774714
-0.0196706368
0.0296815966
-0.0372820757
-0.0061050481
0.0002484097
-0.0134678363
-0.0277072120
0.0283152198
-0.0493825809
-0.0231829469
-0.0138224193
0.0149602920
-0.0164795324
0.0386124424
0.0043139088
-0.0205026189
0.0293026482
-0.0557296246
-0.0070063435
0.0232049382
-0.0053648412
0.0122209959
-0.0147942405
-0.0561260765
-0.0189418623
-0.0719734436
-0.0583874399
-0.0091707691
0.0437440095
-0.0283862830
-0.0646810119
0.0787469884
0.0796079562
0.0552126009
0.0419421558
-0.1361892733
-0.0207818242
-0.0709849385
-0.0200040106
-0.0086928186
-0.0694257259
0.0780605085
-0.0217988820
-0.0487814756
0.0199624602
-0.0533256074
-0.0616222775
0.0065076215
-0.0132757860
-0.0016977189
-0.0505402323
0.0423494852
0.0243249430
0.0338454031
0.0273810550
-0.0635395153
-0.0121906935
-0.0256418156
-0.0190671697
-0.0059849739
-0.0412886516
0.0617768357
-0.0007999867
-0.0352271198
-0.0019357935
-0.0472239439
-0.0454032160
-0.0148916511
0.0566409029
-0.0398556702
-0.0548288858
0.0631814830
0.0668591670
0.0382536022
0.0431097120
-0.1171181747
-0.0371299006
-0.0486946500
-0.0160485260
-0.0060873930
-0.0714069495
0.0618196102
0.0009919219
-0.0394686631
0.0390324970
-0.0124413748
-0.0507192663
0.0157027869
-0.0256292998
-0.0365965389
-0.0461665199
0.0248965565
-0.0193502680
0.0115478739
0.0209080850
-0.0481358887
0.0048930518
-0.0360372300
-0.0258283368
0.0017466705
-0.0319947915
0.0333526189
0.0293941790
-0.0569837943
0.0040737335
-0.0514879518
-0.0322355318
-0.0126339032
0.0371365392
0.0020027570
-0.0364088105
0.0476696546
0.0605291968
0.0288753207
0.0235610064
-0.0775850033
-0.0167914962
-0.0323602742
-0.0093768382
-0.0132014284
-0.0389840975
0.0517715511
-0.0193521988
-0.0108485266
0.0081437644
-0.0332189734
-0.0470072127
-0.0075383373
0.0203337387
-0.0082359624
-0.0535105042
0.0362760148
0.0167999067
-0.0022752477
0.0213061129
-0.0669504094
-0.0067970775
-0.0157339524
-0.0269035751
-0.0231016737
-0.0355742350
0.0493388360
0.0223370398
-0.0229551875
0.0053811672
-0.0301134420
-0.0552885705
-0.0016823169
0.0107463511
-0.0163874159
-0.0609109352
0.0362014839
0.0015056552
-0.0063186110
0.0200176932
-0.0686220930
0.0045941505
-0.0252927911
-0.0345925207
-0.0238915758
-0.0338341779
0.0499741011
0.0316668106
-0.0381776681
0.0004158633
-0.0550807391
-0.0756101734
-0.0067887553
0.0018559674
0.0430440693
-0.0802676143
0.0325137542
-0.0067401851
-0.0387096876
0.0052593203
-0.0497737531
0.0286177527
0.0108276830
-0.0519398135
-0.0610733692
-0.0106546466
0.0709397209
0.0349633663
-0.0091976700
-0.0421867569
-0.0282516646
-0.0653686797
-0.0028361183
-0.0125009104
0.0577685050
-0.0747709223
0.0032189592
-0.0603020757
-0.0875433614
-0.0210328116
-0.0018462268
0.0709273335
0.0321841683
-0.0638406027
-0.0782002451
0.0294354979
0.0457566041
0.0582500540
0.0018651125
-0.0719724745
-0.0543885757
-0.0657217138
-0.0058918828
0.0260771990
-0.0137702214
-0.0779193243
0.0607117487
0.0303301158
0.0037764400
0.0220134473
-0.1103268010
0.0190687239
-0.0575914336
-0.0422810948
-0.0337250190
-0.0397647377
0.0686168891
0.0130006467
-0.0484721496
-0.0106511311
-0.0302015831
-0.0329382247
-0.0075052612
0.0227528195
0.0337898906
-0.0464319663
0.0231148140
-0.0024462016
-0.0404770143
-0.0151109002
-0.0430378576
0.0615911037
-0.0307681085
-0.0377851945
-0.0487968223
0.0180771368
0.0328330966
0.0087302674
-0.0088492768
-0.0517362614
-0.0219783649
-0.0355330585
-0.0059679389
0.0204904535
-0.0096250214
-0.0419851197
0.0264863035
0.0081564382
-0.0080217106
0.0136335024
-0.0508975256
0.0033086220
-0.0151071548
-0.0239506411
-0.0207318168
-0.0241373162
0.0347602599
0.0204585655
-0.0212444484
0.0014245627
-0.0600706088
-0.0244312348
-0.0242790850
0.0670218602
0.0409174717
-0.0385103372
0.0470906387
0.0646316087
-0.0054824327
0.0001775675
-0.0766428504
0.0270486557
-0.0363945122
-0.0196798525
-0.0437238928
-0.0064174598
0.0510604382
-0.0294905764
0.0124345204
-0.0301233672
-0.0253430068
-0.0150909332
0.0056605964
-0.0225090652
0.0234665985
0.0019773170
0.0059474911
0.0138263551
0.0214162480
0.0060339080
0.0037617174
-0.0109816976
0.0065247716
0.0074742035
0.0060474626
-0.0047734981
0.0187333054
-0.0152423532
0.0060415000
-0.0080066916
-0.0232260852
-0.0064711662
-0.0056340482
0.0295426636
-0.0081819936
-0.0089232647
0.0267715683
0.0385532259
0.0233969651
0.0115736680
-0.0452647416
-0.0054278830
-0.0297533818
0.0022057480
0.0026557098
-0.0198122577
0.0187556383
-0.0211798398
-0.0093567279
0.0084924461
-0.0242079095
-0.0156236488
-0.0054087089
0.0276328463
-0.0087141849
-0.0224064669
0.0297744180
0.0299469550
0.0119364318
0.0086621677
-0.0540092575
0.0090139300
-0.0406399858
-0.0093809937
-0.0073494438
-0.0168897468
0.0237963982
-0.0122113369
-0.0183000768
-0.0016287494
0.0150020026
0.0057484716
0.0073196483
-0.0090536663
-0.0232609087
0.0097780547
-0.0050371387
-0.0115088062
0.0088931931
0.0044168299
0.0043544890
-0.0040653974
-0.0111829932
0.0066179617
0.0181512214
-0.0046263260
-0.0124102919
0.0038780035
-0.0146324480
0.0131533421
-0.0182511601
-0.0034633105
-0.0208396007
0.0604861746
-0.0015345274
-0.0168317886
0.0249543915
0.0431660598
-0.0030435519
0.0109402113
-0.0498529739
-0.0117529747
-0.0090172363
-0.0050104420
-0.0171356119
-0.0207173182
0.0216363557
-0.0027497159
0.0088354955
0.0156803194
-0.0183307878
0.0062022834
-0.0144827177
0.0423505600
-0.0012570955
0.0018149380
0.0193574608
0.0473009939
0.0186608830
0.0111641588
-0.0328206762
-0.0189399811
-0.0078028091
0.0094573468
0.0004781432
-0.0187330792
0.0129410162
-0.0223139916
0.0127181215
0.0174598077
0.0005269639
0.0037191018
-0.0080116310
0.0213808397
-0.0020920033
0.0031343048
0.0007506379
0.0107225728
-0.0020128676
0.0056776875
-0.0019460147
-0.0144944117
0.0132018239
0.0042444896
0.0006140294
-0.0084935057
0.0017593377
0.0029373264
0.0120100551
0.0144431993
-0.0114641008
0.0277313506
-0.0232627026
0.0737093142
-0.0096320232
0.0128575882
0.0224522545
0.0642894045
0.0188798248
0.0086753928
-0.0433398343
-0.0171890023
-0.0269556571
0.0159829993
0.0012201291
-0.0169528700
0.0002953380
-0.0368855497
0.0177458375
0.0250817306
0.0007009515
0.0079853843
-0.0059548228
0.0199161362
0.0025585211
0.0050215470
0.0010448580
0.0077685694
-0.0046210020
-0.0017157164
-0.0015457270
0.0026372561
-0.0032324873
0.0023226015
-0.0032348013
0.0024203451
-0.0025615449
-0.0063950161
0.0073231078
0.0011515621
0.0199042814
0.0264810692
-0.0028610669
0.0307926615
-0.0279649961
0.0156203801
0.0005875237
0.0048647861
0.0013303591
-0.0042060779
-0.0119313281
0.0165805113
-0.0370317849
0.0074943169
0.0103373507
0.0045316752
-0.0235981274
-0.0128848491
-0.0103052898
0.0091307668
0.0032972906
0.0250579629
-0.0139415317
0.0462390356
-0.0068631496
0.0161648422
0.0053319802
0.0320911252
0.0051288324
0.0016504667
-0.0136093197
-0.0097978954
-0.0104856308
0.0128036508
0.0033071642
-0.0051239705
-0.0094988180
-0.0182534406
0.0139676808
0.0167556998
0.0006280851
-0.0002243918
-0.0013937509
0.0177615214
-0.0199439748
-0.0079993175
0.0134387727
0.0091475144
0.0044572281
0.0025041393
-0.0300850115
0.0132054385
-0.0354496996
-0.0050358994
0.0010346780
-0.0068800844
0.0012586136
-0.0044057818
-0.0175443073
0.0031257287
0.0016855430
0.0029924877
0.0105597334
-0.0193336642
-0.0066563096
0.0125989440
-0.0029491569
-0.0030608963
0.0199599369
0.0003444726
0.0102677962
0.0011807662
-0.0116266902
0.0091708131
0.0182878561
0.0020185317
-0.0062625986
-0.0135624405
-0.0103729534
-0.0013175645
-0.0165415835
0.0031245254
0.0005619220
-0.0042134675
0.0191748970
0.0152052605
0.0012960692
0.0239508333
0.0228177056
0.0037208330
0.0110922954
-0.0182381459
0.0103571616
0.0162143034
0.0092698430
-0.0027304803
0.0066377968
-0.0258793329
0.0171785246
0.0003023556
-0.0163703959
-0.0120592920
-0.0114083310
0.0248481941
0.0086353138
-0.0158263769
0.0133227427
0.0222540825
-0.0044189212
0.0078396516
-0.0228141491
-0.0122732824
0.0061440728
-0.0060293169
-0.0146096542
-0.0128148079
0.0199485952
0.0043971796
0.0089647430
0.0051212711
-0.0064843141
-0.0015124936
0.0066534104
-0.0186525537
0.0102209837
0.0087432655
-0.0027722025
-0.0000632762
0.0125038079
-0.0010101127
0.0126968479
-0.0013649494
0.0009019580
0.0065550465
0.0080747579
0.0042523250
0.0013516722
-0.0117081614
0.0017685078
-0.0071020343
-0.0173243456
-0.0196465098
0.0040028292
-0.0093573373
-0.0039538990
-0.0113510820
0.0128411006
0.0119685213
0.0204223963
0.0139806941
-0.0177414542
-0.0178357637
-0.0030722152
-0.0000951684
0.0062974885
-0.0197979323
0.0197658384
-0.0019058145
-0.0116932580
0.0092821095
-0.0095435572
0.0176735510
-0.0038968756
0.0143422842
0.0082596229
0.0175996826
0.0065051014
0.0325114566
0.0216182393
-0.0023381400
-0.0059496747
-0.0019583113
-0.0180035751
0.0149204763
0.0093522395
0.0040912835
-0.0045043715
-0.0341905743
0.0118666417
-0.0005782564
-0.0047510685
-0.0163232609
0.0105141256
-0.0255761887
-0.0036262272
-0.0094142153
0.0028072389
-0.0135467230
0.0075757868
0.0023570385
-0.0026048003
0.0063195077
-0.0089849965
-0.0057808554
0.0044479381
-0.0024002453
0.0074196759
0.0044226851
-0.0159207023
-0.0072848255
0.0003983589
0.0004858596
0.0254311651
-0.0474815793
-0.0211167935
0.0144770003
0.0016009502
-0.0099923266
0.0425472619
0.0002557428
0.0044180471
0.0120083327
-0.0431729704
0.0110602666
0.0352614740
0.0032309802
-0.0110526922
-0.0263803521
-0.0356250739
-0.0068354642
0.0136488539
-0.0214531241
0.0176214420
-0.0319949242
-0.0276276668
-0.0223361951
0.0011773672
-0.0437019216
-0.0104550392
-0.0026511814
-0.0113251459
0.0347956646
-0.0343248128
-0.0216685335
0.0015068706
0.0030961769
-0.0012864654
0.0275139233
-0.0451698573
-0.0127268056
-0.0169840401
0.0073727327
0.0009114510
0.0003553983
0.0148321125
0.0101188088
0.0083181074
0.0252594484
0.0216082293
-0.0027756737
-0.0064222253
0.0042679464
-0.0180252116
0.0099240182
0.0059977644
0.0049569166
0.0023993891
-0.0332666167
0.0065879950
-0.0098817263
0.0129386634
-0.0352871074
0.0338492926
-0.0715367484
-0.0377910907
-0.0228986300
-0.0009663354
-0.0609891209
0.0079707075
0.0038079911
-0.0025256614
0.0303237567
-0.0363651323
-0.0194598159
0.0189737373
-0.0029095855
0.0013271333
0.0291095030
-0.0646380692
-0.0130196688
0.0286082921
0.0293666311
-0.0059721757
0.0388745008
-0.0247939422
0.0074481393
-0.0015875270
-0.0027180997
-0.0208919590
-0.0141434273
-0.0165238292
0.0366954593
-0.0451589835
-0.0044256099
-0.0028139579
0.0168792995
-0.0296912250
0.0027610508
-0.0129228834
-0.0009760719
0.0238483617
-0.0061881643
0.0072295260
-0.0011988527
-0.0258846413
-0.0215820336
0.0002133287
-0.0398836740
-0.0336140683
-0.0125627858
-0.0164588555
0.0510593973
-0.0406864038
-0.0254528325
-0.0120777986
0.0152528181
-0.0124171741
0.0315996166
-0.0365366118
-0.0171611319
0.0327561981
0.0195080468
0.0091093723
0.0041043982
-0.0286352906
0.0053933804
-0.0078717538
-0.0297019802
-0.0199971651
-0.0181895241
-0.0034387599
0.0546377637
-0.0531558896
-0.0092483579
0.0044042873
0.0257934851
-0.0330658467
0.0062788898
-0.0314772483
-0.0145970203
0.0216134356
-0.0029690936
-0.0017965246
0.0095534212
-0.0098716555
-0.0116526622
-0.0087295790
-0.0270326294
-0.0354834249
-0.0055829695
0.0033656195
0.0169012711
0.0021303581
-0.0155243113
-0.0127495368
0.0067658802
-0.0083353614
0.0376649896
-0.0087346147
-0.0008801441
-0.0016572388
0.0030021425
-0.0125233188
0.0358786753
0.0203692877
-0.0146568180
0.0060447020
0.0038761247
-0.0382954013
-0.0160376752
-0.0191055107
0.0385020134
-0.0191758613
-0.0169579291
-0.0311478996
0.0200447644
0.0014185764
0.0078649373
0.0078263170
-0.0241598486
-0.0172969592
-0.0351433681
0.0271401058
-0.0754953076
0.0225200744
-0.0105859946
-0.0050232426
-0.0320129033
0.0111012948
-0.0050669509
0.0251198998
0.0217666692
-0.0034453606
-0.0079055121
0.0071715722
0.0133224540
0.0156205049
0.0009296527
-0.0231007868
-0.0371077209
-0.0076503857
-0.0661015206
0.0384625018
-0.1016095718
0.0056380089
-0.0421309943
-0.0037208609
-0.0733441733
-0.0148216508
-0.0044624130
0.0146676688
0.0464964357
-0.0159929254
-0.0339208180
-0.0035676028
0.0117849419
0.0246884131
0.0439121327
-0.0579218134
-0.0481062890
-0.0271538309
0.0022036091
0.0101132166
-0.0344107734
0.0406207683
0.0225603640
-0.0011378394
0.0211265558
0.0317927913
-0.0057606599
0.0250869869
-0.0004940632
-0.0013803535
0.0197698231
0.0139912302
0.0138257476
0.0063488102
-0.0413120985
0.0163658662
-0.0233491541
-0.0356645469
-0.0295418320
0.0384633571
-0.1136211971
0.0541079158
0.0159007854
-0.0121267970
-0.0188794831
0.0424670996
-0.0097822895
0.0594875870
0.0151230153
0.0048740454
0.0139219483
0.0243318932
0.0257061843
0.0168310179
-0.0377833662
-0.0060018161
-0.0535955890
0.0120638044
-0.0314662400
0.0380730745
-0.0870429429
-0.0269286196
-0.0058762139
-0.0118669514
-0.0550415958
0.0133702899
0.0051586332
0.0243086968
0.0117728543
-0.0224615494
-0.0049372831
0.0307190469
-0.0023376301
-0.0020035833
0.0268991130
-0.0575998323
-0.0081071615
-0.0361538614
0.0100884844
0.0136699563
-0.0430681493
0.0643392318
0.0323048209
-0.0039450119
0.0255113694
0.0349118967
-0.0201791956
0.0379203626
0.0240901706
-0.0119562681
0.0228189358
0.0109806309
0.0368731701
0.0014749058
-0.0693040810
0.0238383811
-0.0507435742
0.0193002898
0.0265126933
0.0213361499
-0.0324739907
-0.0252245004
0.0380197365
-0.0123211591
-0.0106521722
0.0330848659
-0.0064365944
0.0243041630
0.0131928455
-0.0426726691
0.0226599799
0.0418018022
0.0124481834
-0.0338816090
-0.0276843518
-0.0261319236
0.0014087860
0.0072050341
-0.0651109517
0.0589138373
-0.1356778598
-0.0387132296
-0.0335347073
-0.0068848752
-0.0921932482
0.0127694439
0.0018681464
0.0172765202
0.0478751569
-0.0452350237
-0.0280743839
0.0286175731
0.0040397297
0.0098701358
0.0412675466
-0.0982360282
-0.0351583309
0.0126660226
-0.0306150273
0.0412417201
-0.0804619205
-0.0491338156
-0.0139441506
0.0000969934
-0.0534117869
0.0205434670
0.0026059199
-0.0006757150
0.0364100336
-0.0597723755
-0.0129411526
0.0333841054
-0.0008961437
-0.0045316009
0.0186751223
-0.0808046024
-0.0118268066
0.0313833968
0.0696207342
0.0063566046
0.0202107393
-0.0256560933
0.0649964811
-0.0136772211
0.0195160439
0.0305659603
-0.0184545522
0.0199531943
0.0254770583
-0.0642434944
0.0369883572
0.0430489472
0.0278005274
-0.0599512679
-0.0583536956
-0.0068837470
0.0053586647
0.0149814776
0.0571188780
-0.0051994814
0.0307490492
0.0066782699
0.0532818738
-0.0120990419
0.0273550322
0.0143431222
-0.0186360638
0.0242160486
0.0170072317
-0.0267900256
0.0307925395
0.0196780199
0.0273760388
-0.0403948765
-0.0531611126
0.0241418216
-0.0029999763
0.0614671064
0.1314649371
-0.0324381964
0.1280765288
-0.0260388536
0.0898229525
-0.0215117026
0.0510972304
-0.0141042761
-0.0344928506
0.0125892791
0.0319480127
-0.0569306292
0.0446840205
0.0178881799
0.0433417970
-0.0957222660
-0.0651954343
0.0433076180
0.0241126186
0.0249892715
0.0667795587
-0.0258039510
0.0921839541
-0.0060198297
0.0385989661
-0.0043773065
0.0386533421
-0.0165560499
-0.0173339316
-0.0073211511
0.0176791407
-0.0265585377
0.0186227336
-0.0032242131
0.0205184612
-0.0418278495
-0.0354852159
0.0318019435
0.0101267245
0.0408109013
0.1226662755
-0.0393379633
0.1276852492
0.0084962625
0.0887805985
-0.0193232965
0.0658993407
-0.0137414363
-0.0329464520
0.0207265327
0.0168833843
-0.0270532991
0.0474668580
0.0065123355
0.0423462018
-0.0781641662
-0.0738949960
0.0719345170
0.0160493181
0.0050216590
0.0863803164
-0.0252106720
0.0729073858
0.0329249925
0.0754077562
-0.0110595404
0.0698119605
0.0189325372
-0.0216268783
0.0279154588
-0.0016021499
-0.0063070829
0.0490874083
0.0132538700
0.0309401019
-0.0453158118
-0.0859439618
0.0704672868
0.0025643810
0.0429062389
0.0877581334
-0.0304449863
0.1009764220
-0.0180796504
0.0596311602
-0.0154901360
0.0422348482
-0.0134315480
-0.0124152164
0.0090573193
-0.0078304047
-0.0114851675
0.0338133423
0.0099551055
0.0136161435
-0.0591688549
-0.0327772908
0.0442902795
0.0371369043
0.0204538583
0.1018620923
-0.0247814299
0.0799860827
0.0212384993
0.0869099056
-0.0168485505
0.0666249924
0.0157994828
-0.0271324174
0.0323098466
0.0093072949
-0.0196910343
0.0533338677
0.0196195790
0.0384698663
-0.0619731440
-0.0901910443
0.0668104395
0.0046164022
0.0249975279
0.0331400059
0.0060656359
-0.0004500982
-0.0144995194
0.0328576914
-0.0152373393
-0.0076115448
0.0045969410
-0.0109440595
0.0253634512
0.0174495322
-0.0189945442
0.0163199454
0.0207806906
0.0166136696
-0.0347917073
-0.0195185343
-0.0011155959
0.0010403871
0.0159957479
0.0257275059
0.0132306995
-0.0259738825
0.0219239313
0.0309985609
-0.0258812607
-0.0276544376
-0.0136367898
-0.0308234385
0.0534829894
0.0555469228
-0.0128709660
0.0075635170
0.0052568589
0.0486014981
-0.0333140473
-0.0280029018
0.0087584471
-0.0419381662
0.0146955694
0.0015120616
0.0259946889
-0.0547316276
-0.0011636260
0.0133084527
-0.0193816944
-0.0429639220
-0.0044197793
-0.0200545497
0.0403847007
0.0535232289
-0.0253749553
-0.0019906546
0.0131711193
0.0331573585
-0.0216758477
-0.0101942780
-0.0236240259
-0.0367193879
-0.0050421248
-0.0243908504
0.0420002169
-0.1039760728
0.0183590082
0.0068896966
-0.0190004864
-0.0531127482
0.0124106719
-0.0201088299
0.0565674218
0.0592120740
-0.0161199350
-0.0039867745
0.0176540712
0.0376961327
-0.0041816291
-0.0188039484
-0.0296710866
-0.0593992263
0.0392288198
-0.0219829211
0.0184340446
-0.0301630185
-0.0453621216
-0.0255143814
-0.0149222780
-0.0742231234
-0.0450628580
-0.0043319659
0.0082509193
0.0431654759
-0.0177459390
-0.0300932111
-0.0039845572
0.0050798871
-0.0127456675
0.0604643991
-0.0509720408
-0.0065404905
0.0188476120
-0.0673275847
0.0263476364
-0.0623245792
-0.0365849502
-0.0597405113
-0.0062075916
-0.0895724219
-0.0474552209
0.0065853693
-0.0001138563
0.0366953190
0.0033234031
-0.0486214788
-0.0157833282
-0.0086161334
0.0212720485
0.0847393257
-0.0649691752
-0.0162802503
0.0051977340
-0.0061761173
0.0225275229
-0.0470748376
0.0226712727
0.0011512274
-0.0165713311
-0.0467985645
-0.0252759037
-0.0340011090
0.0372806966
0.0865846081
-0.0276604684
-0.0154659280
-0.0093247605
0.0526316962
-0.0133119208
-0.0128712175
-0.0173734687
-0.0666096929
0.0190241677
-0.0010771419
0.0141688078
-0.0190856200
-0.0214631588
0.0001963516
-0.0088074868
-0.0308975572
-0.0112787511
-0.0090835920
0.0103989921
0.0361846942
-0.0232799893
-0.0076072628
0.0063588740
0.0134486532
-0.0150560019
0.0065496033
-0.0268757263
-0.0132596691
-0.0017022921
-0.0241960070
0.0097079729
-0.0312503932
0.0346354135
-0.0187057326
-0.0138718193
-0.0451449517
-0.0444027557
-0.0226983536
0.0302874940
0.0548710729
0.0130467748
-0.0247861738
-0.0288758116
0.0353646027
0.0075893298
0.0179594487
-0.0010165636
-0.0528262686
-0.0051439031
-0.0586267566
0.0036051239
-0.0224664843
0.0145473267
-0.0555435401
-0.0014373355
-0.0572012475
-0.0604078324
0.0018600039
-0.0017749689
0.0239150567
0.0370337359
-0.0442393800
-0.0416658523
-0.0039718258
0.0369417901
0.0674520198
-0.0142380240
-0.0241141019
-0.0184667755
-0.0502933842
-0.0013975309
-0.0154137292
0.0553678246
-0.0486292458
-0.0041802748
-0.0459813871
-0.0697537138
-0.0155329772
0.0136110597
0.0464502540
0.0434702472
-0.0433643680
-0.0586319607
0.0221123833
0.0376342419
0.0450555695
0.0131665659
-0.0538607837
-0.0355378050
-0.1134524228
-0.0212188809
0.0090903210
0.0856634476
-0.1257705721
0.0051396870
-0.0841104797
-0.1555725514
-0.0100135935
-0.0126706284
0.0573391887
0.0988906542
-0.0997875078
-0.1318906625
0.0092350580
0.0915994187
0.1296607845
0.0203417790
-0.0705842545
0.0066335792
-0.1113606517
-0.0152943954
0.0220326255
-0.0029295101
-0.1338089025
0.0079929957
-0.1093716175
-0.1513463094
0.0131406176
-0.0470440561
0.0360843789
0.0675408996
-0.1039245042
-0.1043823386
-0.0270675123
0.0726902533
0.1727520444
-0.0347903126
-0.0164159203
-0.0051569689
-0.0608413675
0.0453911224
-0.1151461116
0.0544036577
-0.0227153298
-0.0355486957
-0.1202242211
-0.0447832720
-0.0323110356
0.0845100431
0.0883061061
0.0288048647
-0.0362551203
-0.0202912321
0.0558169970
0.0164932145
0.0310387297
-0.0286685202
-0.0944055694
0.0025916122
-0.0737310331
0.0004113958
-0.0029601704
-0.0062255066
-0.0774809508
0.0022312036
-0.0780844844
-0.0825698614
0.0074815330
-0.0185385911
0.0272092865
0.0350933390
-0.0627609705
-0.0549624533
-0.0144724850
0.0449663120
0.1000465031
-0.0318608194
-0.0155267123
-0.0109337192
-0.0402750887
-0.0003147662
0.0017323808
-0.0056642514
-0.0397176380
0.0091315620
-0.0276288622
-0.0277315025
0.0122071740
-0.0176743619
0.0002055638
0.0142318660
-0.0271267795
-0.0230102894
-0.0198918425
0.0321081469
0.0414110486
-0.0155803767
0.0009453579
0.0002922657
0.0188907382
-0.0334741758
0.0616503164
0.0347637214
0.0251226529
-0.0200328693
0.0261481550
-0.0261338221
0.0176868207
0.0442362090
-0.0816193471
0.1045785250
0.0235530119
-0.0137427969
-0.0234108005
0.0075165716
0.0148524276
0.0824314065
0.0451283802
-0.0143235692
0.0054767673
-0.0126264084
0.0276968929
0.0251019066
