200,1,20,16,0.010000,0.010000,8192,Rectangle
-0.0000463506
0.0013548951
-0.0000741476
0.0001153078
-0.0001078307
-0.0001115352
-0.0000365401
-0.0000405061
0.0004144572
-0.0000747945
-0.0000763006
-0.0000759655
0.0000937294
-0.0000282465
0.0000668713
-0.0000322430
0.0000103021
0.0000065417
-0.0000567277
0.0006178823
0.0000547467
0.0004441370
0.0000633865
0.0000027881
0.0000801861
0.0000051386
0.0001835614
-0.0000813560
0.0001129969
0.0000619631
0.0006081436
-0.0001056389
0.0006568000
-0.0001220195
0.0002334899
-0.0001102417
-0.0000702077
0.0004957878
0.0000669489
0.0005088902
-0.0001160829
-0.0000396030
-0.0000850530
-0.0000041797
0.0000658987
0.0001414614
-0.0000979395
0.0000393761
-0.0000235638
0.0003990867
0.0005337007
-0.0000512737
-0.0000997715
0.0000160872
-0.0000226111
-0.0000521469
-0.0000962637
0.0004682132
0.0002797041
0.0003381139
-0.0000429420
0.0003094557
0.0001866145
-0.0000855252
0.0005394413
0.0001972391
0.0007103811
0.0000173887
-0.0000984004
0.0001289454
-0.0000650406
-0.0000398734
0.0000684273
-0.0000306639
0.0002434246
0.0000652421
-0.0000669344
0.0001456808
-0.0000931439
0.0002986214
-0.0001075060
0.0002024406
0.0002735572
0.0000930977
0.0006339234
-0.0000883306
-0.0000808944
-0.0000933307
-0.0000743632
0.0000342369
0.0007219925
0.0002643368
0.0005578587
-0.0000498659
0.0000729640
-0.0000398519
0.0013050817
-0.0001131542
-0.0000889089
0.0005730276
0.0000593155
-0.0000267145
-0.0000602905
0.0002250875
-0.0000122741
-0.0000173360
-0.0001197144
0.0000667867
0.0005629303
-0.0000860906
0.0000124167
0.0002151888
0.0000310779
0.0000159011
0.0001202470
0.0004222840
-0.0000671138
0.0000661820
0.0002372315
0.0003784534
0.0000070432
0.0003645534
0.0000055514
0.0000674135
-0.0001180012
0.0000900225
-0.0000154029
0.0001219941
-0.0000797621
0.0000116761
0.0003848645
-0.0000016503
0.0005244761
0.0000881551
0.0000350885
0.0001296186
0.0002063128
-0.0000134084
-0.0000149162
-0.0000858100
-0.0000924286
0.0001617817
0.0006682803
0.0007240678
0.0005699730
0.0000035808
-0.0000425951
0.0000060414
-0.0001121674
-0.0000094083
0.0005601354
-0.0000440696
0.0007354299
0.0008164009
-0.0000255497
-0.0001119424
0.0002036778
0.0003092847
-0.0000207645
-0.0000723516
0.0001667110
-0.0000341506
0.0005100238
0.0000998215
-0.0000017373
0.0002839578
0.0000306789
0.0003077707
0.0004272694
0.0001798309
-0.0001180449
-0.0000877532
0.0000902271
0.0000041569
0.0006409509
0.0001310429
0.0002563152
-0.0001103180
-0.0000262731
0.0002120739
-0.0000921374
0.0003441863
0.0001591695
0.0004436322
0.0000613086
0.0005296584
0.0009508103
0.0000097064
0.0001039739
-0.0000020070
0.0001365070
-0.0001018857
0.0000929062
0.0007781560
0.0005612585
-0.0000492355
-0.0000712528
-0.0000294705
0.0000171446
0.0003484690
-0.0000553712
0.0002839184
0.0001930033
0.0002587464
0.0000035135
0.0002740617
0.0000974441
0.0003659916
-0.0000919563
0.0004276156
0.0000252171
0.0001323250
-0.0000955028
-0.0000062170
0.0001026428
-0.0000730899
0.0001805691
0.0003082818
-0.0000146580
-0.0000679935
0.0001718084
-0.0000245122
0.0004446220
-0.0000274787
0.0000449697
0.0000283824
0.0004507765
-0.0000350826
-0.0000785981
0.0003332670
-0.0001164751
-0.0000197806
-0.0000442752
-0.0000779519
0.0000886942
0.0001163247
-0.0000349791
-0.0000875276
0.0002333671
-0.0000914607
0.0001032511
-0.0001005251
0.0000279663
-0.0001088462
0.0002044612
-0.0000762624
0.0003447931
0.0000287883
0.0002926930
-0.0000917786
0.0002311402
-0.0000493831
-0.0000371596
0.0000161766
-0.0000599775
-0.0000261017
-0.0000666949
0.0000180591
-0.0000094123
0.0001062868
0.0000066645
-0.0000321830
-0.0000736089
0.0000002828
0.0000364464
0.0000124449
-0.0000474421
0.0003555107
-0.0000199503
-0.0000503187
-0.0000279731
0.0000513240
0.0002318900
-0.0001180496
-0.0000817103
0.0000212701
0.0000419138
0.0000833281
-0.0000543518
0.0000250145
0.0000174827
0.0001416652
0.0003120375
0.0001878391
0.0000377209
0.0000844737
0.0001185383
-0.0000222192
0.0001024437
-0.0000940768
0.0004424603
-0.0000710431
-0.0000089475
-0.0000245856
-0.0000575324
0.0004779874
-0.0000812434
0.0000768273
0.0001064278
0.0003553514
-0.0000428840
0.0000743921
-0.0000451282
0.0001729535
0.0000968115
-0.0000950185
0.0003982971
0.0001608305
0.0000666228
0.0003069808
0.0001577630
-0.0000473880
-0.0000762780
0.0009573848
-0.0000106657
-0.0000998744
0.0003873446
0.0001169725
0.0008099397
0.0001107279
-0.0000845961
0.0000923916
-0.0001081084
0.0007410417
-0.0000363058
-0.0000092427
-0.0000671107
0.0001506192
0.0000371469
0.0002705838
0.0012958339
0.0001909025
-0.0000507807
0.0000615005
-0.0000420429
0.0003741522
0.0000870112
0.0001238214
-0.0000647168
-0.0000648060
0.0002585996
0.0001042654
0.0002534467
0.0001939821
0.0000832318
0.0005280245
-0.0000477700
-0.0001049187
0.0007939887
0.0001731389
-0.0001008894
0.0004226076
-0.0000976443
-0.0000417009
0.0003589929
0.0000704394
-0.0000923754
-0.0000109344
-0.0000232325
-0.0000557377
0.0005464862
0.0007542110
0.0001185261
0.0005484265
-0.0001137261
0.0002049615
0.0011885663
-0.0000998878
0.0002006713
-0.0001012986
-0.0000628930
0.0001610153
0.0000279091
0.0008564747
0.0001296768
0.0003424777
0.0001657846
0.0001872917
-0.0000689354
-0.0000732017
0.0002024846
0.0004829009
-0.0000178021
0.0001806540
0.0000287487
-0.0000958633
0.0005311865
-0.0000750275
-0.0000981166
-0.0000314675
-0.0000713970
0.0002681541
-0.0000757547
0.0003909812
0.0002535996
0.0008211844
0.0005665989
0.0000714308
0.0000300598
0.0000151918
0.0001434618
-0.0000790365
0.0000347369
-0.0001028346
0.0000941000
0.0002668928
-0.0000375930
-0.0000028526
0.0003685038
-0.0000364414
-0.0000065994
0.0003957418
0.0001030255
0.0001621324
-0.0001095164
-0.0000872404
0.0001210960
-0.0001129553
-0.0000522230
0.0001373821
0.0000008369
0.0004583701
0.0000274961
0.0002328797
0.0001572639
0.0003154603
0.0000058772
0.0000793099
-0.0001028021
0.0003824657
-0.0001224747
-0.0000248859
0.0000178127
0.0001623503
0.0002997077
0.0004154807
0.0001529158
0.0000073821
0.0000670539
0.0000163401
0.0001129418
0.0005344442
0.0003418585
-0.0000810802
0.0001073918
-0.0000723902
-0.0000110135
0.0004554517
0.0002755278
0.0000542500
0.0000129831
-0.0000916491
-0.0000593977
-0.0000054791
-0.0000430701
-0.0000610624
-0.0000269601
-0.0000843188
-0.0000396881
0.0006382415
-0.0000401656
0.0003006288
0.0001231493
0.0000610251
0.0000921353
0.0002081922
0.0003178689
-0.0000425385
0.0001240895
0.0001019380
-0.0000951718
0.0003108696
0.0000175886
0.0001239738
0.0000291392
-0.0001134231
-0.0000379425
-0.0001053288
-0.0000424869
0.0000126755
-0.0000214877
0.0000718295
0.0001110763
-0.0001210340
-0.0000488241
-0.0000340159
0.0001722816
0.0000428422
0.0000115710
0.0000243804
0.0000597700
0.0005527326
-0.0000435146
0.0002960973
0.0001511703
0.0002226730
0.0006599951
-0.0000377948
-0.0000962771
-0.0000896859
0.0002392717
0.0000751290
0.0013859699
0.0000564892
-0.0000388642
0.0000627546
0.0000447872
0.0003414283
-0.0000276831
0.0005263423
0.0000128335
0.0002125953
0.0004424284
-0.0001091575
0.0004437359
-0.0001197175
-0.0000135861
-0.0000482811
0.0005762874
0.0007751274
0.0002052690
0.0001808409
-0.0001092669
0.0001408840
0.0001498753
0.0000064521
-0.0000402016
-0.0000567932
-0.0001074039
-0.0000738429
0.0001131980
-0.0000915946
0.0002640361
-0.0001213234
0.0001586673
0.0007588615
0.0000351284
0.0002337755
0.0002774499
-0.0000246142
0.0000392035
0.0001617687
-0.0001058568
0.0001612677
0.0003870021
0.0007731365
0.0001254357
-0.0000990162
0.0000617719
-0.0000881082
0.0002938864
-0.0000976645
-0.0001171544
0.0001960540
-0.0001202953
0.0000560209
0.0001708299
0.0002887340
0.0001978402
0.0006160742
-0.0000744929
-0.0000096353
0.0001644811
0.0000026497
-0.0000682412
0.0001249324
0.0001351952
-0.0000690992
0.0000272017
0.0001818755
0.0002123890
-0.0000080699
-0.0000813243
0.0002870115
-0.0000862088
0.0003455580
0.0000864701
0.0002316155
0.0003613727
0.0000312128
0.0005148060
0.0008902536
-0.0000844295
0.0004375376
0.0006641691
0.0000673667
0.0001884629
-0.0000434796
0.0003508910
0.0001922303
-0.0000283645
0.0002984320
0.0001993893
0.0002153057
-0.0000996265
0.0001775500
0.0001766387
0.0001642530
0.0001172151
0.0003036557
0.0000097648
0.0001563147
-0.0000912020
-0.0000548828
0.0002449105
-0.0000565154
0.0005402846
0.0003133024
-0.0000045088
0.0000537972
0.0001640813
-0.0001111435
-0.0000772496
0.0000546018
0.0004713675
-0.0000298834
-0.0000154745
0.0006730116
0.0002207855
0.0000131563
-0.0000858088
-0.0001163295
-0.0000005080
-0.0001068992
-0.0001015085
-0.0000067111
0.0012154127
0.0001128312
-0.0000926282
-0.0000859396
0.0003385827
0.0000206512
-0.0000770378
0.0000198527
0.0001020160
0.0000344778
-0.0001117364
0.0000299217
0.0001861577
-0.0000334038
-0.0000997143
-0.0000457569
0.0007321646
0.0001444865
0.0000819044
-0.0000114802
0.0000135846
0.0004732594
-0.0001005442
0.0003041808
0.0000162187
-0.0001099725
0.0003622852
0.0000432033
0.0002170920
0.0006369929
0.0003278010
0.0000022333
-0.0000325424
0.0000011509
0.0006232072
-0.0000954602
0.0000823347
0.0001104486
-0.0000578704
0.0003750845
0.0000241775
0.0005541046
0.0000197133
0.0004522696
0.0000720253
0.0000412910
0.0006663082
0.0004498848
0.0000057584
0.0001407635
-0.0000214970
0.0001189723
0.0006170816
-0.0001118505
0.0004143791
0.0001577737
0.0006336318
-0.0000235290
-0.0000279100
0.0001576756
0.0002529867
-0.0000632605
0.0000370411
0.0001318960
-0.0000742612
0.0001699600
0.0004034835
0.0000039793
-0.0000666800
0.0004910397
-0.0000154616
0.0000445992
-0.0000623061
0.0006072648
0.0001682506
-0.0000385893
-0.0000954053
0.0004106621
-0.0001045263
0.0000166703
0.0002450423
0.0000717507
-0.0000393467
-0.0000325828
0.0001157778
-0.0000138651
-0.0000542786
0.0000228340
0.0001815318
0.0006155215
-0.0001198848
-0.0000726881
0.0000501582
0.0000329758
0.0001701859
-0.0000698132
-0.0000701316
0.0005026769
0.0000027047
-0.0000555157
-0.0000345056
0.0000506230
0.0002021785
0.0000752790
0.0000915413
0.0000724814
-0.0000236609
-0.0001167582
-0.0001048917
-0.0000325990
0.0002074603
0.0006022988
0.0002044969
0.0001074045
0.0001444911
0.0005879221
-0.0000681594
-0.0000964460
0.0000820047
0.0000768858
0.0000898027
-0.0000358248
-0.0000650339
-0.0001106646
0.0000456178
0.0000632048
-0.0000297637
0.0000471252
0.0000445473
0.0001150584
-0.0000556463
0.0003712347
-0.0000486512
0.0004748852
0.0002791600
0.0000057262
0.0001814378
-0.0000198923
0.0006514553
0.0002526982
-0.0001156138
-0.0001167032
-0.0000117799
-0.0000925302
0.0002414900
0.0004486094
-0.0000528465
-0.0000062067
-0.0000974228
0.0001632564
0.0002932858
0.0001392240
0.0014999584
0.0003325403
0.0006701486
0.0004509076
0.0001312628
-0.0000719853
-0.0000531953
0.0003291568
-0.0000946433
0.0001310942
0.0004250054
0.0004402007
-0.0000165601
0.0001385731
0.0000426125
-0.0000014356
-0.0000799840
0.0006315337
-0.0000616782
0.0000191919
-0.0001071623
-0.0000022567
-0.0000318010
0.0002465159
0.0000010500
0.0001368329
0.0007529212
0.0000610441
0.0000761400
0.0000078328
0.0003125620
0.0000872915
0.0001287994
0.0002198382
-0.0000782006
0.0009242572
-0.0000317635
0.0000606142
-0.0001080260
-0.0000845511
0.0001011534
0.0000164232
0.0013574002
-0.0000635174
-0.0000547051
-0.0000581773
0.0000856682
0.0003091133
-0.0001096691
0.0001638916
0.0001689169
0.0001521781
0.0003307784
-0.0000652737
-0.0000482897
-0.0000282093
-0.0000982004
-0.0000601673
0.0001149287
-0.0001156443
0.0001068483
0.0001763230
0.0000490248
0.0001810202
0.0003823099
-0.0001016084
0.0004003471
-0.0000107770
0.0000102985
0.0000564272
0.0000838640
0.0003574582
0.0006516596
0.0004612599
0.0003000820
0.0001023284
0.0003026359
0.0001211698
-0.0000351733
0.0004040316
0.0002407628
-0.0000426437
0.0002208548
-0.0000717944
-0.0000603182
-0.0000437163
-0.0000740583
-0.0000242215
0.0001069757
-0.0001051310
-0.0001095713
-0.0000064434
0.0000105903
0.0007003081
0.0004424784
0.0000137660
-0.0000579177
-0.0001047881
-0.0000137816
0.0000021124
0.0003153483
-0.0000401683
0.0003567108
-0.0000979056
-0.0001061133
0.0000110969
0.0003858555
0.0001312452
-0.0000014759
0.0003169320
0.0002507471
-0.0000786493
-0.0000848987
-0.0000102163
0.0002284566
0.0003003166
0.0000465736
0.0003551713
-0.0000167314
0.0000158789
-0.0000246719
0.0001116459
0.0000366503
-0.0000140958
0.0003736185
0.0005107834
-0.0000292122
-0.0001024311
-0.0000636946
0.0000180525
0.0002809481
0.0000572325
0.0003053348
0.0005036931
0.0007396955
-0.0000534522
0.0003860630
-0.0000971613
0.0000999820
-0.0000990048
-0.0001195120
-0.0000858957
-0.0000243988
0.0001436238
0.0000360406
0.0000697134
0.0000904896
-0.0000844563
-0.0001163163
-0.0000766587
-0.0000082036
0.0001598434
0.0000781023
0.0004651203
-0.0000435460
0.0000143852
0.0004296999
0.0002032690
0.0000164145
-0.0000968181
0.0000143313
0.0000638181
-0.0000119987
0.0003476809
-0.0000826509
0.0000533770
-0.0000686290
0.0002360638
0.0003938833
0.0003612205
0.0002306986
-0.0000115814
0.0000412336
0.0000229893
0.0002706777
0.0000961632
0.0000475275
-0.0000876544
-0.0000480551
-0.0000559885
0.0007172310
0.0001660911
0.0000270710
0.0001523672
0.0001171013
0.0002829308
0.0001618929
0.0002416719
-0.0000702874
-0.0000152415
0.0000165445
-0.0000327464
0.0000807072
0.0000415926
0.0000819418
0.0001096349
0.0001377029
0.0001366285
-0.0000697367
0.0000006649
-0.0001051211
0.0000542278
0.0004353953
-0.0001033898
0.0004148663
0.0005813201
0.0000704349
-0.0001174066
0.0004416326
0.0000421285
0.0001862611
-0.0000784273
0.0008776689
-0.0000859671
-0.0000326674
-0.0000384277
-0.0001215097
0.0000640959
-0.0001036481
0.0003434826
-0.0000017002
0.0001133176
0.0000339659
0.0000262545
0.0002094568
-0.0000222816
0.0010631872
-0.0000171172
0.0001487017
0.0000021144
0.0003526640
-0.0001084635
0.0000357707
0.0000016383
0.0000539786
-0.0000463798
-0.0000089180
0.0000058899
-0.0001069789
0.0007042154
0.0002217753
0.0001171885
-0.0000788152
0.0001241430
0.0000542321
-0.0000772878
0.0001749470
-0.0000338502
0.0002685086
-0.0000921534
0.0001312501
-0.0000255995
-0.0000444123
0.0000691968
0.0001004913
-0.0000101472
0.0000756432
-0.0001165852
-0.0000322636
-0.0001193319
0.0002505084
0.0000084801
0.0003223353
0.0003391491
0.0001596612
-0.0000365298
0.0001266172
0.0002588369
0.0001020806
0.0001456293
0.0000219188
0.0000685361
0.0005689201
0.0002066827
-0.0000782247
-0.0000680557
0.0000034632
-0.0000205828
-0.0000783084
0.0000061427
-0.0001209313
-0.0000103077
-0.0000494839
0.0000807719
0.0002641776
0.0003041843
0.0000414511
-0.0000776541
-0.0000614420
-0.0001122607
0.0001965162
0.0002109715
0.0002135386
-0.0001038851
0.0002762529
-0.0000668987
0.0007020019
0.0001439914
0.0000735629
0.0000245110
-0.0000117486
0.0004211534
-0.0000117982
-0.0000807487
-0.0001144629
0.0000803780
0.0000579928
0.0008891573
0.0000593840
0.0002256886
0.0001139359
-0.0000079349
0.0000414508
0.0004984113
0.0000274053
0.0001210557
0.0001011550
-0.0000641400
-0.0000382272
0.0001093985
-0.0000842192
0.0001031384
-0.0000710737
0.0002075364
0.0000256145
0.0001456706
-0.0000855298
0.0003493962
0.0002109601
-0.0001061663
-0.0000713091
0.0004350583
-0.0000182833
0.0000087561
0.0001758840
0.0001181152
0.0006074847
0.0006164056
-0.0000908603
0.0001720653
0.0001248742
0.0000065425
-0.0000710659
-0.0001093986
-0.0000746399
0.0004749911
-0.0000834904
-0.0000333776
0.0003277161
0.0000271205
-0.0000100888
0.0001357752
0.0003670404
0.0001649494
0.0003782220
0.0000125655
0.0000837925
-0.0000668127
0.0008872794
-0.0001205018
0.0002279425
0.0001304325
-0.0000696807
-0.0000060142
-0.0000340622
-0.0001157292
0.0001836293
0.0002249610
0.0002083660
-0.0000273536
0.0001691263
-0.0000383784
-0.0000901450
0.0000812191
0.0002776231
0.0000440208
0.0014838777
-0.0000769859
-0.0000873411
-0.0000168132
-0.0001058547
-0.0000386525
0.0000053160
0.0000375324
-0.0000991041
0.0005333939
0.0001783391
0.0001900776
0.0000866431
0.0000446429
0.0000292196
0.0000540321
0.0002505694
0.0000480585
0.0001384591
-0.0001076510
0.0000224418
-0.0000592236
-0.0000123088
0.0002660831
0.0001810991
0.0003576558
0.0003278870
0.0006629858
-0.0000576114
0.0021011037
-0.0001063833
-0.0000080450
0.0000361206
0.0001752872
0.0001831362
0.0000103498
0.0002940024
0.0002028792
0.0002148063
-0.0000655910
0.0002896636
-0.0001037469
0.0002490232
-0.0001088003
0.0002107591
0.0002009195
0.0002556808
0.0003326764
-0.0000943126
0.0002222030
-0.0000384935
0.0000624881
-0.0000757960
0.0006731349
0.0001395503
-0.0000142303
-0.0000650464
0.0004758106
0.0002105600
-0.0000763581
-0.0000712162
-0.0000640727
-0.0001074079
0.0004921874
0.0000445312
0.0000957657
0.0002054626
0.0000424347
0.0002119118
0.0002488446
-0.0000041981
-0.0000842892
0.0000789468
0.0000394279
0.0002698308
0.0001797692
0.0000334202
-0.0000684189
0.0000029475
-0.0001109316
-0.0000507165
-0.0000957667
-0.0001193405
0.0003594703
0.0008239372
0.0001570148
-0.0000552935
-0.0000749523
-0.0000566033
0.0004797070
0.0002119133
0.0000084486
-0.0000018737
0.0000187084
-0.0000026538
0.0004813457
0.0004822280
-0.0000890532
-0.0001040766
0.0002888738
0.0008001344
-0.0000202882
0.0012049411
0.0007989087
0.0001134713
0.0000568775
-0.0000167097
0.0002163241
0.0000006699
-0.0000716517
0.0000365401
-0.0000668922
0.0002719580
0.0000586439
0.0001736153
-0.0000733998
0.0000529321
0.0000492425
-0.0000726591
0.0002419958
0.0000708237
-0.0000445429
0.0001358006
0.0001898435
0.0000982175
0.0003561646
0.0000964676
0.0009746044
0.0007524261
-0.0000745844
0.0003822992
-0.0000930775
-0.0000953362
0.0004246740
0.0006945397
0.0003980573
-0.0000057857
0.0000976982
0.0000640749
0.0003614412
0.0001988101
-0.0000570986
0.0001727773
0.0000586119
-0.0000447014
0.0001141611
0.0002185853
-0.0000035775
-0.0000946708
0.0006231998
0.0001612938
0.0008961361
-0.0000894811
0.0000047472
0.0000529278
0.0005317697
-0.0001061789
0.0004712404
-0.0000475766
-0.0000726937
0.0000912088
0.0006252550
0.0008699779
0.0001078132
0.0001739729
0.0005210199
-0.0000629754
-0.0000783959
0.0000838011
0.0001233131
-0.0000915358
0.0000139085
0.0004209799
0.0007585645
0.0001124418
0.0001042780
0.0001973151
0.0001668358
0.0001651071
0.0006207113
0.0000508298
0.0000910807
-0.0000478276
0.0001135484
-0.0001028799
0.0000519014
0.0000463332
0.0003823628
0.0002770487
0.0001052495
-0.0000999029
0.0004130243
0.0008532425
-0.0000995263
0.0001977955
0.0002738561
0.0001262073
-0.0000458794
0.0000302355
0.0003188076
-0.0000434514
0.0000336603
-0.0000297887
-0.0001194832
-0.0001139388
0.0002242481
0.0001619086
-0.0000872974
-0.0000877981
0.0001504492
0.0005428626
0.0001833571
-0.0000627149
0.0001564734
0.0001561059
-0.0000444713
-0.0000095301
0.0001006004
0.0003574396
0.0001604561
0.0002408507
0.0000704270
0.0000931771
-0.0000738591
-0.0000525442
0.0000437379
-0.0000657004
-0.0000963874
-0.0000167354
0.0003290375
-0.0001000217
0.0004054347
0.0000342751
0.0001312783
-0.0001178031
-0.0001190484
-0.0000555260
0.0005441734
0.0004155145
0.0000615481
0.0000821951
-0.0000189588
-0.0000276715
-0.0000818596
0.0000256442
-0.0001066567
-0.0000768210
-0.0001130810
0.0001668176
-0.0000427137
0.0001676440
0.0003890657
0.0002694320
0.0002689141
0.0000866420
0.0001516644
0.0002105708
0.0000584748
0.0002157744
-0.0001187691
0.0001226243
0.0001834885
0.0000723917
-0.0001008617
0.0000739898
-0.0000799393
0.0008245056
0.0003349207
0.0004218027
-0.0000708900
0.0010483409
0.0002261308
0.0010028448
-0.0000437890
-0.0000454778
0.0001221081
0.0000154324
-0.0000919010
0.0001134404
0.0000399184
-0.0000677484
-0.0001080021
0.0001921710
0.0002772831
-0.0000810184
0.0001244734
0.0000051538
-0.0001154551
0.0002191266
-0.0000724693
0.0001985379
0.0001974557
0.0001357913
-0.0000826562
0.0002209749
-0.0000908607
0.0000772713
0.0008533504
0.0000276142
-0.0000671298
-0.0000303600
-0.0000637712
0.0001435117
0.0002188105
0.0003275150
0.0000074617
0.0007583151
-0.0000142482
-0.0000877867
0.0002137273
0.0000605233
0.0004018010
0.0001099714
0.0007349192
0.0003114501
-0.0000644619
0.0002434688
0.0000099305
0.0001112088
0.0000995411
-0.0000924930
-0.0000964548
-0.0000396768
0.0005031598
0.0000673688
0.0000531243
-0.0000456587
0.0000917480
0.0001404323
0.0001638885
-0.0000476456
0.0001547244
0.0002071960
0.0002561504
0.0000279908
0.0000259978
-0.0000916874
-0.0000498756
-0.0000585533
-0.0000802103
-0.0000773376
0.0004148020
0.0000579558
0.0000784350
-0.0000556452
-0.0000914308
-0.0000693086
0.0000943614
0.0001852416
0.0000990404
0.0001607603
0.0000028619
0.0003997657
0.0000755902
-0.0000104893
-0.0000410654
0.0001427307
0.0003539748
0.0003072840
-0.0000485070
0.0000712307
0.0002032624
-0.0000288703
0.0000092560
-0.0000615038
-0.0001129471
-0.0000668845
-0.0000182728
-0.0000268608
0.0003545044
0.0004893974
0.0000915908
-0.0000952376
0.0001930059
0.0003867111
-0.0000582091
0.0005520621
-0.0001210839
-0.0000972590
-0.0001120672
0.0005867581
0.0000459766
-0.0001136165
0.0002205750
0.0005253324
0.0000900207
0.0000999875
0.0001885780
-0.0000127544
0.0004367091
-0.0000162769
-0.0000425547
-0.0000565899
0.0000354011
0.0004534705
0.0003666185
0.0003815863
0.0005467011
0.0002055709
0.0004425592
-0.0000857687
0.0010447789
0.0007592238
-0.0000557316
0.0002181081
0.0000548404
-0.0000795120
0.0008739759
0.0001466668
0.0009275163
0.0000343947
0.0004164843
-0.0000198717
-0.0000729536
0.0000175838
0.0000350217
0.0004549222
-0.0000093450
-0.0000605266
-0.0001042002
0.0000643640
-0.0000955347
0.0000331116
0.0002225028
0.0001877752
-0.0000700806
0.0002927383
-0.0000453302
0.0000913880
-0.0000840654
-0.0000038984
0.0001358716
-0.0000870036
0.0000100835
0.0000238312
-0.0000799421
0.0002975006
0.0002307904
-0.0000863233
-0.0001036498
0.0000793071
0.0003170866
0.0006166768
0.0001370832
0.0007516904
-0.0001031884
0.0000491009
0.0001759569
-0.0000321132
-0.0001086832
0.0001378792
-0.0000361656
-0.0001205994
0.0004848793
0.0005072396
-0.0000557071
-0.0000310150
0.0005052998
0.0000618262
0.0001120882
0.0012866291
0.0001502419
0.0000531532
-0.0000987196
-0.0000504200
-0.0000172560
0.0000097307
-0.0000434490
-0.0000853494
0.0000827430
0.0009954542
0.0002486354
0.0001223424
-0.0000414380
0.0005024233
0.0000386915
0.0003509620
-0.0000821765
-0.0000959789
0.0005789349
0.0001770569
0.0000074261
0.0003142167
0.0007797293
0.0006130193
-0.0001045451
0.0000204132
0.0003834451
-0.0000777881
0.0000405392
0.0000120924
0.0000723221
-0.0000840891
0.0002764287
0.0002697808
0.0013302799
0.0002842325
0.0004401729
0.0002003522
0.0001271812
0.0000478045
0.0001642362
0.0001879500
0.0000657726
-0.0000996023
0.0000612615
-0.0000712718
0.0002124213
-0.0000426948
0.0001089654
-0.0000333747
-0.0000817344
-0.0000173747
0.0000211951
0.0000232363
0.0005303007
-0.0000838073
-0.0000733046
0.0003878152
-0.0000223978
-0.0000923969
0.0004915790
0.0001591536
0.0000643794
0.0001906216
0.0002634783
0.0000865302
0.0003697939
0.0003234062
-0.0000025631
0.0004700056
0.0014529510
-0.0000667145
-0.0000320107
0.0002722983
-0.0000765417
-0.0000814821
-0.0000789695
-0.0000384410
0.0002649733
-0.0000378421
-0.0001185867
0.0004056876
0.0001035660
-0.0000709528
-0.0000079718
-0.0000887956
-0.0000908360
0.0005916948
0.0001809839
0.0005177464
0.0000728569
0.0000101747
-0.0000325227
-0.0000344516
0.0000630591
0.0001787105
-0.0000698396
-0.0001139822
-0.0000821337
0.0005350992
0.0002094213
0.0000915393
0.0000370067
-0.0000182568
-0.0000112924
0.0001654063
-0.0000593510
0.0002225801
0.0008043687
0.0002023175
0.0000787503
-0.0000711868
0.0000531418
0.0002735811
-0.0000325647
-0.0001220975
-0.0001172574
-0.0000235834
0.0000014638
-0.0000942910
0.0000210298
0.0004064519
0.0000291570
-0.0001213270
0.0007988660
0.0000706539
0.0006679983
-0.0000773526
-0.0001054967
-0.0000794731
-0.0000063234
0.0002567734
0.0004349763
0.0003146266
0.0000460892
0.0001963860
0.0002589646
0.0001719195
-0.0001186155
-0.0000823968
0.0002150457
-0.0000444785
0.0003156675
0.0002169479
0.0000687465
0.0004751848
0.0000267204
0.0000298337
0.0000480830
0.0010399467
-0.0000009402
0.0004645659
-0.0000923105
0.0002317416
0.0000529064
0.0000717304
-0.0000704333
0.0000002707
-0.0000202040
-0.0000791150
0.0001424884
0.0000505749
0.0000567866
-0.0001007475
0.0002467692
0.0007066200
0.0003764110
0.0001918282
0.0002987269
-0.0000226237
0.0001972458
0.0007629381
0.0003509741
0.0003029561
0.0001201732
-0.0000922094
0.0004024043
0.0005042817
0.0001889844
0.0001309542
-0.0000078712
0.0000142259
0.0000487775
0.0004953848
0.0001804745
0.0004288106
-0.0000225343
0.0000359076
0.0000600464
0.0000350229
0.0000312017
-0.0000016251
0.0003506299
-0.0000297650
-0.0000968670
0.0001570436
0.0004640804
0.0001321800
-0.0000725229
-0.0001058753
0.0001260635
-0.0000435286
0.0001813500
0.0000418777
0.0006821321
0.0003555813
0.0000083754
0.0001053820
0.0003427411
0.0002212551
-0.0000950590
0.0002281615
-0.0001173565
0.0002668672
0.0002429132
0.0002396904
-0.0000812598
-0.0001122629
-0.0001102908
0.0004584512
0.0001183748
0.0001711526
-0.0000987060
-0.0000974029
0.0004359245
-0.0000569565
-0.0000663509
0.0004162490
0.0000837873
-0.0000619345
0.0000171437
0.0000165180
0.0007804347
0.0001607490
-0.0000842510
0.0002020688
-0.0000850301
0.0002122996
0.0001460346
-0.0000121355
-0.0000417045
0.0002997831
-0.0000027463
0.0004117556
0.0004147551
0.0002998707
-0.0001118573
0.0003786221
0.0000638871
-0.0000629052
0.0000739441
-0.0000771026
0.0000096604
0.0001150254
-0.0000851927
-0.0000797463
-0.0000272646
0.0000873614
0.0000748916
-0.0000749338
0.0001020076
0.0001492081
-0.0001029976
-0.0000375124
0.0010033806
-0.0000496400
-0.0000809439
-0.0000907546
0.0008165409
0.0002477074
-0.0001087108
-0.0001217911
0.0002068903
-0.0000696699
-0.0000062948
-0.0000751447
0.0001785701
-0.0001097110
-0.0001104764
-0.0000676829
-0.0001194187
-0.0000816805
-0.0000019019
0.0001096512
-0.0000524994
-0.0000910634
0.0000216374
-0.0000050444
-0.0000652896
-0.0000608392
-0.0001197273
0.0010706266
0.0017238025
0.0000626347
0.0003698770
0.0000713935
-0.0000779648
0.0000223358
0.0000063436
0.0002940274
0.0010176252
0.0003332137
0.0002272777
-0.0000692491
0.0001708783
-0.0000110858
0.0004409798
0.0006003170
0.0000701649
0.0007988102
-0.0000284666
0.0000022312
0.0000381896
0.0001194329
0.0003357226
-0.0000353827
0.0001160479
-0.0000099198
-0.0001015254
0.0000537799
0.0000480245
0.0000045918
0.0000533065
0.0000501021
0.0005710387
0.0002765011
0.0000364751
-0.0000446294
0.0005824518
-0.0000975699
0.0004719927
0.0000183157
0.0000867956
-0.0000032944
0.0000670151
0.0002163281
0.0006042557
-0.0000995873
0.0003525847
0.0001631381
0.0003176908
0.0015203204
0.0000823114
-0.0000462664
-0.0000727880
-0.0000387464
0.0006561929
-0.0000626580
-0.0001100548
-0.0000560289
-0.0001078859
0.0000388264
-0.0000715244
0.0003172302
0.0002753884
-0.0001087235
0.0000212190
0.0001478334
-0.0000493235
0.0000089670
0.0005143689
-0.0000337106
-0.0000881245
0.0014845378
0.0003206438
0.0002267183
0.0002912376
-0.0001068497
-0.0000629469
0.0002828504
0.0002337839
0.0000233505
0.0000337167
0.0000721683
0.0002467002
0.0000842979
0.0000451417
-0.0000314527
0.0007334377
0.0000401989
0.0001209155
0.0002299004
-0.0000628546
0.0001564844
-0.0000783211
0.0000606964
-0.0001096102
0.0000990119
-0.0000418139
0.0004773686
-0.0000400936
-0.0000420941
0.0003798108
0.0008251568
0.0000911179
-0.0000139463
-0.0000275993
-0.0000937828
-0.0000931728
-0.0000516675
0.0005534474
-0.0001111222
0.0002718737
0.0007215627
-0.0000880248
0.0001313825
0.0000526165
-0.0000817797
-0.0000314764
-0.0001043219
-0.0000538894
-0.0000983690
0.0000497481
0.0000087667
0.0007220647
0.0014988722
0.0001250166
0.0004920992
0.0010265494
0.0003028417
-0.0000434466
-0.0000227613
-0.0000400060
0.0001583013
0.0001111752
0.0000001873
0.0002872245
0.0000199787
-0.0000992291
0.0000258175
0.0005155637
0.0004786562
0.0012975991
0.0002030243
0.0001603216
0.0002680700
-0.0000943993
0.0003278908
0.0010524563
-0.0001006075
0.0002019116
0.0000255463
-0.0000617267
-0.0000332713
0.0000510893
0.0000460916
-0.0001001076
-0.0001169553
0.0000765871
0.0000255785
0.0002244891
0.0005960617
0.0001000369
-0.0001156724
0.0001517029
0.0002842411
0.0000978615
-0.0001100618
-0.0000542160
0.0001259226
0.0007456325
0.0004988177
0.0008740267
0.0005181878
0.0001727980
0.0000171197
0.0003861067
-0.0001022138
0.0003866337
-0.0000150427
0.0001211571
0.0006225608
0.0000483162
0.0000685919
0.0000625166
0.0004190460
0.0001514161
0.0000781932
0.0000685037
-0.0000591708
-0.0000002422
-0.0000600336
-0.0001144595
-0.0001178211
-0.0000910047
0.0007746963
-0.0000643728
0.0000372964
-0.0000572388
-0.0000250837
0.0002765667
0.0001435964
0.0002405098
-0.0000918339
0.0000154181
0.0003925774
0.0007592454
-0.0000339040
-0.0000988672
-0.0000771766
-0.0000603926
0.0002720984
0.0000260790
0.0000148574
-0.0001144940
0.0002629317
-0.0000275027
0.0003711805
0.0002993507
0.0001840475
0.0006525645
0.0000716937
0.0001444690
-0.0000835498
0.0000500774
0.0006309286
0.0002230535
0.0001696934
0.0002405941
0.0002826821
0.0002154035
-0.0000527772
0.0004204327
0.0002019032
0.0000015062
-0.0001045263
-0.0000439548
0.0000411442
-0.0000460644
0.0006266080
-0.0000608680
-0.0000510035
-0.0001134279
0.0001713161
0.0001385119
-0.0000214553
0.0004011552
-0.0000864264
0.0002260721
0.0004206952
-0.0000988282
0.0000444848
-0.0000770261
0.0004501978
0.0000787103
0.0000300227
-0.0000315892
0.0008370734
-0.0000590380
-0.0001120764
0.0001075623
0.0001890085
-0.0000417318
0.0005115770
-0.0000715802
-0.0001015039
-0.0000883771
0.0002725452
0.0003653057
0.0006432838
0.0003035046
-0.0000505643
0.0003858806
0.0000203763
0.0001829988
-0.0001076105
0.0001171365
-0.0000477207
-0.0001160970
0.0000319231
-0.0001132563
-0.0000669936
-0.0000763194
0.0004098746
0.0003095366
-0.0000445398
0.0005536805
0.0000224616
-0.0001051198
0.0000156643
-0.0000746695
0.0000325361
0.0005700043
-0.0000710758
-0.0000661432
0.0000599166
0.0001311496
0.0011188718
0.0000816202
0.0006690435
0.0001171492
-0.0000931592
-0.0000574322
-0.0000390870
0.0000695857
0.0000303401
0.0004573151
0.0002905358
-0.0000945161
0.0004162963
0.0001693945
0.0001799928
0.0002367619
0.0001639879
0.0001734189
0.0000552910
0.0000551995
-0.0000139783
0.0000626083
-0.0000944854
0.0009444351
0.0002363819
0.0002271476
0.0003869930
0.0001761983
0.0005699372
-0.0000442139
0.0000454969
-0.0000134461
-0.0000088199
0.0004499004
-0.0000770171
0.0002502020
0.0001689369
0.0001888716
-0.0000724806
-0.0000052906
-0.0000202928
0.0007405064
0.0001542520
0.0000517704
0.0000308404
0.0000621365
-0.0000156343
0.0010439031
0.0001757254
0.0001313285
0.0001650718
0.0001674006
-0.0000372408
-0.0000402026
0.0003189102
-0.0000263448
-0.0000301062
0.0001766386
0.0001332583
0.0000613182
-0.0000570292
-0.0000718410
0.0003118153
-0.0000225879
0.0000580286
0.0007158919
0.0006779479
0.0002346989
-0.0001015991
-0.0000844724
-0.0000989023
0.0000682349
0.0004440776
-0.0000157222
-0.0001088260
0.0003980939
-0.0001014637
-0.0001047382
0.0000002876
-0.0000263779
-0.0000256693
-0.0000062028
0.0000152996
-0.0001171231
0.0001592896
-0.0000343371
0.0002519152
-0.0000772564
-0.0000213520
0.0003022486
0.0008466252
0.0003413208
-0.0000370640
0.0001313544
0.0001858766
-0.0001163903
-0.0001140467
0.0000634241
-0.0000710170
0.0005891885
-0.0000898927
0.0003546183
0.0003881288
0.0001502115
-0.0000160666
0.0005157644
0.0003178095
0.0000493351
0.0002908566
0.0001179184
0.0001320262
0.0000317150
-0.0001125532
0.0000181098
0.0002083927
-0.0000558629
-0.0000074009
0.0000795523
-0.0000022318
0.0010140421
0.0003979389
0.0000371653
-0.0000509603
-0.0000978005
0.0003549621
0.0002249978
0.0009306213
0.0002672012
0.0000020295
-0.0000345586
0.0001292315
-0.0001048210
-0.0000091460
0.0000461632
0.0002083814
0.0001454778
0.0001868548
-0.0000313228
0.0004006394
0.0002659993
0.0000475380
-0.0000066109
-0.0001110924
-0.0001185025
0.0001024300
0.0000393996
0.0001428367
-0.0000123673
0.0001110972
0.0008278988
0.0003670040
0.0003497325
0.0001037754
-0.0001041932
-0.0000224491
0.0006223192
0.0002900793
-0.0000860818
0.0003512240
0.0000521634
0.0001031438
0.0002814039
0.0004848157
0.0001183851
-0.0000100361
0.0004066154
0.0001778646
0.0006017196
0.0007781010
0.0001431208
-0.0001011195
-0.0000735731
0.0013385987
-0.0000926740
-0.0000160457
-0.0001010598
0.0003220324
0.0000680160
-0.0000984667
0.0002997368
-0.0000872575
-0.0000552744
0.0003153805
0.0000900779
0.0000084579
-0.0001135189
0.0001585577
-0.0000630604
0.0003666992
0.0000555965
-0.0000965751
0.0016670716
0.0000277752
0.0000146028
-0.0000334766
-0.0001203245
-0.0001038350
0.0001500118
-0.0000783259
0.0000862882
0.0000464115
0.0001423558
0.0000606345
-0.0000206348
-0.0000525209
0.0000130045
0.0001004740
-0.0000968532
-0.0000665473
-0.0000332675
0.0001131124
0.0000957007
-0.0000151638
-0.0001041332
0.0001164590
0.0000167234
0.0000999253
-0.0000656059
0.0002811439
0.0001852245
-0.0001048130
0.0000438904
0.0000071660
-0.0000920743
-0.0000305892
0.0003243880
0.0000598029
-0.0000631136
0.0004696251
0.0003960709
0.0006137688
-0.0000253718
0.0002696551
0.0006821698
0.0000443040
0.0000138681
-0.0000300891
-0.0000899634
0.0000023566
0.0002321714
-0.0000083388
-0.0001161195
0.0001442291
0.0006912594
0.0005464824
-0.0000807962
0.0000202393
-0.0000303385
0.0001747546
0.0004528297
0.0003147150
0.0000806903
-0.0000961799
0.0001765709
0.0001634346
0.0003628654
0.0002286058
-0.0001167091
0.0003438783
0.0000412558
0.0002445164
-0.0000523656
-0.0001034378
-0.0001158154
-0.0001153476
0.0002212649
0.0002103806
0.0004087260
0.0000711275
-0.0000449166
0.0002214946
0.0000522000
0.0007473489
-0.0000684439
0.0003494094
-0.0000232410
-0.0000903990
0.0002050308
-0.0000048563
0.0001227977
0.0003435575
-0.0000895084
0.0001537096
0.0002310915
0.0011863903
0.0000839615
0.0003437269
0.0000411220
-0.0000550589
0.0000381816
-0.0000971317
-0.0000690863
-0.0000765008
0.0000153636
0.0001268773
0.0001640304
0.0001793279
0.0002306946
-0.0000532542
0.0002355481
-0.0001043034
0.0000637602
-0.0000766204
0.0002835200
0.0005965319
0.0003989051
0.0000358230
-0.0000116703
0.0000858391
0.0004924547
0.0000749685
0.0003137329
0.0000007020
0.0003571824
0.0005173833
-0.0000113143
0.0001207229
0.0013956050
-0.0001097227
-0.0000055948
-0.0000778617
-0.0000430318
-0.0000400663
0.0004872591
0.0000981211
0.0000638444
-0.0000565374
0.0002271307
-0.0000724512
0.0003618589
-0.0000784433
-0.0000581623
-0.0000803201
0.0007540874
0.0000905007
0.0001031984
0.0013124120
-0.0000840079
-0.0000336950
-0.0000547805
0.0001961345
0.0001452647
0.0000000100
0.0003737118
0.0012496898
-0.0000766505
0.0001786099
0.0005154258
-0.0000925696
0.0001336241
-0.0000845074
0.0001760851
0.0000325480
0.0002049194
0.0000591905
0.0003372842
0.0002758541
-0.0000174937
0.0001705062
0.0001477477
0.0000369423
-0.0000480285
0.0004851350
-0.0000127117
-0.0000378622
0.0000993312
-0.0000722452
0.0000170777
-0.0000043473
-0.0000212838
0.0000126345
-0.0000614286
0.0002107291
0.0001401241
0.0001159489
0.0000018243
-0.0000914306
0.0003707394
0.0004262027
0.0001161598
0.0000201534
-0.0000578456
0.0007733120
0.0003966460
-0.0000061189
0.0000228231
0.0000555197
0.0001953850
0.0000223592
0.0005758834
-0.0001191889
0.0002027202
-0.0001163705
-0.0000892764
0.0002118391
0.0005847723
0.0001932809
0.0003863278
0.0004096457
0.0005002047
-0.0000431112
0.0005303371
0.0000106080
-0.0001010349
0.0003001615
0.0000387316
0.0000857553
0.0001294973
-0.0000315957
0.0003320352
0.0002363025
-0.0000081305
-0.0000864956
0.0000648641
0.0000394797
0.0000216638
-0.0001167948
-0.0001036673
0.0001428471
0.0002163852
-0.0001147414
-0.0000306617
0.0007740645
-0.0000098907
-0.0001198792
0.0002045073
0.0003209871
0.0001250775
-0.0000896303
0.0002752577
-0.0000958239
-0.0000755338
0.0002874125
-0.0001018664
0.0002752398
0.0001279611
0.0002429315
-0.0000288386
0.0006563724
0.0001118717
0.0000489009
-0.0000959055
0.0001721954
0.0000589526
-0.0000436443
-0.0001106488
0.0000096685
0.0002633285
-0.0001152757
-0.0000509335
0.0000710557
0.0000045875
-0.0000952171
0.0000834814
0.0000438686
0.0000162263
0.0001946759
0.0003308152
0.0002455520
-0.0000484184
0.0003407369
0.0000074652
0.0000724008
0.0000174244
-0.0000621498
-0.0000950893
-0.0000520887
-0.0000030608
0.0000038601
0.0002490790
-0.0001036373
0.0004914249
0.0000050426
-0.0000514089
0.0001680362
0.0002898269
-0.0001008139
-0.0000223129
0.0005997034
0.0002154730
0.0006195592
0.0000566831
-0.0000408680
-0.0000986487
0.0000484639
0.0004695770
0.0002015396
-0.0000588718
0.0006265544
0.0005440373
0.0002251652
0.0000676089
0.0005131542
0.0000668574
0.0004990178
-0.0000864500
0.0006541631
-0.0000440997
0.0004099174
-0.0001049405
0.0004318148
0.0008657864
-0.0001189557
0.0000276021
0.0001895545
-0.0000150646
0.0000361251
-0.0000983740
0.0000095003
0.0001331949
-0.0000298834
-0.0000211402
0.0001266281
0.0001358914
0.0001636246
-0.0000865162
0.0003092052
0.0000770041
0.0001051791
0.0001655676
0.0002413256
-0.0001154980
-0.0000138326
-0.0001210287
0.0002079472
0.0002441852
0.0004092686
0.0000506427
-0.0000751450
0.0001504097
0.0001399188
0.0004315789
-0.0000689837
0.0008482938
-0.0000445451
-0.0001084077
-0.0000321451
-0.0000156404
0.0001645367
0.0001728303
0.0000588350
0.0001352107
0.0000875267
0.0003687419
-0.0000630537
0.0000572734
0.0002857137
0.0002796097
0.0000358789
0.0001057384
0.0002592985
0.0000425629
-0.0001027778
0.0004090542
-0.0000166146
0.0003625299
-0.0001187214
0.0000987408
-0.0000741347
0.0003139613
0.0003534284
0.0000922921
0.0002143677
0.0000629479
-0.0000800063
0.0002616146
0.0001108930
0.0004256035
0.0005513033
0.0002377191
0.0004037180
0.0000808027
0.0000040538
-0.0000319570
0.0001908193
0.0003301953
-0.0000288037
-0.0000310258
0.0000685263
-0.0000691046
0.0000667972
0.0001364695
-0.0000621140
0.0001760257
-0.0001145327
-0.0000984001
-0.0000183533
0.0001476050
-0.0000964256
-0.0000047542
0.0006292988
0.0007197827
0.0001478929
-0.0000089376
-0.0000971648
0.0002792890
-0.0000271755
0.0000748197
0.0001085504
-0.0000418593
0.0000249414
0.0001853177
-0.0000602328
-0.0001042382
0.0006801245
0.0000634292
-0.0001052888
-0.0001173127
0.0001169332
0.0000018170
-0.0001054261
-0.0000424613
0.0004247939
-0.0000555485
-0.0000562521
-0.0000392154
0.0000598529
-0.0000165617
0.0004363367
-0.0001139168
0.0000900092
-0.0000245923
-0.0001036639
0.0009635731
-0.0000088612
0.0000105825
0.0000131515
0.0004079108
-0.0000289254
0.0004030712
0.0000878937
0.0001974849
0.0000007784
-0.0001007565
-0.0001029720
-0.0001010867
-0.0000495706
0.0000594867
0.0011113398
0.0000152200
-0.0000348770
0.0000451731
0.0001675733
0.0007411756
-0.0000456364
0.0000607711
-0.0000616948
0.0004738751
0.0002153596
-0.0000985012
0.0001034973
-0.0001160832
-0.0000642139
-0.0000049772
0.0000016176
0.0000399847
0.0001463571
0.0006764708
0.0002132153
0.0002953654
0.0006299284
0.0000025821
-0.0000678563
-0.0001047552
0.0002161263
0.0003681949
0.0000939542
-0.0000685637
0.0001054732
0.0000683152
0.0000564530
0.0000738630
-0.0001190256
0.0016012890
0.0004355834
0.0001184382
0.0000197966
0.0000705389
-0.0000515570
0.0001707585
0.0007248775
0.0001113426
-0.0001031816
0.0002617900
-0.0000171546
0.0000776124
0.0002845286
0.0001244253
0.0009634343
0.0003636664
0.0000037658
-0.0000878649
0.0000901061
-0.0000462227
0.0000433838
0.0003772768
0.0000059375
-0.0001162267
0.0002672302
0.0001179384
-0.0001003650
0.0002254196
0.0004651049
-0.0001166790
-0.0000858724
0.0001227792
0.0003363375
-0.0000488591
-0.0000715561
0.0002177213
0.0001484254
0.0007287201
-0.0000092674
0.0003044064
-0.0000946106
0.0001663262
0.0000105750
-0.0000193433
0.0004150191
-0.0000185143
0.0002245255
0.0004621343
-0.0000471671
0.0001525516
0.0005720883
-0.0000409610
-0.0000541540
0.0003226397
-0.0000028988
-0.0001180005
-0.0000707642
0.0008356487
-0.0000021961
-0.0000772080
-0.0000978108
0.0001721358
0.0001763443
0.0000817485
-0.0000379811
-0.0000229246
0.0001021931
0.0006280831
-0.0000208730
-0.0000881953
-0.0001073687
0.0003636465
0.0001122525
-0.0000462734
0.0004110119
-0.0000374002
-0.0001146244
0.0002817195
0.0000256540
0.0001783253
-0.0000579756
0.0002951100
-0.0000538553
0.0001497159
-0.0000875403
0.0006189193
-0.0000450787
0.0004720999
0.0002300060
0.0001113014
0.0001102479
0.0000296722
0.0001738859
0.0004708012
0.0002450943
-0.0000095304
-0.0000412779
-0.0000520777
-0.0000367271
-0.0001205591
-0.0000409190
-0.0000484141
0.0000918296
0.0000188965
0.0001461277
-0.0000292146
0.0003992018
0.0000607535
0.0000927704
-0.0001217105
0.0002014714
0.0003390553
0.0002817996
0.0001088463
-0.0000860759
0.0000983238
-0.0000553132
0.0008534205
-0.0000767271
0.0000901961
-0.0001113750
0.0000719015
0.0003141432
0.0000779820
-0.0000924435
0.0000344617
-0.0001008455
0.0000673142
0.0000585827
0.0006460359
0.0000586047
0.0001515720
0.0001492940
-0.0001229829
-0.0001032255
0.0001492691
-0.0001033461
-0.0000787736
0.0001016309
0.0000985512
0.0000243667
0.0007819980
0.0004550245
0.0003506767
-0.0000212046
-0.0000775790
0.0001345939
0.0004369583
0.0000802566
0.0001473835
-0.0000083293
0.0002895189
-0.0000896576
0.0000632634
0.0001346230
0.0003314522
-0.0000400916
0.0000963784
0.0000319577
0.0001269541
0.0005182321
-0.0000209214
0.0001801599
0.0006188508
0.0000001146
-0.0000362356
-0.0000855575
0.0002012543
0.0000261045
0.0000512679
-0.0000690197
0.0008408191
0.0000307154
0.0003085069
-0.0000021369
-0.0001044722
-0.0000777050
0.0003997923
0.0004368077
0.0002089623
0.0001714111
0.0000121603
0.0002043506
0.0001448665
0.0004683555
0.0005218248
0.0001678610
0.0003592006
0.0002658990
0.0000054136
0.0000123026
-0.0000756494
0.0000168083
0.0001738182
0.0002732699
0.0001340390
-0.0000755659
-0.0000154537
-0.0000939062
-0.0000109032
0.0004425558
-0.0000387505
0.0001314828
0.0003119101
-0.0000056630
-0.0000308722
-0.0000964822
0.0000498331
0.0001841496
-0.0000198454
0.0002865166
-0.0001145588
-0.0000797338
-0.0000819754
-0.0001099789
0.0000244164
0.0002564763
-0.0000465952
-0.0000471325
0.0000121599
0.0000658836
0.0001290070
-0.0001186532
0.0007158503
0.0000867270
-0.0000567854
0.0001595737
-0.0000461291
0.0000080359
0.0002243514
-0.0000963568
-0.0001211639
0.0000328830
0.0001308022
0.0000414165
-0.0000895386
0.0001103508
0.0000321530
-0.0000423679
0.0003156252
-0.0000465175
0.0000800031
-0.0000602779
0.0004798601
-0.0000606473
0.0001976191
0.0011242197
0.0002799500
-0.0000095049
0.0001866046
-0.0000943432
0.0008772458
0.0005405610
0.0004673049
0.0000721827
-0.0000660301
0.0000299352
0.0000254246
0.0000941272
-0.0000449929
-0.0000498466
-0.0001218513
0.0001065105
-0.0001027209
-0.0000978715
-0.0000338025
0.0005173134
0.0002640014
-0.0000406085
0.0003794636
0.0000932361
0.0005285362
0.0000547343
-0.0000773355
0.0000436472
0.0004357642
0.0003239117
0.0005080632
0.0002395028
0.0001019670
0.0005243964
-0.0000929656
0.0005502333
0.0000492581
0.0003076173
-0.0000463044
0.0009906692
-0.0000409808
0.0001407102
0.0000418630
-0.0000697223
0.0001256484
-0.0001215399
0.0000514855
0.0001403065
0.0001062989
0.0000215679
0.0001077287
0.0004414812
0.0001185675
0.0000004890
0.0010176642
-0.0000733775
0.0002658755
-0.0000638137
-0.0000984444
0.0000983646
-0.0000803250
0.0000569156
-0.0001205992
0.0004714186
-0.0000978154
0.0000825916
0.0004472378
0.0002151732
-0.0000398167
0.0002102417
0.0001393955
0.0000118481
-0.0000840916
0.0001242292
0.0001139008
-0.0001184760
0.0002029812
0.0000425803
0.0002894378
0.0003633052
0.0001114234
0.0002248830
0.0001011870
-0.0000981597
-0.0000975830
0.0001069619
0.0003578251
-0.0000210727
0.0002092367
-0.0000076418
0.0000899592
0.0000937862
-0.0001143728
0.0001429757
0.0004556301
0.0006730447
0.0000370185
-0.0000706668
-0.0000100277
0.0002826429
0.0000931035
-0.0000103813
0.0005895133
0.0001273512
0.0008804326
-0.0000720306
-0.0001057138
-0.0000532960
0.0003054673
-0.0000565829
0.0000969899
0.0001344534
-0.0000869146
0.0000037523
0.0003253483
-0.0000009920
0.0000329542
-0.0000038302
-0.0001086377
0.0001026729
0.0005886572
0.0011499576
0.0000788379
-0.0000540924
0.0011388242
-0.0000111544
0.0003168510
0.0005066332
0.0005490353
0.0003117126
0.0000770250
0.0001485949
0.0001737322
0.0002250241
0.0001856218
0.0004289674
0.0002594126
0.0000152038
0.0001221377
0.0001511450
-0.0000519135
-0.0000618272
0.0000647244
0.0001764614
0.0000913245
-0.0001201609
-0.0000080510
0.0000615042
-0.0000221092
-0.0001179670
0.0005691607
0.0011508076
0.0001542751
-0.0000737200
-0.0000673462
0.0002160457
0.0000536882
-0.0000072218
0.0002612331
-0.0001184075
0.0000649864
0.0001157341
0.0006464814
0.0003341721
0.0005903906
-0.0000369722
-0.0000694673
0.0009930729
0.0000675835
0.0002022922
-0.0001053686
0.0000784286
0.0005838307
-0.0000633318
0.0002867253
0.0000227844
0.0001525809
0.0003667114
0.0007889515
0.0002748981
0.0006647855
0.0000326851
0.0000163480
0.0002052423
-0.0000351227
0.0001642107
0.0001110954
-0.0000399585
-0.0000102013
0.0001323354
0.0000164416
0.0006695777
0.0003316237
-0.0000708156
-0.0001087485
-0.0000654186
-0.0000445069
0.0000104100
-0.0001071346
0.0000093649
0.0000718652
0.0002752001
0.0002746551
-0.0001161159
0.0001062415
-0.0000788845
-0.0000135744
-0.0000785433
-0.0001029711
-0.0000625169
-0.0000400607
0.0002578537
-0.0000423105
0.0000247369
-0.0000461174
0.0000938647
0.0000124632
-0.0000390939
0.0000104448
0.0000851808
-0.0000284784
0.0003079334
0.0000802656
-0.0000412844
0.0003127210
0.0007016673
0.0000792783
0.0000230188
0.0000036279
-0.0000242097
-0.0001020437
0.0002001681
0.0000515167
0.0002350703
0.0001252393
-0.0000330631
0.0005002315
0.0001316841
-0.0001208025
0.0001355606
0.0000502802
-0.0000042374
-0.0000524054
-0.0000910596
-0.0000228637
-0.0000984535
-0.0000174255
-0.0000097835
0.0008609327
0.0001246943
0.0003088059
0.0000016400
-0.0000826229
0.0000232599
0.0000968838
0.0002098600
0.0000170283
0.0000553927
-0.0001155118
0.0000569020
-0.0000991340
-0.0000964619
-0.0000635411
0.0000314218
0.0000212044
0.0005240172
0.0006494617
-0.0000038111
0.0002737507
0.0000343027
0.0007094998
-0.0000830951
0.0004545172
0.0000630724
0.0001326458
-0.0000186540
-0.0000087318
-0.0001164602
0.0003699947
0.0000343385
0.0000497960
-0.0001086520
-0.0001149649
-0.0000003457
0.0002726471
-0.0000892773
0.0003281671
0.0000061589
-0.0000941534
0.0001159770
0.0000256255
-0.0000505668
0.0002367235
-0.0000089962
-0.0001168566
0.0000951644
0.0000382955
0.0001673741
0.0000039375
-0.0000860988
0.0003115761
0.0000566126
-0.0000060406
0.0000155163
0.0002033454
-0.0000218916
-0.0001224859
0.0001493669
0.0000357892
0.0001457621
0.0008125887
0.0003311023
0.0000659736
0.0000871798
0.0002836787
0.0003119246
0.0000985646
0.0001214204
-0.0001209568
0.0000138417
0.0001441088
0.0000794197
0.0000026432
-0.0000991804
-0.0000699916
0.0002528571
-0.0000428801
0.0001988970
0.0001315692
0.0000198005
-0.0000076482
0.0004231217
0.0007422051
0.0002415994
0.0004992884
0.0000605486
0.0001386833
-0.0000121536
0.0000862316
0.0000547425
-0.0000113436
0.0004503889
0.0001112434
-0.0000280055
0.0000425880
0.0005984531
-0.0000738266
0.0000924545
-0.0000443387
0.0008100885
-0.0000664540
0.0000141772
-0.0000743049
-0.0001202673
-0.0001104934
0.0003335140
0.0000097725
0.0001693263
0.0006312066
-0.0001104620
0.0001411367
0.0002902632
-0.0000207247
0.0004760947
-0.0001028948
0.0000605863
-0.0001043345
0.0005323884
-0.0000356625
0.0001372514
-0.0000710672
-0.0000936508
0.0000503027
-0.0000696069
0.0001883943
0.0006761090
-0.0000998149
-0.0001189197
-0.0000707647
0.0002042453
-0.0000131568
0.0000847921
-0.0000325159
0.0001122547
0.0004131642
0.0003099096
0.0001114272
0.0000892042
0.0003028594
-0.0000743339
-0.0000305347
0.0000206378
0.0000843898
0.0009160801
-0.0000134495
-0.0000604638
0.0004185283
0.0002197164
-0.0000567671
0.0000252272
-0.0000959365
0.0001087211
0.0000441684
-0.0001078124
0.0001281534
0.0003199639
0.0002612023
-0.0000702556
-0.0000463390
0.0000281287
0.0007423288
0.0004764302
-0.0000570734
0.0002596155
0.0003338405
-0.0000881501
-0.0000946597
-0.0000740281
-0.0000635343
0.0000308879
0.0004726462
0.0003165676
-0.0000410765
0.0001082381
0.0002710621
-0.0000241672
-0.0000874875
0.0003834146
0.0005357038
-0.0000889190
0.0005086770
0.0004691942
0.0001626433
-0.0000598296
0.0002722944
-0.0000635634
0.0002883444
-0.0000094422
0.0003911296
-0.0000563704
0.0000247841
0.0002962282
0.0000738017
-0.0000927475
-0.0000699982
0.0000521464
0.0003402701
0.0006171421
0.0001426595
0.0003229810
0.0000576252
0.0001183261
-0.0001122736
0.0000259546
0.0002651423
0.0003815439
-0.0000879757
0.0003537530
0.0000634753
0.0001737262
-0.0000238555
-0.0000981175
0.0000159003
-0.0000964209
0.0009912880
0.0002150911
0.0003399228
0.0005762293
0.0004946534
0.0000786239
0.0000226314
0.0000804042
0.0000950311
0.0003993082
0.0001295789
-0.0000670803
-0.0000009466
-0.0001068767
-0.0000992996
0.0000008357
0.0000209615
0.0001339855
-0.0001116679
0.0002795984
-0.0000726634
0.0000698100
-0.0000036051
0.0003026021
-0.0001051161
0.0003578576
0.0001631496
0.0007856338
-0.0000110489
-0.0001000150
0.0004078298
0.0006160560
0.0000411949
0.0001730330
-0.0000118129
0.0002976198
0.0010561379
-0.0000229070
-0.0000579162
-0.0000610820
0.0004552077
0.0003027136
-0.0000100714
0.0002813910
-0.0000928668
0.0000520655
0.0004516369
0.0004253302
0.0000257224
-0.0000262969
-0.0000061970
0.0002201332
0.0000478216
0.0004395374
0.0002378441
-0.0000314267
0.0005731810
0.0006225548
-0.0000918588
0.0001779174
0.0001853141
0.0002050133
0.0002118233
0.0002995984
0.0006466269
0.0000656830
0.0002034627
-0.0000596030
0.0002281123
0.0002358527
-0.0000326743
0.0000618815
0.0003479789
-0.0000889633
0.0007050349
0.0001308782
0.0001564643
-0.0001194251
0.0000261311
0.0001238301
-0.0000842458
0.0004719273
-0.0000814093
-0.0000398806
0.0001952071
0.0000104631
0.0005445477
-0.0000879669
0.0001463810
-0.0000006218
-0.0000984319
0.0003275902
0.0013070643
-0.0000813621
-0.0000479587
0.0005270756
0.0004235879
0.0002516643
-0.0000752208
-0.0001104246
0.0001001155
0.0001131990
-0.0000733300
-0.0000966274
0.0000249743
-0.0000359559
0.0004121674
0.0004769078
0.0001599369
0.0003902768
0.0003535419
-0.0000411901
-0.0001008545
-0.0000356056
0.0001870303
0.0001945097
0.0002899092
0.0002439220
0.0005899992
0.0000246438
-0.0000759120
-0.0000720445
0.0002097058
-0.0000896840
0.0003933146
-0.0000481353
0.0000332887
-0.0000922544
-0.0000549824
-0.0000010122
0.0000415749
0.0000544246
0.0000386906
0.0000595436
-0.0000703840
0.0000648625
-0.0001155230
-0.0000474147
0.0000886502
0.0001108276
0.0001247428
0.0000739326
0.0001083326
-0.0000370169
0.0000526857
0.0001459437
-0.0000966437
-0.0000883565
0.0001437492
0.0001169422
0.0005866466
0.0002377313
-0.0000301988
-0.0000097510
-0.0000679074
0.0002694648
0.0000248524
0.0000342092
0.0001214563
-0.0001057728
0.0001080041
0.0003981404
0.0000867825
-0.0000668687
-0.0001070869
-0.0001110943
-0.0000495483
-0.0000939865
-0.0000907114
0.0003219485
-0.0001112431
-0.0000663013
0.0006366807
-0.0000703307
-0.0000110478
-0.0000085593
0.0004804592
0.0000276875
-0.0000609963
0.0000168228
-0.0000129946
0.0010890118
-0.0001055176
0.0001558492
0.0006388464
-0.0000410561
-0.0000213720
0.0002038041
0.0000320780
-0.0000699928
-0.0000862651
0.0000225821
-0.0000926908
-0.0001186700
0.0001979281
0.0002039728
-0.0000058422
-0.0000746864
0.0000484024
0.0005146633
0.0009859583
-0.0001084217
-0.0001101981
-0.0001193759
0.0002584844
-0.0001078595
0.0005385619
0.0000375569
0.0002367928
0.0001746336
0.0000133680
0.0000232277
-0.0000116204
0.0005405670
-0.0000743828
0.0007630045
-0.0000718508
0.0001301612
0.0000244253
0.0006614868
0.0002123514
0.0002426737
0.0000567314
0.0004662578
0.0007575268
0.0003510154
0.0000361435
-0.0000224024
0.0007861830
-0.0000172127
0.0000039280
0.0001257988
0.0000547362
0.0000554069
-0.0001179220
0.0007831139
0.0003643738
-0.0001070524
0.0007228129
-0.0000801206
0.0001811298
-0.0001023685
0.0001206223
0.0000283414
-0.0000267692
0.0001134539
-0.0000344342
-0.0000469856
0.0004857919
0.0003891488
0.0000350970
-0.0000841538
0.0001634803
0.0004513818
0.0002624510
0.0002244155
0.0001285246
0.0004358071
0.0001295718
0.0001168663
0.0002409600
0.0000359502
0.0002990982
-0.0000646991
-0.0000971731
0.0000912761
-0.0000131302
0.0005049367
0.0000489986
0.0003006794
-0.0000930471
0.0002820177
0.0001516396
0.0000367380
-0.0000485006
-0.0001165836
0.0000622371
-0.0000004285
0.0000933434
-0.0000674317
0.0003041155
0.0002533518
0.0000009373
0.0001635140
0.0002577829
-0.0000089494
0.0001524010
0.0000713991
-0.0000898511
-0.0000781439
-0.0000343406
-0.0000152121
0.0006544014
0.0004515392
-0.0000537314
0.0002684392
0.0002756208
0.0000557913
-0.0000464199
0.0000032063
-0.0000745528
0.0003753487
-0.0001135310
0.0000055256
0.0000967338
0.0002678385
0.0001208434
0.0002089646
-0.0001000669
0.0000665442
0.0001115120
0.0000549963
-0.0000990206
0.0002775549
-0.0000669743
0.0000328371
0.0001713820
-0.0000298853
0.0000110671
0.0001754984
0.0006622423
0.0001177217
0.0002169261
0.0000298928
0.0004090506
-0.0000194495
0.0000928871
0.0000894775
0.0000385500
0.0000287586
0.0008178206
0.0001638924
0.0004843030
0.0004507473
-0.0000478397
0.0000428317
-0.0000840023
0.0000140353
-0.0000562051
-0.0000943306
-0.0000113439
0.0002325957
-0.0000813712
0.0003431772
0.0000460487
0.0000045334
-0.0000199551
-0.0000703157
-0.0000303631
-0.0000620825
0.0001369301
0.0003693941
-0.0000937152
0.0000338918
0.0003016837
-0.0000555914
-0.0000580948
-0.0000043270
-0.0001044862
-0.0000771098
0.0000327740
0.0001426752
-0.0000122438
-0.0001108837
0.0000343154
0.0007424276
-0.0000516175
-0.0000438089
0.0001707141
0.0008578768
-0.0000369263
-0.0000793041
0.0000975297
-0.0000384263
-0.0000861521
-0.0000446583
-0.0001195504
0.0003476561
-0.0000836212
-0.0000249056
0.0000874312
0.0002324869
0.0002230910
-0.0000922295
0.0000390171
0.0000438166
-0.0000025372
0.0003524117
0.0001846867
-0.0000847997
-0.0000398875
-0.0000719226
0.0004175113
0.0000566513
-0.0000140422
0.0000495568
0.0000241701
0.0001987564
0.0000314308
0.0000871316
0.0000396105
-0.0001087438
-0.0000316227
-0.0000316750
0.0000084404
-0.0001088171
-0.0000901477
0.0000242521
0.0002675092
-0.0000268848
0.0004209586
0.0002576905
0.0001375021
0.0003959891
-0.0000744588
0.0001794677
-0.0000577120
-0.0000240720
-0.0000483808
-0.0000477361
-0.0001076202
0.0000016250
-0.0000265497
-0.0000981558
-0.0001099945
0.0000867346
0.0003482303
-0.0000901690
0.0000356938
0.0000472072
-0.0000278051
-0.0000937181
-0.0000603473
0.0004436837
0.0002110245
0.0007560834
0.0001290793
-0.0000688541
0.0001497934
-0.0000669214
0.0000886000
0.0005500332
-0.0000828591
-0.0001164933
0.0000507098
-0.0001053198
-0.0001021237
0.0001290764
0.0000062556
0.0000043290
0.0000951495
0.0002444164
0.0004664597
0.0000462701
0.0004922930
-0.0000192927
0.0000139668
-0.0000821991
0.0000187986
0.0001670815
0.0000712617
0.0004541952
-0.0000807363
-0.0001188624
0.0000800059
-0.0000810796
0.0001573195
0.0000829579
0.0000354533
-0.0000270509
0.0001456428
-0.0000858236
-0.0001041919
0.0000463488
0.0000227115
-0.0000974151
-0.0000892093
0.0000046698
-0.0001036553
0.0000371182
0.0000851585
0.0001967750
-0.0000681837
0.0004853972
-0.0000177062
0.0001181775
0.0001771893
0.0000286655
-0.0001178604
0.0008508387
0.0001277079
0.0001573079
0.0006337288
-0.0000271261
-0.0000921057
-0.0000564891
0.0000769309
0.0007342580
-0.0000543193
0.0000052584
0.0001126074
0.0006067077
0.0000204139
0.0002085429
-0.0000509294
-0.0000946039
-0.0000441980
-0.0000128299
0.0000222776
0.0007097865
-0.0000237002
-0.0000255081
0.0000234643
-0.0001000318
0.0003141125
-0.0000736347
0.0003249043
-0.0000720339
-0.0000823717
-0.0001166564
0.0000099947
0.0000671859
0.0000367872
-0.0001142509
0.0001391939
0.0003676758
-0.0000279557
0.0006267291
0.0002665448
0.0001013228
-0.0001128355
0.0001934414
0.0005731054
0.0002217770
-0.0001102903
-0.0000614633
-0.0000209414
0.0000122399
0.0001721420
0.0000939588
-0.0001120870
0.0001538801
0.0001060845
0.0007647059
-0.0000434776
-0.0000663548
0.0006326502
0.0001497013
-0.0000964567
0.0001043522
0.0001282827
0.0003150338
0.0001173635
-0.0000604490
-0.0000086149
-0.0000444172
-0.0000093185
-0.0000554975
0.0007779597
-0.0001028618
-0.0000120015
-0.0000715833
0.0005559372
-0.0000033262
-0.0000866402
0.0002415846
0.0001521930
0.0002479247
0.0001922634
0.0000502803
0.0000122595
-0.0000201677
0.0002675591
0.0005811081
-0.0001124639
0.0001175962
-0.0000860022
0.0003302250
-0.0000488394
0.0001759023
0.0000082765
-0.0000602978
0.0002103314
0.0000555178
0.0001338978
0.0001331343
0.0001983467
-0.0000852118
-0.0000930231
0.0001616781
0.0000949349
0.0002490491
0.0000213619
-0.0001056240
-0.0001094391
0.0000709688
0.0004553420
0.0000281641
-0.0001167301
0.0010575824
0.0000953929
-0.0000369898
0.0001989512
0.0003082549
-0.0000542638
0.0000754517
-0.0001126102
0.0001517884
-0.0000331324
0.0001894453
0.0000770535
-0.0000801967
0.0000502061
0.0004260855
-0.0000680289
0.0005872139
0.0003780777
0.0004575166
-0.0000123840
-0.0000098350
0.0003039541
-0.0001214364
0.0000103056
0.0000625350
0.0001436681
-0.0001221280
0.0000668483
0.0000400185
0.0002454250
0.0001167075
-0.0001181202
0.0000465950
-0.0000721203
-0.0000812996
-0.0001206888
0.0004168255
0.0004041691
0.0003501912
0.0001690676
0.0002616175
-0.0001076751
0.0002140347
0.0001050350
-0.0000850934
0.0005223579
0.0004939515
0.0001494403
-0.0000948685
0.0003773161
0.0004914852
0.0004871736
0.0001474095
-0.0000854309
-0.0000145291
-0.0000548110
0.0000234809
0.0009778610
0.0001300253
0.0017292837
0.0000332356
0.0000328799
-0.0000219970
0.0000431894
-0.0000673943
0.0000239853
-0.0001121290
-0.0000488343
0.0003664777
0.0000586931
0.0001058148
0.0002603315
0.0000271745
0.0003187669
0.0001844305
-0.0000253022
0.0004478578
0.0000482001
0.0001723029
0.0002105524
-0.0000309719
-0.0000216689
-0.0001121945
-0.0000894690
-0.0000939513
-0.0000352577
-0.0000367474
-0.0001016221
0.0006178306
0.0000636213
0.0000717744
-0.0000815173
0.0000405961
0.0000059865
0.0001075056
-0.0000112565
0.0000250625
-0.0000104971
0.0001842426
0.0001520372
0.0000715137
0.0000239771
0.0001783102
0.0000276718
-0.0000861372
0.0000175631
-0.0001043546
-0.0001039484
0.0001280586
0.0000044378
-0.0000154803
0.0004583091
0.0004046292
0.0005986580
-0.0000051302
0.0000957704
-0.0000828328
-0.0000730148
-0.0000819525
0.0003000384
0.0000164120
0.0004489238
0.0000431559
0.0001044116
0.0001762140
-0.0001184290
0.0000339373
0.0005834106
0.0003116837
0.0010979817
0.0002570142
0.0003161179
0.0002275136
-0.0000164214
-0.0000381147
0.0002484990
-0.0001023257
0.0002613536
0.0002022663
-0.0001101967
-0.0000853548
-0.0000265925
-0.0000688697
-0.0001192113
0.0000589887
-0.0000843850
-0.0000393536
0.0005575364
0.0003313025
-0.0001186687
-0.0000771217
-0.0001111605
-0.0000919852
0.0000620756
0.0000360921
0.0005928387
-0.0000230858
0.0001563001
-0.0000398332
0.0008380715
-0.0001081306
0.0000490057
0.0003251398
0.0003990248
-0.0000998105
-0.0000204319
0.0000555600
0.0001106022
0.0000931276
-0.0000814117
-0.0001203960
0.0001965180
0.0001378240
0.0001460099
0.0001816572
-0.0001065068
-0.0001089894
0.0000805953
0.0001525585
0.0000876336
0.0000985899
-0.0000391231
0.0004446363
-0.0001161999
0.0001427120
0.0000717311
-0.0000541064
0.0001845838
0.0001791640
0.0000268780
0.0002875688
-0.0001076220
-0.0000333089
0.0000978936
0.0002491565
0.0000513429
0.0001051880
0.0004051833
0.0002979791
-0.0000023691
-0.0000915172
0.0000701816
-0.0001076552
-0.0000111084
0.0000149038
0.0000940157
-0.0001094099
-0.0001056571
0.0000730320
0.0000385171
0.0000437242
-0.0000447941
-0.0000423101
0.0005533651
0.0000913814
-0.0001169189
0.0002846075
0.0000781184
0.0004110734
-0.0000983020
0.0003036694
0.0001363439
0.0008012823
0.0001140994
0.0001147522
-0.0000362788
-0.0000421009
-0.0000582561
-0.0000591132
0.0001397119
0.0001502339
-0.0000340446
-0.0000650017
0.0000346698
0.0001366697
0.0000152982
-0.0000401246
0.0008009778
0.0000004567
0.0000523646
0.0000747979
-0.0000212833
0.0000192031
-0.0000947417
0.0000029496
-0.0000658089
-0.0000917200
0.0000753908
-0.0000707748
-0.0001124437
0.0001368771
0.0002505697
0.0002549502
0.0000012213
0.0006424580
-0.0000692504
-0.0000137951
0.0001495379
0.0001693437
0.0000832992
0.0000367930
0.0000482076
0.0000185311
0.0007398495
0.0000330392
0.0001543571
-0.0000499263
0.0003972986
0.0010231191
-0.0000119957
0.0004036083
-0.0000664446
0.0004026398
0.0000511373
0.0001371840
-0.0001004740
-0.0000401944
-0.0001191541
-0.0001074258
0.0001495154
0.0003562634
-0.0000022861
0.0000648143
0.0000628683
0.0000596736
-0.0001145296
0.0000398220
-0.0001006608
0.0005133169
0.0000457286
-0.0000455349
0.0000674769
-0.0001025114
0.0000570873
-0.0000608524
0.0000387564
0.0003987624
-0.0001017008
0.0001980861
0.0001559348
-0.0000646718
0.0000589539
-0.0001056727
0.0000414552
-0.0001133277
0.0002057046
0.0000281291
0.0000196126
-0.0000176788
-0.0000722280
-0.0000535808
0.0001355969
0.0001451365
0.0002604213
0.0000134108
-0.0000030226
0.0003169527
0.0001457898
-0.0000813646
0.0002550926
0.0000492454
-0.0001088780
0.0001368580
0.0000124959
-0.0000577227
0.0010656790
-0.0000218793
0.0000299674
-0.0000934415
0.0000425888
0.0004569396
-0.0000231432
0.0001578405
0.0002635957
-0.0000407087
-0.0000746119
0.0005286875
-0.0000145783
-0.0000461176
0.0000687965
-0.0000085943
-0.0000869754
0.0000430984
-0.0000879856
0.0002061406
-0.0000829820
-0.0000988053
0.0008362547
0.0004355794
0.0002448843
0.0001739779
-0.0000128049
0.0005069657
0.0002513867
0.0001294905
0.0004483686
0.0000121649
0.0005656323
0.0000277969
-0.0000193557
0.0001985488
0.0000859523
-0.0001049845
0.0001517932
0.0000964648
0.0006686618
0.0000173935
-0.0000599330
0.0002828144
-0.0000557167
-0.0000933020
-0.0000331527
-0.0000429400
0.0000201534
-0.0000860080
-0.0001031853
0.0000244834
-0.0000705124
0.0000428498
-0.0000242282
0.0000809936
-0.0000878737
-0.0000635115
0.0000864313
-0.0000721649
0.0002598866
0.0000536298
-0.0000553926
-0.0000728268
0.0000963780
-0.0000841189
-0.0000894707
-0.0000113705
0.0007550039
0.0001005724
-0.0000054791
-0.0000004951
-0.0000965503
-0.0001100110
0.0000826522
-0.0001140577
0.0006498541
0.0001260631
0.0000877814
-0.0000834548
-0.0001054157
0.0004144782
0.0000346769
0.0004861417
-0.0000904176
-0.0000326558
0.0000168659
0.0002786189
0.0006372439
-0.0000012644
0.0001578758
-0.0001141183
0.0000136146
0.0006247425
0.0002297643
-0.0001128643
0.0000840112
-0.0000304022
0.0000266467
0.0000022999
0.0001505362
0.0002298409
-0.0001109512
-0.0000697926
-0.0000944946
-0.0000098209
0.0002327708
0.0006320084
0.0001521313
-0.0000057831
-0.0000091040
0.0008428408
-0.0001153860
-0.0000662996
0.0002331135
0.0004261261
0.0000528542
0.0000414149
0.0004430856
0.0000543346
0.0003027158
0.0002340805
-0.0000415456
0.0003677388
0.0000401065
0.0001843781
-0.0001115960
-0.0000521122
0.0003117609
-0.0001032459
-0.0000834079
0.0000017162
0.0000419497
0.0002616699
0.0002066054
0.0002484517
-0.0000189997
0.0007198369
0.0002637385
-0.0001221299
-0.0000530047
0.0000117193
-0.0001009544
0.0007221537
-0.0000985811
-0.0000409801
0.0004868620
0.0004280607
-0.0001186811
0.0002935045
0.0000478152
0.0002606223
-0.0000589287
-0.0000954361
0.0001038695
0.0001073601
-0.0000623808
-0.0000674066
0.0000830987
-0.0000725876
0.0000211751
0.0001096191
-0.0001093730
0.0007401870
0.0004640311
0.0000140662
0.0000885896
0.0002465133
0.0000575717
0.0000253467
0.0003454609
-0.0001074374
0.0001385861
-0.0000538338
0.0000246299
0.0001599771
0.0001882844
0.0000332591
-0.0000987871
0.0000124236
-0.0000209964
-0.0000501390
0.0001894995
-0.0000286337
0.0005662851
-0.0001185918
0.0001160672
0.0001209935
0.0000052259
0.0002962806
0.0003688227
0.0000573778
0.0000417323
-0.0001118411
0.0001149631
0.0000604364
-0.0000819121
-0.0000806309
0.0000262533
-0.0000493796
0.0005172617
-0.0001079928
-0.0000443251
-0.0000970882
0.0002481944
0.0000756722
0.0000010062
0.0000304668
0.0001267308
-0.0000853900
0.0002447529
0.0002172996
-0.0000451657
0.0001790871
-0.0000729806
-0.0001123337
0.0001132356
-0.0001097761
0.0000207206
-0.0000071715
0.0001625912
-0.0000748473
0.0000409397
0.0000933983
-0.0000079416
0.0000783043
-0.0000793391
0.0001739466
0.0006285818
0.0004578440
-0.0001117192
0.0006660009
0.0004410415
-0.0000849961
-0.0001104274
-0.0000951250
-0.0001136414
0.0000822406
0.0001110736
-0.0000848422
-0.0000385059
-0.0000914573
-0.0001136040
0.0000444863
-0.0001027519
0.0009280643
0.0001973539
-0.0000574539
-0.0000959409
0.0000609266
-0.0000544289
-0.0000428545
0.0001242771
0.0000713204
-0.0001162536
0.0002103533
-0.0000903523
-0.0001181984
-0.0000670546
-0.0000703871
-0.0000942415
0.0000164912
0.0000135582
0.0005637381
0.0004920066
0.0001516466
0.0001089295
0.0006728287
0.0005496961
-0.0000598764
-0.0000877486
-0.0000170667
0.0000298693
-0.0000433869
0.0001935041
-0.0000567071
-0.0000854728
-0.0000881354
-0.0000627928
-0.0000834776
-0.0000891485
-0.0000298366
-0.0000070604
0.0001622385
-0.0000443753
0.0001210318
0.0000005844
0.0000133594
0.0001982939
-0.0000386578
0.0009896885
0.0002681120
0.0000641648
0.0000682572
0.0003769390
0.0004351067
0.0002171788
0.0000658955
0.0003178576
-0.0001147531
0.0000316743
0.0001695835
0.0002880393
0.0001334664
-0.0000965560
0.0000484891
-0.0000994466
-0.0000891078
-0.0000523024
-0.0001001241
0.0000216009
0.0000203599
-0.0000295949
-0.0000814646
-0.0001029829
0.0003943646
0.0000938283
-0.0000457078
-0.0000834270
0.0003742470
0.0000758131
-0.0000887947
-0.0000378503
0.0002977323
0.0001544490
0.0001358056
0.0001350993
0.0001880968
0.0002614944
-0.0000626260
0.0001933264
0.0003488427
0.0000833438
0.0000938129
-0.0000644031
0.0000737090
-0.0001187715
-0.0000523407
-0.0001075705
0.0001226936
-0.0000038736
-0.0000748503
0.0000993688
0.0011138196
0.0007465199
0.0008326879
-0.0000918058
0.0003257161
-0.0000941797
-0.0000571142
0.0001517447
-0.0000492252
-0.0000708846
0.0003661374
-0.0000592409
0.0009067462
0.0016423058
0.0000599318
0.0000179894
-0.0000124595
0.0001156636
0.0001584936
-0.0000641553
-0.0001044925
0.0000249625
-0.0000119836
0.0000985241
0.0010660743
-0.0000791372
-0.0000942274
0.0003686611
-0.0000562542
0.0000053932
0.0002187567
-0.0000221699
0.0003928310
-0.0000248885
0.0007382344
-0.0001071560
-0.0000821944
-0.0000880210
-0.0000717102
-0.0000898944
0.0007488953
0.0001079349
-0.0001038024
0.0000880409
0.0001001226
0.0000592994
0.0006696091
-0.0000585829
-0.0000879842
0.0002115780
0.0000877586
0.0004740637
-0.0001019802
-0.0000090774
0.0007524245
-0.0001064397
0.0003323471
0.0000287964
-0.0001058155
0.0002237722
-0.0000236258
-0.0000849935
0.0001214301
-0.0000889418
-0.0000210749
0.0000647998
-0.0000807925
-0.0000963492
0.0000262748
-0.0000537381
-0.0000674662
-0.0000108331
0.0001843925
-0.0000025432
0.0003744817
0.0002423391
0.0004219660
0.0002116262
-0.0000791822
0.0000973556
-0.0000087742
-0.0000379848
0.0003097372
-0.0000867471
-0.0001147640
-0.0000748183
-0.0000639061
0.0000805739
-0.0000588251
-0.0000467753
0.0000312275
0.0002081779
0.0001910770
-0.0000165167
-0.0000013017
0.0003076625
-0.0000858401
-0.0001042847
0.0001444346
-0.0001083051
0.0002665842
0.0002076744
0.0002855469
-0.0000749627
-0.0000840484
0.0001709195
0.0001831331
-0.0001083767
-0.0000267244
0.0007435159
0.0003227142
0.0002287194
-0.0000720412
-0.0000825104
-0.0000321455
0.0001695054
0.0000870921
0.0005122160
0.0000644525
0.0002782894
0.0001383341
0.0002985484
-0.0000642121
0.0000100668
0.0000622746
-0.0000176032
-0.0000197223
0.0000784976
-0.0000689428
-0.0000534899
0.0003578637
-0.0001069355
0.0000024798
0.0002070226
0.0000496474
0.0001801271
0.0006810728
-0.0000600742
0.0004299665
0.0000273925
-0.0000402250
0.0001158415
0.0000750395
-0.0000726440
0.0000501318
0.0000806993
-0.0000140604
-0.0000634250
0.0001015638
0.0004792308
-0.0000354222
-0.0000188220
0.0001854674
0.0009844378
0.0003652452
0.0004028770
0.0001847435
0.0000370580
-0.0001037987
0.0002693455
0.0004311370
0.0000276582
0.0000546152
0.0000838057
-0.0001141481
-0.0000025375
0.0000318344
0.0000372826
0.0000748756
-0.0001179101
0.0003092590
0.0003699219
-0.0000399393
0.0005635449
0.0001294825
0.0009737604
-0.0000757504
0.0002947369
0.0001703765
0.0000609031
0.0000976458
0.0003810823
0.0001294823
0.0001105777
0.0000507435
-0.0000960603
-0.0000726522
0.0003294306
-0.0000184399
0.0001576940
-0.0000819760
-0.0000939043
0.0003803630
-0.0000252498
0.0000668361
0.0001471341
-0.0000641679
0.0002243002
-0.0000430716
-0.0000142312
0.0004810382
0.0000579322
0.0000557430
0.0000184193
0.0000694909
0.0000105475
-0.0001168749
-0.0000221737
-0.0000698267
0.0002389531
0.0000961036
0.0000734070
-0.0000563587
0.0000438226
0.0002394863
0.0005135352
0.0001976285
-0.0001204864
0.0000797698
0.0001518574
0.0001789466
-0.0000714700
0.0001674348
-0.0000931657
-0.0000529788
-0.0000180285
-0.0000669245
0.0003103406
0.0003152899
0.0002044049
-0.0000203421
0.0000468059
0.0004401925
0.0003795191
0.0003963699
0.0005484902
0.0000251009
-0.0000690323
-0.0000525941
-0.0000864715
-0.0000473465
0.0000908964
-0.0000324430
-0.0000643775
0.0003332622
0.0001742866
-0.0000043428
0.0002177814
0.0000907332
0.0001549821
0.0001337386
0.0005230510
0.0001575614
-0.0000438062
0.0007828601
-0.0001033090
0.0001367037
0.0003085446
-0.0000683312
0.0000816370
-0.0000980328
-0.0001145632
0.0004214381
0.0005003049
-0.0001018200
-0.0000492063
0.0004006978
0.0001431020
0.0004088970
0.0005665949
-0.0000196182
-0.0000903097
0.0004789335
0.0001865205
-0.0001043574
-0.0000768449
0.0002044600
0.0000064847
-0.0000381462
0.0002947652
0.0001737794
-0.0000632830
-0.0000975543
0.0006511649
0.0003306519
0.0001865465
0.0002322489
0.0003706604
-0.0000459530
0.0000426188
-0.0000584175
-0.0001118083
0.0000489138
0.0001598907
-0.0000641919
-0.0000089146
0.0000421801
0.0000044651
-0.0001147005
-0.0000197019
0.0000257013
0.0000839750
-0.0000367820
0.0002021087
0.0000613004
-0.0000663805
0.0002929846
0.0003577428
0.0002269424
0.0000835622
0.0001119301
0.0000791064
0.0001787936
-0.0000640772
-0.0000010597
0.0004206782
-0.0000079553
0.0000070186
0.0003959419
0.0003347762
-0.0000149325
-0.0000939825
0.0000580606
0.0001898423
-0.0000155861
0.0002139136
-0.0000485313
0.0000861952
-0.0000938322
0.0001290266
-0.0001082866
-0.0000665416
0.0000054006
-0.0000790519
0.0000383184
-0.0000616542
0.0003535397
0.0005369988
-0.0000553627
0.0000318700
0.0001052698
-0.0001045971
0.0001346255
0.0000107283
0.0000889642
0.0004393551
0.0000630171
-0.0000760248
0.0003091907
-0.0000818590
-0.0001080427
0.0005633167
0.0005747803
0.0004521935
-0.0001126113
0.0000450024
0.0001065513
0.0000130216
-0.0000580027
0.0001141935
0.0003774359
0.0000891107
0.0001315170
0.0000503222
-0.0000887317
0.0001156909
0.0002836492
0.0002481833
0.0004783890
0.0001589680
0.0000087038
0.0001881200
0.0001327959
-0.0000955004
-0.0000002840
-0.0001172539
0.0001228562
-0.0001199381
-0.0000994502
0.0000443383
-0.0000262303
0.0000008266
0.0000269565
-0.0000090542
0.0003738848
0.0001967126
0.0000234624
-0.0000848632
0.0008206465
0.0005277270
0.0002736676
0.0000774663
0.0002358025
0.0003654542
0.0008442430
-0.0001195469
0.0003173017
0.0003798197
0.0004385034
-0.0000729332
0.0001647515
0.0000871367
0.0000211980
-0.0001189558
0.0001618837
0.0000074370
-0.0000948034
0.0001836291
-0.0000675955
0.0002723497
0.0000481025
0.0001926261
0.0000445844
0.0002789534
0.0000298406
0.0005129644
-0.0000713531
0.0000135875
-0.0000868750
0.0000819038
-0.0000797249
0.0000893857
-0.0000389779
-0.0000684338
0.0000251678
-0.0001064811
0.0003770926
-0.0001057770
-0.0000680781
0.0002939814
-0.0000303748
-0.0000472998
0.0000770519
0.0002273116
0.0000647651
0.0002120073
0.0001001400
-0.0000242355
0.0006580722
-0.0001136634
-0.0001185071
0.0000544855
0.0001024412
0.0001683066
0.0006538649
0.0002914596
-0.0001193883
0.0010091919
0.0005027984
0.0001183246
-0.0001055141
0.0002654646
0.0001480485
-0.0000755323
-0.0000989620
-0.0000918866
0.0005071102
0.0000063982
-0.0001060411
0.0004976513
0.0002386228
-0.0000653742
0.0001945496
0.0000788085
-0.0000878038
0.0000674914
-0.0000929510
0.0000975791
-0.0000809650
0.0002252890
-0.0000962757
0.0008265625
-0.0000881901
0.0001421151
0.0003312795
0.0005502253
0.0005930242
-0.0001099251
0.0003124265
-0.0000027342
-0.0000100383
-0.0001087068
-0.0000714221
0.0001165721
-0.0000446202
0.0005491296
0.0003257788
0.0015055268
-0.0000556436
0.0001942365
0.0002779683
0.0000972707
-0.0001097794
0.0000066458
0.0002456037
0.0003297668
-0.0000791601
0.0000053601
-0.0001160068
0.0000107191
0.0001282975
-0.0000027576
0.0003742493
-0.0000976729
-0.0000034253
0.0000263028
0.0002298881
0.0000149266
0.0000684201
-0.0000984093
0.0002649095
0.0001477005
0.0017739385
0.0001246139
0.0000849583
-0.0000703975
-0.0000675282
-0.0000902747
0.0001829557
0.0002283793
0.0000038419
0.0001847136
0.0003245947
0.0001234086
-0.0000064821
0.0000449423
0.0001486480
0.0000350168
-0.0000182221
0.0000040305
-0.0000842339
-0.0000280135
0.0002659350
0.0003238791
0.0001575477
-0.0000371011
-0.0001188425
0.0005389112
0.0002715790
0.0000015351
0.0001163882
0.0004548516
0.0001872951
0.0001131214
0.0004410563
0.0003792073
-0.0000288863
0.0001621354
0.0003919211
0.0003668452
0.0002676434
0.0002527947
-0.0001123775
-0.0001152949
0.0001696353
0.0004477159
0.0001686483
-0.0000891696
0.0000414349
0.0000669641
0.0000025225
0.0007280898
0.0004050714
-0.0000454453
-0.0000229361
-0.0000451430
0.0009139303
-0.0000766332
0.0001347476
-0.0000989020
-0.0000587220
0.0000843913
-0.0000125916
0.0002112320
-0.0000930323
0.0002702428
0.0002503887
-0.0000486360
0.0001079459
0.0005663236
-0.0000316007
-0.0000895223
0.0002562317
-0.0001126182
-0.0001207050
0.0001119267
-0.0000544546
-0.0000815765
0.0001606123
0.0003959657
-0.0000790350
-0.0000956304
0.0000429595
-0.0001026877
0.0006238746
-0.0000165541
-0.0000889970
-0.0001034543
-0.0001079774
-0.0000602026
0.0002027204
-0.0000092757
-0.0000319461
-0.0001122452
0.0000402874
0.0002418710
-0.0000210464
0.0000019824
0.0006023113
0.0000471828
-0.0001076560
0.0002695010
0.0000527343
0.0005088187
0.0003967223
-0.0000679266
-0.0000913543
-0.0000893296
0.0001501745
0.0000136483
-0.0000997503
-0.0000921460
-0.0000055913
0.0000102010
-0.0000212611
-0.0000566885
0.0001234848
0.0000511356
-0.0001113155
0.0004501645
0.0000241084
0.0003096028
-0.0001202128
-0.0001029627
0.0000814468
0.0002051871
-0.0000558076
-0.0000334849
-0.0001036644
-0.0000988993
-0.0001160238
0.0000689815
0.0002733845
-0.0001105642
0.0003667442
0.0001959385
0.0014571852
0.0003675327
0.0000423876
0.0001101537
0.0000376727
-0.0000030574
-0.0000421201
-0.0000558195
0.0007563136
-0.0000933699
0.0006786820
0.0000165902
0.0001636435
0.0000259581
-0.0000543764
0.0003826245
0.0001546731
-0.0000360947
0.0000237640
0.0000382050
-0.0000905628
-0.0000517328
-0.0000468575
0.0000037528
-0.0000473313
0.0007696249
0.0001026799
-0.0000327284
0.0000078572
-0.0000288836
-0.0000791964
-0.0000393395
0.0003133926
0.0005608932
0.0000564992
0.0004895566
0.0001833967
0.0002195112
-0.0001133639
0.0001505365
0.0001779932
0.0005787659
0.0004113221
-0.0000425017
0.0001461167
0.0001369774
-0.0000346802
0.0004443369
-0.0000564405
-0.0000988882
-0.0000855733
-0.0000635679
0.0003229095
0.0001277611
-0.0001135178
0.0013342889
-0.0000284603
0.0001741817
0.0000855997
-0.0001086215
-0.0000055342
-0.0000483732
0.0002689808
0.0006651448
0.0000959598
0.0000893752
0.0005591467
0.0003062176
-0.0000940756
0.0001038138
0.0003212266
-0.0000931079
0.0000831335
0.0001178832
0.0002822546
-0.0000101121
0.0001779703
-0.0000796559
-0.0000615150
0.0002734319
-0.0000047517
-0.0000221922
0.0005674009
0.0000884977
-0.0000772570
0.0002334211
0.0005512501
0.0001759193
0.0001775542
-0.0000830593
-0.0000061163
-0.0000696109
0.0000692590
-0.0000597992
0.0001972525
0.0000587098
-0.0000197412
-0.0000520070
0.0004064031
-0.0000290013
0.0007744857
0.0002722110
-0.0001214352
0.0000200477
-0.0000568126
-0.0000832054
-0.0000896555
0.0003049164
0.0000966434
0.0000782187
0.0000954534
0.0002340989
-0.0000531091
0.0000357740
-0.0000915116
0.0004141678
-0.0001083663
-0.0000858357
0.0001696253
-0.0000538042
0.0001459474
0.0002481788
0.0001743986
-0.0000683944
-0.0000368676
0.0002145130
0.0000400061
0.0005339159
0.0002473937
-0.0000890644
0.0000848769
0.0004936337
0.0000501229
-0.0000544776
-0.0000165803
0.0000554196
0.0001199701
0.0000067962
0.0000474930
0.0002607635
-0.0000395488
0.0000960483
-0.0001015403
0.0000381759
-0.0000849590
0.0000048747
0.0002016626
0.0000998614
0.0006923319
0.0004776906
0.0004442784
-0.0000593321
-0.0000629401
0.0002450480
0.0002103885
0.0004903079
0.0000863743
-0.0000846071
-0.0000939684
0.0000954746
0.0001510781
-0.0000473326
-0.0000792231
0.0002949717
0.0002602282
0.0000654456
0.0004500527
0.0000808750
0.0000062865
0.0001812533
-0.0000874639
0.0002123875
0.0000924945
0.0001033246
0.0001030914
0.0001299569
0.0002670797
-0.0000445690
0.0003626321
-0.0000465801
0.0005870235
0.0000467234
0.0001731679
0.0001132258
-0.0000067795
0.0001047463
0.0000535451
0.0000525899
0.0002584764
0.0001765141
-0.0000605670
0.0000884750
0.0007065975
0.0002406486
-0.0000903229
0.0010266959
0.0010928800
0.0001481662
0.0001854272
0.0004540269
0.0000748787
0.0000941703
0.0004105032
0.0000156285
-0.0000044549
-0.0000716817
0.0003703504
0.0007806401
0.0000680059
-0.0000974834
-0.0000010428
0.0000928616
-0.0000924986
0.0002843039
-0.0001028911
0.0002600257
0.0002737194
-0.0000675552
-0.0001029944
0.0001022261
-0.0000557523
0.0002787985
0.0001173660
0.0000453864
-0.0001052312
0.0004918473
-0.0000795941
0.0001941926
-0.0000642097
0.0001149401
-0.0000620158
-0.0000855326
-0.0001186978
0.0002634900
-0.0000337799
-0.0000882542
0.0002195009
0.0001602453
-0.0000901600
0.0008720194
0.0001779372
0.0000095588
-0.0000909454
0.0000816652
0.0002139940
0.0000982131
-0.0000713358
0.0000963250
0.0005493222
0.0005724618
0.0002155958
0.0000919145
-0.0000713247
0.0000488376
0.0001072757
0.0003115381
0.0000104986
0.0001367807
-0.0000724739
-0.0000465849
-0.0000409507
0.0000197167
0.0000386062
0.0001039876
-0.0000907375
-0.0001171569
-0.0000432793
0.0000321505
-0.0001130032
0.0002323004
0.0001830016
0.0002021874
0.0000037013
0.0000913388
-0.0000743900
-0.0000083019
0.0000012630
0.0000559178
-0.0000504645
0.0002475249
0.0003301696
-0.0001060142
0.0000215991
-0.0001087446
-0.0001076661
-0.0000699528
0.0003458797
0.0001949346
0.0002539560
-0.0000029122
0.0001538027
0.0000830141
0.0003789042
0.0001198583
0.0003636024
0.0000939396
0.0001738491
0.0000035389
0.0001744177
-0.0000806446
-0.0000002008
0.0000345341
0.0002760300
0.0002466771
0.0002867441
-0.0000048521
-0.0000526650
0.0000322087
-0.0000512253
0.0000744830
0.0000375558
0.0001117235
0.0005569870
0.0004166773
0.0002042372
0.0000770772
0.0001983273
0.0003696674
0.0001262357
-0.0000417482
0.0003064275
0.0000323108
0.0003017796
-0.0000495219
-0.0000077919
-0.0000719517
0.0007414375
0.0004159695
0.0000085872
-0.0000131047
0.0000348899
0.0002373452
0.0003289018
0.0008236892
0.0000102858
0.0003041959
0.0004334076
0.0001716117
0.0000582203
0.0003352781
-0.0001033810
0.0003509797
-0.0000993290
0.0000397751
0.0001777746
0.0001514199
0.0005769950
-0.0001003502
-0.0001139855
-0.0000933521
0.0002323295
0.0002927158
-0.0001003833
0.0000306629
0.0003811000
0.0000236286
0.0005468705
-0.0000205870
0.0000048211
-0.0000775033
0.0001573899
0.0001925933
0.0006466593
-0.0000362583
0.0003226117
0.0003577419
0.0003096830
-0.0000862879
0.0000749482
-0.0000105090
0.0012284763
0.0001819594
-0.0000463216
0.0002565584
0.0006129562
0.0000477904
-0.0000503684
0.0003198771
0.0002202787
-0.0000579616
-0.0000353882
0.0003598058
0.0001924800
0.0003490747
0.0000200151
0.0000302060
0.0001744705
-0.0001169651
0.0001515984
-0.0000827881
0.0003702908
0.0000048832
-0.0000134320
0.0000436824
0.0005259078
-0.0000457999
-0.0000120158
-0.0000768866
0.0001767472
0.0001275133
0.0002082843
0.0000591547
0.0000113561
-0.0000899989
0.0001167699
0.0006919924
0.0001075039
-0.0000079712
0.0000307325
-0.0000135779
0.0000175475
0.0002846775
-0.0000215508
-0.0000041210
0.0003798483
0.0003344552
-0.0001083533
0.0002014385
-0.0001031425
-0.0000964850
0.0001158844
0.0000271468
-0.0000091622
-0.0000540191
0.0006149548
0.0003042475
0.0002814110
0.0001785601
-0.0000281557
-0.0000828036
0.0001225060
-0.0000496033
-0.0000760298
0.0001199408
0.0005686948
0.0004815472
0.0001711175
-0.0000332736
-0.0000610183
0.0000428710
0.0000104623
0.0002222665
-0.0000940892
0.0003239424
0.0004086792
0.0001590347
0.0002652968
0.0004120711
-0.0000514856
-0.0001160585
-0.0000485031
0.0000618791
0.0000329490
0.0001647909
-0.0000613891
0.0003592766
0.0000038320
0.0002601451
-0.0000478273
0.0004925971
0.0000128796
-0.0001144499
-0.0000137770
0.0002691859
-0.0000852637
0.0002532199
0.0001535792
-0.0001079503
0.0000784637
-0.0000258135
0.0001029941
0.0005719390
-0.0000520909
-0.0000666415
-0.0000568024
-0.0001041813
0.0001451592
-0.0000395125
0.0001709540
-0.0000405564
0.0000094381
0.0000188633
0.0001175863
0.0000804437
0.0004279966
0.0002093850
0.0001103227
0.0001806369
0.0003540696
-0.0000697085
0.0000048316
0.0000514158
0.0000973904
-0.0000030359
0.0001319092
-0.0000143562
0.0007735162
-0.0000933860
0.0007873978
0.0000586831
-0.0000179243
-0.0000046316
0.0008631365
0.0000134530
0.0002057543
0.0002082200
0.0002099115
0.0000948308
0.0001030735
-0.0000004271
0.0000332578
-0.0001064526
0.0000855355
0.0000232426
-0.0000550458
-0.0000036860
-0.0000820814
-0.0000833201
-0.0001089183
0.0003559697
-0.0000637879
-0.0001144374
-0.0000922117
0.0001974102
0.0000938016
0.0000393058
-0.0000966801
0.0000481462
-0.0000101554
0.0000161277
0.0000480706
-0.0000422892
0.0000167118
-0.0000550101
0.0001149414
-0.0001155278
-0.0000409205
-0.0000194904
-0.0001079535
0.0004007054
0.0000144238
0.0000091869
0.0001804617
0.0000112566
0.0000321703
-0.0000460338
0.0000499058
0.0000419670
0.0000409331
0.0000124600
-0.0000914704
-0.0000890869
0.0005207308
0.0009565596
-0.0000901161
0.0002074549
0.0000146947
0.0005498238
-0.0001194515
-0.0000869777
0.0003243471
-0.0000833566
-0.0000742997
-0.0000178302
-0.0000120134
0.0001827579
-0.0000056784
0.0001373328
0.0000803846
0.0002128078
0.0004953623
-0.0000248652
0.0000995210
0.0000160382
0.0005681846
0.0002395174
0.0001789248
0.0000269732
0.0005529699
-0.0000874547
0.0000389807
-0.0001056783
0.0001389931
0.0000430677
0.0000317322
0.0000380701
0.0000724864
0.0002806194
-0.0000211657
0.0003170624
0.0004060553
-0.0000767662
-0.0000421653
0.0003397977
0.0001211971
0.0003963235
0.0003290759
0.0001787291
0.0000116048
0.0002357011
0.0005925850
-0.0000526549
0.0004257301
-0.0000440737
0.0000629090
0.0000268068
0.0000635214
0.0000315505
0.0000382753
-0.0000690014
-0.0001157490
0.0003072938
0.0002712689
-0.0000536251
-0.0001093250
0.0001834429
0.0002834706
0.0002238732
0.0001585468
0.0004887580
0.0001071834
0.0001041471
-0.0000271401
-0.0000853600
0.0001650057
-0.0001171567
0.0000368513
-0.0000210557
0.0002674570
-0.0001038936
-0.0000723065
-0.0000132039
-0.0001070024
0.0000963594
0.0000770459
-0.0000025175
-0.0001062586
-0.0001107968
0.0001099950
0.0001432468
-0.0000469880
-0.0000979537
0.0003921153
0.0001040945
-0.0000177708
-0.0000301183
-0.0000980170
-0.0001186146
0.0000001992
-0.0000344668
0.0003614729
0.0000202051
0.0004131176
0.0000603757
-0.0001107532
0.0000724314
-0.0000680752
0.0001180257
0.0001886604
0.0004425395
0.0000348953
-0.0000216342
0.0001531352
0.0001365534
0.0004026427
0.0001329578
-0.0000405175
0.0005368046
0.0002216001
0.0001723877
0.0000670447
0.0001418264
0.0000111880
0.0001804477
0.0000153645
0.0003290171
-0.0000226171
0.0000393644
-0.0000459486
0.0005360353
-0.0000497530
-0.0000874118
-0.0001139401
0.0002064516
0.0003819936
0.0000374758
-0.0000470656
0.0005217385
-0.0000465641
0.0003705942
0.0000748736
0.0002531988
-0.0000021961
0.0000106686
0.0002147221
-0.0001061329
0.0001218195
-0.0000939536
0.0000691923
-0.0000453911
-0.0000433782
0.0004865265
-0.0000787126
0.0000113146
-0.0000696470
0.0001797014
-0.0000987137
0.0000472481
0.0002872485
0.0000765101
0.0004006177
0.0004104575
0.0004073190
0.0008180319
0.0000016234
0.0007828464
0.0002658153
0.0001441355
0.0001051667
-0.0001068600
0.0000151367
0.0001974330
0.0004597336
0.0000929440
-0.0000100294
-0.0000655902
-0.0001056760
-0.0000933027
0.0000512742
0.0000002736
-0.0000354142
-0.0000013040
-0.0000896937
0.0001453514
0.0002318327
-0.0000678718
0.0001751129
0.0004132545
0.0001275455
-0.0000674143
-0.0000867129
0.0000266687
0.0000545205
-0.0001124166
-0.0000470240
0.0003479132
-0.0000879968
-0.0000871545
0.0003163065
0.0001271650
0.0002361215
-0.0000720826
0.0001726759
0.0002146781
0.0001350763
-0.0001016601
-0.0001114777
0.0004810178
-0.0000317599
-0.0000379220
0.0000306650
-0.0000324480
-0.0000418844
0.0000711769
-0.0001064737
0.0002788193
-0.0000768596
-0.0001061232
0.0000479294
-0.0000292802
-0.0000067004
-0.0001096209
0.0000154265
-0.0000410483
0.0000076357
0.0000393657
-0.0000765397
-0.0001195725
-0.0000572819
-0.0001159872
0.0001332245
-0.0000757983
0.0000898324
0.0003124837
-0.0001158598
-0.0001186305
0.0001276991
-0.0000774886
0.0001768552
-0.0000724528
-0.0000747607
-0.0000156360
0.0002967276
0.0003369623
-0.0000721679
0.0000158744
0.0000322367
-0.0000511696
0.0001765163
-0.0000116969
0.0000755781
0.0008038708
0.0000362126
0.0004444021
0.0003114620
-0.0000636428
0.0001566815
0.0003192079
-0.0001108204
0.0001589745
-0.0000962630
-0.0000408974
-0.0001090830
-0.0000831176
-0.0001003102
-0.0001204979
-0.0000731753
-0.0000340360
-0.0000114695
0.0001468210
0.0001444893
0.0000682357
-0.0001199848
0.0002022430
-0.0000920542
0.0003294024
0.0002193627
-0.0000622226
-0.0000767036
0.0000155663
-0.0000089041
0.0001867255
-0.0000607045
-0.0000827798
0.0002374492
-0.0000111035
0.0001483148
0.0000397814
0.0001303967
-0.0000351178
0.0000833189
0.0005062379
0.0001618413
0.0005767735
0.0001677288
-0.0000264206
-0.0001022205
0.0002322032
-0.0000752126
-0.0000884143
0.0001778317
0.0002158335
0.0001141447
-0.0000029972
0.0002992999
0.0005633970
0.0000420107
0.0002001073
-0.0000187387
0.0009529471
0.0000228673
0.0000382578
0.0002784618
-0.0000493219
0.0002563470
0.0001896413
0.0006237601
0.0000364164
0.0001300887
-0.0000383956
-0.0000191202
0.0007612088
0.0007347739
0.0005490838
0.0001286704
-0.0001057539
0.0000256402
0.0000408275
-0.0000778382
-0.0000491653
0.0001427037
0.0005783571
0.0005159482
0.0002754427
0.0001916094
0.0000406937
-0.0000029422
0.0006697170
0.0002492685
-0.0000128015
-0.0000366338
0.0003801095
0.0000903208
0.0004817640
-0.0000682664
-0.0000115820
-0.0000548047
0.0000200172
-0.0000843893
-0.0000142523
0.0001219821
0.0004568400
0.0000046861
-0.0000851570
0.0000435483
0.0000670738
-0.0001180959
-0.0000020062
0.0002878566
0.0001043092
-0.0000191322
-0.0000227201
-0.0001108614
0.0004749143
0.0000419769
0.0000045855
0.0002517383
0.0001296856
-0.0000329856
0.0001280949
-0.0000697716
0.0007015615
0.0001324382
-0.0001143838
-0.0000594589
-0.0000354495
0.0003200183
0.0001345583
0.0000029969
-0.0000714730
-0.0000925318
-0.0000931383
-0.0000776217
0.0000791542
0.0000584062
0.0000649993
-0.0000926534
-0.0000086421
0.0000968313
-0.0000066605
0.0000407391
0.0002274783
0.0000515677
0.0002921877
0.0000632014
-0.0000206719
-0.0000750247
0.0000220575
0.0000225284
0.0000129388
-0.0000335796
0.0000886807
-0.0000674953
-0.0000465659
-0.0000856626
-0.0001023659
0.0003394458
-0.0001087109
-0.0001113480
-0.0000612869
0.0005168964
-0.0000531098
-0.0001152337
0.0001743034
-0.0000094096
0.0001584845
0.0004212670
0.0001683705
0.0001506791
0.0001121740
0.0000363482
0.0005858278
-0.0000843445
0.0000461292
0.0006789391
0.0001510484
0.0000857083
0.0001090855
0.0000487195
0.0000758311
0.0003904357
0.0001193744
0.0002677632
-0.0000259321
0.0000173137
-0.0000479440
0.0001526094
0.0003531583
-0.0000631436
-0.0000663491
0.0005023855
-0.0000506035
0.0000337384
0.0001365937
-0.0000892169
0.0000378691
0.0001562293
0.0001733543
0.0004949725
0.0001547013
-0.0000670012
0.0002016141
0.0002599991
0.0002920746
0.0002465393
-0.0000571530
0.0004416919
-0.0000272223
-0.0000912537
0.0000883540
-0.0000555914
-0.0000834567
-0.0000660597
0.0001680921
-0.0000159617
-0.0000625016
0.0000200230
0.0002439678
0.0003851429
-0.0000558145
-0.0000785799
0.0004755140
0.0002533073
0.0000512927
0.0002243879
-0.0000809492
0.0004913702
0.0000363265
0.0006980278
0.0002529403
0.0001417572
0.0001147590
-0.0000559903
0.0002981900
0.0004969834
0.0001732411
0.0000099341
0.0000054522
0.0001642680
-0.0001112458
0.0000954757
0.0003346025
-0.0000485600
-0.0000265298
-0.0000357014
0.0000097538
0.0001053137
0.0000660559
-0.0000382891
-0.0000857684
0.0001386220
-0.0001192511
0.0003140059
0.0001463298
0.0011223377
0.0001643816
0.0006030167
-0.0000194193
0.0005032177
-0.0000950237
-0.0001138732
0.0005879429
0.0002585852
-0.0000608451
-0.0000745981
-0.0000978898
0.0000945228
-0.0000251867
0.0002471156
-0.0000234355
-0.0000888221
0.0004422051
0.0000782597
-0.0000682731
-0.0000061976
0.0003205071
0.0000691103
-0.0000658389
0.0001579142
0.0006495575
0.0004553170
-0.0000904125
-0.0000711479
0.0000809679
-0.0000762121
0.0006579046
-0.0000025355
-0.0001084638
-0.0000922924
0.0004023912
0.0002833141
0.0002388802
0.0000278182
-0.0000238204
0.0000437503
0.0000154880
0.0005033883
0.0000098233
0.0003289894
0.0001752591
0.0003846011
-0.0000453184
0.0005855705
0.0000705938
-0.0001178109
0.0000943316
0.0004988194
0.0001738371
-0.0001117299
0.0002616628
-0.0000918918
0.0001910665
-0.0000945083
0.0001102200
0.0003634333
-0.0000405567
0.0002853748
-0.0001134734
0.0001107871
0.0004347539
0.0001666873
0.0005845482
0.0003040807
0.0000564590
-0.0000612620
0.0000962822
0.0006066842
0.0005596956
0.0001645714
-0.0000774596
0.0002989628
-0.0000506483
-0.0000179157
-0.0000963747
-0.0000735799
0.0001842288
0.0000935425
-0.0001014641
-0.0000971097
-0.0000093389
-0.0001070684
-0.0000761813
-0.0001034189
-0.0000370682
-0.0001009972
0.0002760403
0.0002848572
-0.0000449159
0.0000043637
0.0001028460
0.0002193133
0.0000307744
0.0001203536
0.0002560321
0.0001014053
0.0000933213
0.0000159230
-0.0000013341
0.0004826205
0.0003261618
-0.0000897483
0.0002006843
-0.0000689405
-0.0000182617
-0.0000329504
0.0000545379
-0.0000555391
-0.0000276803
0.0000201294
-0.0000866996
-0.0000720082
-0.0000805979
-0.0000767864
0.0001224924
-0.0000446186
0.0001957333
-0.0000560501
-0.0001097522
-0.0000329673
0.0002126980
0.0002794564
-0.0000666199
0.0001432740
-0.0001052391
0.0001466639
0.0000528922
0.0000102988
0.0000541252
0.0001077592
0.0001989545
0.0001464528
0.0000391427
-0.0000783192
0.0006932397
0.0002097529
-0.0000877758
-0.0000461376
-0.0001219759
-0.0000831071
0.0000242011
0.0001129882
0.0004146779
-0.0000014998
0.0001777726
0.0001647723
0.0003052460
0.0011072743
0.0000293969
0.0003624927
0.0000055645
-0.0001184790
-0.0000005943
-0.0000568626
-0.0000133085
0.0002976154
0.0003287429
-0.0000236768
0.0000825883
-0.0000698008
0.0000835075
0.0002322959
0.0001422439
0.0001915185
-0.0000500091
-0.0001075652
-0.0000223833
0.0001300856
-0.0000836885
-0.0000166268
-0.0000709195
-0.0000882689
0.0003486614
-0.0000979971
0.0001900081
0.0000101264
0.0000411057
0.0001378552
0.0002623798
0.0002490373
-0.0001167577
-0.0000159689
0.0001909036
0.0005180477
-0.0000523198
0.0001808473
-0.0001162600
0.0004814776
-0.0000409998
0.0003099184
-0.0000348371
0.0000507005
0.0003238019
0.0003303242
-0.0000590042
0.0005274776
0.0000617057
-0.0000883697
-0.0000686311
-0.0000421557
-0.0000424707
0.0002309251
-0.0001029722
-0.0000512279
0.0005317433
0.0003364937
-0.0000490046
0.0001960456
0.0005408387
-0.0000444684
0.0000098491
0.0004758232
0.0004429662
0.0000487644
-0.0000706573
0.0002062689
-0.0001110520
-0.0001197298
0.0001383196
0.0001215129
-0.0000295728
-0.0000494129
-0.0000150991
-0.0000089337
-0.0000411775
0.0000550489
0.0003856778
-0.0001042344
-0.0000118011
0.0001769178
-0.0000579269
-0.0000434955
-0.0000033130
0.0001912746
0.0001942096
0.0003371104
0.0005426200
-0.0000416422
-0.0001037009
0.0005428664
0.0001899663
-0.0000852533
0.0010435532
-0.0001186090
-0.0000510722
0.0003438569
0.0000360770
0.0000270845
0.0000142462
0.0001724098
-0.0000659981
-0.0000853089
0.0000288495
-0.0000623569
0.0003854993
0.0001705033
-0.0000988349
0.0001246259
0.0001489390
0.0000523531
-0.0000877559
0.0004338916
-0.0000945059
0.0000966658
0.0004510010
0.0002537437
-0.0000972170
0.0002037653
0.0001129273
0.0000300242
-0.0000546470
0.0008345565
0.0007734299
-0.0001070821
-0.0000335021
-0.0000528979
-0.0000036429
0.0000888066
-0.0000792004
0.0001604556
0.0001361847
0.0000004803
0.0004286980
0.0001377364
0.0001087172
-0.0001179208
-0.0000068628
-0.0000873354
-0.0000894641
0.0002526264
0.0000980852
0.0002821239
0.0007998238
-0.0000024088
0.0000881906
0.0000353149
0.0001825556
0.0003433097
0.0003577590
-0.0000791031
0.0001695823
0.0001525854
-0.0000269281
0.0000661250
0.0000491597
0.0002267926
-0.0000161112
0.0000128846
-0.0000750662
-0.0000902150
-0.0000487354
-0.0000115453
0.0003278653
0.0000777535
0.0002760825
0.0002440304
0.0000667066
-0.0000442003
-0.0000982058
0.0000077656
0.0001170117
0.0003247668
0.0003858924
-0.0000140625
-0.0000123128
0.0002295548
0.0000051721
0.0002222407
-0.0000280505
-0.0000507350
0.0000553790
0.0004703770
0.0001994129
0.0000526175
0.0000069575
0.0002073432
0.0010867722
0.0001536337
0.0017693100
0.0003390370
-0.0000407933
0.0006828904
-0.0000978721
-0.0000756212
-0.0000165702
0.0001324832
0.0000274604
-0.0001140890
-0.0000084774
0.0001775449
0.0004938253
0.0005511824
0.0005972353
-0.0001126495
-0.0000663961
-0.0000277134
0.0000027140
0.0002916168
-0.0000393834
0.0001139587
-0.0000161866
0.0004482375
-0.0001015706
-0.0000111520
-0.0000044735
-0.0000663096
0.0000096343
0.0000271664
0.0003296091
-0.0000940197
0.0005087503
0.0011744272
0.0000380172
-0.0000328074
-0.0000094880
-0.0000543042
-0.0000697341
-0.0001025351
0.0001023254
0.0001472015
0.0000422933
0.0001364487
0.0002985456
-0.0000669854
-0.0000627551
0.0000102302
0.0002618212
0.0003229830
-0.0000621741
0.0005957002
-0.0001158061
0.0000423137
0.0000170418
-0.0000144987
0.0000917775
0.0001071263
-0.0001099407
-0.0000042402
-0.0000614239
0.0001679435
-0.0000236639
0.0000544227
0.0002826680
-0.0000252043
0.0003583221
-0.0000021588
0.0000675863
0.0009363493
0.0009088757
0.0002960342
0.0002594915
-0.0000716953
-0.0000350772
-0.0001213417
-0.0000392896
0.0001357721
0.0006947989
-0.0000397762
-0.0000371216
-0.0000974494
0.0000075267
0.0004289682
-0.0000053215
0.0001513780
0.0003304273
0.0002218935
0.0005791668
0.0003930483
-0.0000177739
-0.0000928260
-0.0000603297
0.0002282795
0.0002822385
0.0000509333
0.0008934084
0.0002109694
0.0001250446
0.0004354112
0.0001620594
-0.0000862558
0.0000066976
-0.0000027722
0.0000474033
-0.0000140034
0.0000660447
-0.0000718240
-0.0000536442
0.0000643124
-0.0001102104
-0.0000166219
-0.0000570567
0.0000224601
-0.0001079846
-0.0001182289
-0.0001121550
-0.0000424264
-0.0000276752
-0.0000000806
0.0002796876
0.0001648588
-0.0001170029
-0.0000444605
0.0000446702
0.0001731672
0.0002508643
-0.0000172383
-0.0000952914
-0.0001106973
0.0004755056
-0.0000999396
0.0002871581
0.0006674429
-0.0000603090
-0.0001073309
-0.0000980841
0.0003934272
0.0003028706
0.0004124065
0.0003500334
0.0003218605
-0.0000339069
0.0011119406
0.0000337870
0.0000409529
-0.0000613703
0.0001336510
-0.0000458124
-0.0000136859
0.0000041693
0.0002191991
-0.0000083276
0.0002130244
0.0000704035
-0.0000351714
-0.0001029203
0.0003275819
0.0000295361
0.0007381812
0.0001710102
0.0003829435
0.0002407959
0.0003298247
-0.0001161821
-0.0000275962
0.0003347662
0.0002226589
0.0001072158
0.0001634960
0.0000626577
0.0000533939
0.0000690245
0.0005278860
-0.0000266503
0.0002678210
0.0000807046
0.0000900579
-0.0000368174
0.0001947861
0.0001185112
-0.0000821173
0.0001598565
0.0003894116
-0.0001099354
-0.0001143905
0.0000235806
0.0001730061
-0.0000861416
0.0004530026
-0.0001151744
-0.0000799104
0.0001775865
0.0000111850
0.0001232047
-0.0000330246
0.0001448713
0.0001242958
0.0006380080
-0.0001002800
0.0002309173
0.0000201102
-0.0000372755
-0.0000802997
-0.0000969101
0.0001254868
0.0000924735
-0.0000865607
0.0000745582
0.0000816032
0.0003856423
0.0004196577
0.0000812963
0.0004125151
-0.0000997824
0.0000524952
0.0005418833
-0.0001176113
0.0000110788
0.0000780900
0.0004734102
-0.0000681249
0.0002323282
-0.0001056507
-0.0000843563
0.0002087560
-0.0000112440
-0.0000937106
0.0004183108
0.0001294737
0.0005380112
0.0010135238
0.0003512713
0.0000714228
0.0000700841
0.0005613064
0.0001815351
0.0000868880
-0.0000313586
-0.0000717710
0.0001212169
0.0001717644
0.0002592607
-0.0001163265
-0.0000230729
0.0000057751
0.0003593351
-0.0000019010
0.0001597914
0.0000648494
0.0000471531
0.0001427390
0.0000478384
0.0010969048
0.0005378532
0.0001362811
0.0005519846
-0.0000278276
-0.0000228870
-0.0000342831
-0.0000868020
0.0000056876
-0.0000711639
0.0004578371
-0.0001112805
0.0004655729
0.0000430140
0.0000296386
-0.0000987165
0.0001220099
0.0005435875
0.0000235370
-0.0000942431
0.0000612195
0.0004182575
-0.0000569876
-0.0000870262
-0.0000719204
-0.0001182113
0.0000435409
0.0008782138
0.0001060628
-0.0000898856
0.0006972295
0.0008154747
-0.0000880745
-0.0000364566
0.0004745723
0.0000966909
0.0000636772
0.0000794520
0.0002582105
0.0000826465
0.0000270441
0.0000584147
-0.0000339984
0.0000696768
0.0007246320
0.0002205859
0.0000589210
0.0001439352
0.0001591082
-0.0000290993
0.0008253644
-0.0000832385
-0.0000136047
0.0003686730
0.0001859082
0.0002994948
-0.0000244441
-0.0000361606
-0.0000501916
0.0000272517
-0.0000360420
0.0003527114
-0.0000808922
-0.0000024455
0.0002044766
-0.0001138018
0.0003118165
0.0001809621
-0.0000080458
-0.0000207560
0.0000208132
0.0000636723
0.0002295886
-0.0000828254
0.0002512708
0.0000691934
-0.0000359589
0.0000946215
-0.0000614567
0.0002619805
0.0002207816
0.0001160523
0.0005797610
-0.0000470582
-0.0000111410
-0.0001149700
0.0002804574
-0.0001131411
0.0000884697
0.0002113927
-0.0000076981
0.0004867849
-0.0000571659
0.0001196364
0.0001414614
0.0001105026
0.0002970836
0.0000308840
-0.0000214912
0.0001686879
0.0000318796
-0.0000426669
-0.0000935833
0.0001120053
-0.0001036929
-0.0001094301
0.0000483673
0.0001009009
0.0001055583
-0.0000006753
0.0001123656
0.0000667459
-0.0000500034
-0.0001028051
0.0001774038
0.0002201553
-0.0000260510
0.0005721621
0.0000468921
-0.0001120822
0.0001182281
-0.0000581822
0.0001297051
-0.0001008491
0.0001576061
0.0004380788
0.0000896122
0.0006116354
0.0005709674
0.0004826845
0.0000909037
-0.0000568705
0.0000385593
0.0002937642
0.0001423294
-0.0000745034
0.0000270393
0.0003182814
0.0000559718
0.0004297644
0.0001838671
-0.0000978927
-0.0000023753
0.0002719724
0.0008037595
0.0001482461
-0.0000460217
-0.0000231879
0.0000013292
0.0003103633
-0.0000604569
0.0001930168
-0.0000035102
0.0003663801
-0.0000678394
0.0002926811
-0.0001082168
0.0002907215
0.0000709359
0.0001618425
0.0002679734
0.0004076059
0.0000760255
0.0001543894
-0.0000756437
0.0001103267
-0.0001085180
0.0000690282
0.0008613219
0.0000670397
0.0004932688
0.0000341330
0.0000179984
-0.0000448865
-0.0000764197
0.0008904804
0.0000003611
0.0001984954
0.0000740280
0.0000150331
0.0004310782
0.0004431675
0.0003194491
0.0003219172
-0.0000953496
-0.0000802911
0.0005145927
0.0002455538
0.0000456078
0.0000704032
-0.0000619397
0.0000231561
-0.0000155097
0.0001906028
0.0002191580
0.0000017955
-0.0000865365
0.0001392521
0.0001192474
0.0004872664
-0.0000845878
0.0000057434
-0.0000212536
0.0000260217
-0.0000050386
0.0001268561
0.0000311946
0.0003826123
0.0001619934
0.0000937013
-0.0000188892
-0.0000280415
0.0001808325
-0.0000966105
-0.0000488285
-0.0000653449
0.0010409889
0.0005980473
0.0000714181
-0.0001056672
0.0006904439
0.0002945188
-0.0000400844
0.0001890651
0.0000028622
-0.0001102877
0.0001461072
-0.0001052854
0.0000170373
0.0003739717
0.0001133481
0.0000607303
0.0005247912
0.0005795700
-0.0000519246
-0.0001160758
0.0002518450
-0.0000746645
-0.0001041520
0.0000131780
0.0001797220
0.0000923048
-0.0000606789
0.0001151194
0.0002944262
-0.0000594282
0.0000441042
0.0001981621
0.0000594076
0.0000433644
-0.0001144666
-0.0000204785
-0.0000677829
-0.0000546620
-0.0000528760
-0.0001127401
0.0000885740
0.0002395511
0.0000022714
0.0012815011
0.0005371775
0.0003540249
-0.0001029190
0.0000512560
0.0001339145
0.0001734500
0.0001143079
0.0001933659
0.0001882111
0.0003782945
-0.0000730913
0.0002914699
0.0001058935
0.0001097949
0.0001477257
0.0001055274
-0.0000139895
0.0001571393
0.0000890564
-0.0000570927
0.0001408725
0.0001501663
-0.0000524903
0.0000769979
0.0002644994
-0.0000532661
-0.0000838497
0.0002639364
0.0001602533
-0.0000842907
0.0000088418
0.0001211974
-0.0000252433
0.0000678330
0.0000307614
0.0000868276
-0.0000247834
-0.0000091541
0.0001447836
-0.0000607105
-0.0001185852
-0.0000706298
-0.0000408451
0.0009843524
0.0001892529
0.0000284858
0.0000142462
0.0000554448
-0.0001125727
-0.0001189273
-0.0000735760
0.0002020745
0.0002508823
-0.0000641153
0.0003333449
0.0000583714
0.0000430836
-0.0000345707
0.0001184328
